201 300
город 0.0894099 -0.120107 -0.0517386 -0.179292 0.21022 0.0604884 -0.135697 0.06943 0.069768 -0.0150371 -0.12195 0.0838565 -0.193282 0.0207837 0.0107807 0.108801 0.149554 -0.122691 -0.000549167 0.203875 0.290865 0.153322 0.00866044 -0.0203447 0.0529391 0.0183183 -0.076673 0.29991 -0.12932 0.0197457 -0.225282 -0.10247 0.354396 0.133392 -0.0290452 0.164856 -0.097614 -0.0471682 0.175999 -0.014571 0.0327379 0.0608139 0.0856639 0.112268 0.188797 -0.335566 0.033804 -0.0218409 -0.197849 -0.310835 0.112959 -0.0212457 0.0195793 -0.136121 0.274359 0.214088 0.145784 0.11306 0.0272701 0.0574329 0.0506781 -0.202403 -0.207643 -0.157194 -0.0803401 0.202279 -0.0754549 -0.132339 -0.0496212 -0.0385885 -0.0330556 0.151662 -0.0768144 0.0376302 0.177023 -0.144633 0.109117 -0.110957 -0.206072 -0.101041 0.106787 -0.123648 -0.11396 -0.0171657 0.2559 0.171872 0.251249 -0.168897 0.00904211 -0.177115 0.214473 0.0158398 0.138377 0.06046 -0.34735 -0.0996038 0.0897877 0.142551 -0.220164 0.0130588 0.222184 0.413066 0.0110364 0.0238205 -0.155321 0.0364719 -0.245056 -0.0747225 0.0651725 0.185408 0.301799 -0.0614113 -0.131683 -0.0945667 -0.0997204 0.128998 -0.0197278 0.125336 -0.0996862 0.0129922 -0.00266815 0.366869 -0.0290182 -0.117387 0.0486225 -0.00293042 0.171508 0.0405228 -0.0556316 -0.23884 0.0392676 0.145253 -0.189555 0.340597 0.0663177 0.00054767 0.165958 0.153825 0.254004 0.200815 0.128416 0.106543 0.0760067 0.033894 -0.0263252 0.170979 -0.0966256 -0.191327 0.217869 0.046913 0.163592 -0.324234 -0.46045 -0.189984 -0.0716291 -0.158752 -0.124268 0.258988 -0.177476 0.127799 0.0661001 -0.205028 -0.179744 0.184063 -0.0767026 -0.193351 -0.0218303 0.160501 0.0726063 -0.04755 0.0858238 0.038937 0.083867 -0.0267494 0.168089 0.0573534 0.114384 -0.245259 0.0623058 -0.0896015 0.0144027 0.140731 -0.0604075 -0.0227982 0.287755 0.105522 -0.195904 -0.510287 -0.0123347 -0.0890248 -0.239064 -0.164733 -0.0190773 -0.0879839 -0.463643 -0.0187708 0.00209897 -0.0278452 -0.0749464 -0.136324 0.137356 0.277877 0.185656 0.0293841 -0.0239251 -0.0326042 0.31488 0.0580315 -0.086923 0.231911 0.220764 -0.157797 -0.0724897 -0.363183 -0.200177 -0.139804 0.0633868 -0.189562 0.0972755 0.0965913 -0.0756591 0.0396835 0.0632834 -0.0451773 -0.0805937 -0.131964 0.354309 0.124929 0.123842 0.0460066 0.113698 0.0822588 -0.0156575 0.100926 0.0598813 0.113185 0.044247 -0.110348 0.00337766 0.381439 0.103347 0.258217 0.027721 -0.0633784 -0.239041 0.0458763 0.200561 -0.186008 -0.107411 0.169626 0.0656095 0.01654 -0.0523404 0.0786981 -0.163984 -0.159552 0.00955316 -0.151779 -0.105823 0.207935 -0.233854 -0.0132933 -0.0798453 -0.121686 0.00494087 -0.130923 -0.0647835 -0.0300534 -0.138013 -0.076579 -0.000959628 -0.299447 0.141862 0.247207 -0.178287 -0.177643 0.317895 0.107297 -0.0593427 0.0968821 0.0316053 -0.0621638 -0.0110134 0.245657 -0.234476 0.209789 0.0716706 -0.159913 -0.303523 -0.155392 0.159875 -0.0151971 -0.0225174 -0.118864 0.0620946 -0.135065 0.384034 0.226567 -0.000493458 0.00023176
большой -0.0271373 -0.391437 -0.122087 0.143065 0.294984 -0.23926 -0.0820858 0.0715348 -0.137643 0.156865 0.110561 0.0193162 -0.0417962 -0.138718 0.207456 0.0141418 0.107491 0.115212 0.131825 0.0142416 -0.289342 -0.0399139 0.160162 0.0751736 -0.07256 0.0245942 -0.458381 0.140001 0.039131 0.450045 -0.114565 0.0949976 0.0292269 0.0946752 0.1862 -0.188598 -0.00100679 0.0953979 0.118836 -0.0810542 0.486117 0.0779881 -0.031147 -0.143018 0.0232874 -0.191693 0.0720676 -0.137373 -0.0640346 0.0337374 -0.12699 -0.136274 0.185124 0.141043 0.142698 -0.122177 -0.213605 -0.0464784 -0.0529946 -0.020934 -0.00339267 -0.248076 -0.0551461 -0.0521066 -0.220439 -0.275266 0.244309 0.0942735 -0.181681 -0.127872 0.0453213 0.0820525 0.0543356 0.183406 0.159182 0.0124973 -0.00199969 0.0701045 -0.225175 0.174313 -0.0867782 -0.333522 -0.174034 0.0968843 0.201597 0.108847 -0.0158164 -0.149042 -0.0927649 -0.184344 -0.0371957 -0.140707 -0.0245437 -0.105997 -0.12477 0.0268851 -0.0779299 0.0705154 0.10783 -0.00932082 -0.190417 0.157925 0.0332057 0.0373014 0.161689 0.0366089 -0.0267929 -0.0991629 -0.0389908 -0.0555496 0.477461 0.0396486 -0.233768 -0.0147156 -0.0924396 -0.232072 0.0753817 0.163785 -0.013387 0.196275 0.0601883 0.220777 0.00443899 -0.283894 0.164829 0.0628039 -0.0199209 -0.162566 0.0350235 -0.0657898 -0.0955709 0.196702 -0.183506 0.120659 0.0209256 -0.0990712 0.15821 0.305525 0.161502 0.473668 0.131744 -0.312756 -0.126346 -0.198784 -0.145051 -0.0495142 -0.179902 -0.118303 0.143564 0.124388 -0.0808821 -0.198654 -0.0455441 -0.189846 0.172786 0.0533857 -0.177285 0.0106286 -0.113282 -0.118645 -0.126841 0.0886928 -0.212572 0.126852 -0.186825 -0.0648396 0.0700453 0.219053 0.121124 0.152463 -0.153443 0.228833 -0.0761445 0.359229 0.0770757 0.161216 0.289705 0.37557 0.134446 0.0363002 -0.00333566 -0.0301607 0.00320229 0.0453969 -0.0378206 -0.166902 0.0863917 -0.195267 -0.14538 0.0986458 -0.346196 0.133462 0.167706 -0.228041 -0.0935228 -0.0391977 0.0398158 0.0193023 0.083736 -0.134577 0.119124 -0.138577 0.0803961 0.101288 0.0471255 -0.28157 0.0413328 0.094719 0.24544 -0.10747 0.0438463 0.388842 0.00897218 -0.111123 -0.106326 -0.176385 0.15814 -0.0950047 0.0935116 0.0735595 -0.0238269 -0.0349516 -0.185707 -0.0405471 0.191009 0.115467 -0.251146 0.260106 0.15608 0.00602835 0.338949 0.0164694 -0.013987 -0.166422 -0.0223844 0.195428 -0.136788 0.0190529 0.0784866 -0.0950177 0.0431866 0.0462877 0.220997 -0.0421477 0.0450977 -0.0421701 -0.127738 -0.0167544 -0.0581847 -0.104018 0.107107 -0.00564911 0.260336 0.160999 -0.0534972 -0.10946 0.131959 -0.157411 -0.162376 0.118646 -0.141015 -0.117292 -0.280189 0.032005 0.242681 0.081069 0.0175351 -0.110493 -0.134347 0.0593622 -0.210766 -0.292047 0.137162 0.067159 0.0231422 -0.0258719 -0.0844667 0.276471 -0.239501 -0.103721 0.122595 -0.144624 0.0419118 0.0493825 -0.0290668 -0.0967657 0.24518 0.111468 -0.15048 -0.119676 -0.219728 -0.0964852 0.0687518 0.0986493 -0.0402187 0.111888 0.241836 0.073239 -0.0112633 -0.00729303
дом 0.238045 0.0572819 -0.128693 0.270376 0.167113 -0.0330665 0.0497474 0.0450158 0.0495909 -0.276534 0.245844 -0.0906597 -0.211349 0.168052 -0.161117 -0.0944594 -0.126227 0.159314 0.0954745 0.312866 0.130134 0.054378 0.196448 0.332434 8.20828e-006 -0.104843 -0.29975 -0.115498 -0.148209 -0.039333 -0.458594 -0.255833 0.425805 -0.131901 -0.0677834 0.135107 -0.280688 -0.070148 0.25455 0.0441732 0.0490629 -0.0672924 -0.324898 0.048114 0.0909222 -0.0027411 0.120858 -0.143786 -0.141842 -0.0134543 0.0307962 -0.0190278 0.0586923 -0.302535 -0.0336811 -0.0717645 -0.263355 -0.114481 -0.100429 0.236982 0.0313806 -0.0587426 -0.40189 -0.0122888 -0.0695749 -0.189681 0.0932171 0.125948 0.263067 0.0194427 -0.0285761 -0.0211062 0.0743261 0.176984 -0.00297712 0.141067 0.000469404 -0.138747 -0.029048 -0.127138 0.282257 -0.131055 -0.0554849 0.110987 -0.0222545 -0.0683923 -0.215662 0.0347425 -0.00573068 0.0109883 -0.10763 0.128651 0.197757 -0.00609818 -0.174315 0.0131684 -0.0673499 -0.0702816 0.26451 0.109324 0.0601992 -0.107152 0.325866 0.29675 0.0657534 0.0935123 -0.287557 -0.11592 -0.164393 0.11043 -0.0262575 -0.332798 0.138601 -0.0672553 -0.156763 0.314629 -0.0578095 0.174556 0.132467 -0.0939309 0.0576991 0.301752 -0.0657747 -0.334888 0.095785 0.0595167 0.107204 -0.0415418 -0.276838 -0.227743 0.197043 0.212572 0.00651611 -0.0977452 -0.0252285 -0.0556411 0.258574 -0.322501 0.0163695 0.199399 0.0729091 -0.116526 -0.136196 -0.0317263 0.0673563 0.298636 -0.417764 0.257647 0.174701 0.220871 0.0721211 -0.279655 -0.10894 0.0726386 -0.201651 0.236736 0.256421 0.0429576 -0.00103445 0.0924671 0.249765 -0.139178 -0.329918 0.298711 -0.0559648 0.148444 -0.135957 0.0170496 0.0579362 0.391171 -0.197546 0.190086 -0.529619 0.285935 -0.21269 -0.22269 0.0484435 0.205453 0.157478 -0.122647 -0.123279 -0.00187746 0.0162587 -0.373977 -0.0758796 -0.227116 -0.0269512 -0.00960456 0.124962 -0.163003 -0.211168 -0.00754317 0.0697086 0.0756163 -0.231868 0.121519 -0.187663 0.0199322 -0.114603 0.0583732 0.230662 0.414991 0.0412918 0.000329968 -0.143109 -0.347405 0.0260193 0.234714 0.0445509 0.143245 0.0351077 0.139003 0.0760097 -0.181789 -0.0595874 -0.18416 0.0535846 -0.132835 -0.0480798 -0.1654 0.113118 -0.0300102 -0.147256 -0.0781486 0.215165 -0.0270335 0.336658 0.149283 -0.20591 0.0554863 0.152078 0.00803988 -0.37719 0.0809311 -0.0397739 0.279537 -0.136013 -0.199543 -0.14432 -0.069268 -0.0739312 0.428077 0.070797 0.202618 -0.19085 -0.071932 0.29011 0.147979 -0.34 -0.0423786 0.111826 0.189758 0.197079 -0.118597 0.086253 -0.140282 -0.0587054 -0.0410159 0.299179 0.0201759 -0.139069 -0.177113 -0.0299953 0.123759 0.0694936 -0.244683 -0.28275 -0.223185 -0.156694 0.088585 -0.144666 0.017993 -0.195573 -0.154566 3.36336e-005 0.0923311 -0.0361262 0.168224 -0.253941 0.261647 -0.133449 0.22387 0.192238 0.0218693 -0.225232 0.123281 -0.018265 -0.103946 0.148452 -0.0503445 -0.083998 -0.109839 -0.0650082 0.0378009 0.0586189 -0.145447 0.343919 0.0787408 0.0588002 -0.0724954
дверь 0.206238 0.173734 -0.0700308 0.0372502 -0.248693 0.0202719 0.00251001 0.0775097 -0.00896294 0.0194479 0.203077 -0.0406706 -0.17762 0.0301539 0.10199 0.0769184 -0.223533 -0.18123 -0.132671 0.311341 0.140523 -0.190356 -0.0779218 0.143513 0.102689 -0.205777 -0.057834 0.230921 -0.118508 0.00173274 -0.222352 -0.158077 0.0929336 0.0629438 0.052482 -0.00459962 0.0536143 -0.167033 0.0162498 -0.123341 -0.094302 0.0419509 -0.275869 -0.2304 -0.0689174 -0.337168 0.0617369 -0.0453078 -0.212246 -0.164501 0.03138 -0.120638 0.0920975 0.125648 -0.183203 0.126666 0.0587189 0.0730858 -0.305516 0.106583 -0.0825089 -0.467468 -0.216563 -0.131765 -0.216098 -0.29711 -0.142701 0.0409846 0.159549 -0.0815316 -0.138037 0.164402 -0.0847737 -0.160481 0.161483 0.260653 0.233377 -0.194873 0.133121 0.216505 0.255262 -0.166114 0.30549 0.27288 0.0798644 0.134532 0.061301 0.25496 -0.193734 0.0588268 -0.245561 -0.05347 0.182702 0.105217 -0.0578563 0.0231807 -0.249276 0.302519 0.109686 0.306586 0.0734928 -0.246971 0.340108 0.195864 0.19192 0.082355 -0.194101 -0.122497 0.240067 0.0663264 -0.0375091 -0.295868 0.0737221 -0.131231 -0.0838613 0.335262 -0.178021 0.103946 0.0145172 -0.0174949 0.0165708 0.219761 0.22373 -0.0103395 0.0279887 -0.207905 0.174295 0.0255668 -0.319208 0.144597 -0.0156516 -0.130249 -0.106702 0.00350455 0.0181369 -0.158571 0.0518512 -0.0890285 0.00612095 0.0810619 0.262293 0.125543 -0.0045854 0.0190566 -0.104896 0.426668 -0.233127 -0.049009 0.180863 0.25203 -0.179413 0.217611 0.0337313 -0.0857524 -0.289722 -0.171073 0.283675 0.269683 0.260432 0.105819 0.328073 -0.18781 0.0708953 0.104793 -0.0535816 0.421745 0.141326 0.0357755 0.144286 0.15155 0.174786 0.252902 -0.0930017 -0.0920362 -0.0378999 -0.0346064 -0.222191 0.174754 -0.0408379 -0.145997 -0.0180076 -0.0507157 0.134405 -0.140697 0.17309 0.0669271 0.10363 -0.275863 0.123983 -0.0470561 0.0165926 -0.147081 -0.0901441 0.0534882 0.092136 0.0237354 -0.33281 -0.0170209 -0.0732405 -0.0960151 0.0689516 0.0128743 -0.0601771 0.176176 -0.112839 -0.0724925 0.287032 0.283193 0.197083 0.0142238 -0.214446 0.564276 0.116264 0.0993969 0.0458447 -0.0508499 0.0493736 -0.29366 0.00900011 0.0595012 -0.0355559 0.185999 -0.390513 -0.255838 0.114459 -0.0893628 -0.0115439 0.0930599 0.261841 0.228224 -0.182367 0.132158 -0.428747 0.10735 0.171573 0.030366 0.191262 -0.0423704 0.0911633 0.25311 -0.124958 -0.0994678 -0.14705 0.0709027 -0.251132 -0.0384846 0.0815977 0.15406 -0.235305 -0.386154 0.0607497 0.604094 0.133973 0.143731 -0.100428 0.131982 0.0176372 -0.13991 0.332275 -0.0720516 -0.0930979 -0.126958 0.0766348 -0.170033 0.112978 0.0442206 0.0908292 -0.274983 -0.178214 0.0642269 -0.0183899 -0.185051 0.0977616 -0.190996 0.0591343 -0.129227 -0.212477 0.122994 -0.378396 0.212207 -0.0846911 -0.138149 -0.130611 -0.25363 0.0424934 -0.140524 -0.120863 0.125414 -0.0687737 -0.449861 -0.00209629 0.0774805 -0.0823196 -0.139769 0.0100872 0.235987 0.136851 0.0246233 0.234602 -0.00476007
окно -0.0334955 -0.33525 0.0769592 -0.34318 -0.0122469 -0.0742454 -0.288119 0.00240096 -0.182813 -0.133316 0.12577 0.153157 0.0117904 -0.174488 0.0580341 0.0343192 -0.221514 0.055118 -0.0950397 -0.0978681 -0.0453012 0.0105868 -0.0770799 -0.064449 0.188358 -0.0756584 -0.291926 -0.0877224 -0.044184 0.213417 0.0720269 0.153087 0.0938788 0.14486 0.067382 -0.121215 0.0341292 0.123822 0.014229 -0.0267901 0.139848 -0.0167012 -0.036767 -0.140772 -0.0803047 -0.297988 -0.0282665 -0.0463179 -0.155795 -0.0892257 -0.258573 -0.198454 0.0559658 0.0938851 0.282211 -0.307525 0.0360638 -0.36703 0.0959989 -0.233534 -0.134344 -0.377323 -0.0141183 0.162013 -0.194154 -0.155674 -0.126609 -0.105792 0.000391465 -0.256051 -0.217859 0.112741 -0.0742249 0.165825 -0.0691416 0.452911 -0.0331067 -0.0215266 -0.239423 0.209494 0.181545 -0.162653 0.172106 0.0600746 0.147184 0.343127 0.158447 -0.0510837 -0.129269 -0.286259 -0.364054 -0.101976 0.183807 0.0712112 -0.00066004 -0.0916693 -0.221054 0.299342 0.22654 0.190805 0.0439154 0.167311 0.0562065 0.0347562 -0.0178941 -0.0181295 -0.0550822 -0.19657 -0.0642184 -0.181202 0.146373 -0.237446 -0.137206 0.344723 0.0485934 0.128069 -0.176628 -0.0720848 0.14098 0.0633553 -0.0167852 0.000852645 0.051579 -0.0650283 0.273676 -0.0805477 0.0539131 -0.405725 -0.120409 0.0395312 0.0884349 -0.109441 -0.21525 0.36236 0.0386967 0.0112875 -0.03301 0.424357 0.00170154 0.198509 0.172611 -0.0667581 -0.0874865 0.0138773 0.0593894 0.00714509 -0.0217282 -0.204854 -0.181542 -0.219854 -0.0557043 0.221375 -0.202142 0.00327558 -0.267151 -0.201008 0.0269672 0.269722 0.0745288 0.200867 0.184432 0.0395912 0.127371 0.120202 -0.229948 -0.0653486 -0.0401122 -0.208037 -0.0351321 0.0239014 -0.177951 0.0341076 -0.10485 -0.0597884 0.0115408 0.140391 0.0587507 0.0977952 -0.0920633 0.0287898 -0.0767928 -0.0525875 0.141791 -0.114245 0.239349 0.0143859 0.356393 0.00606716 0.214285 0.0278384 -0.216076 -0.174445 -0.0882084 -0.0691165 0.0491076 -0.039866 -0.0771795 -0.0237768 -0.0151873 0.0151319 0.182815 0.262883 -0.294557 0.0923281 0.201174 0.0830065 0.0346898 0.123325 0.250132 -0.0609573 -0.123739 0.442842 0.0932805 0.287863 -0.230329 -0.0304034 0.0450434 -0.236855 0.0599119 0.0745189 -0.182146 0.0629458 -0.238659 -0.121029 0.263208 -0.216362 -0.15175 0.0080079 0.163925 0.21252 -0.0773972 -0.0138098 -0.529495 0.140703 -0.0670583 -0.177702 0.23822 0.0453352 0.185743 -0.0117315 0.10625 -0.151619 0.0385128 -0.102269 0.00230845 0.203234 -0.184537 -0.111597 -0.141741 -0.0903099 0.0927961 0.2115 -0.0509969 -0.0838195 -0.326452 0.169368 0.179681 -0.300492 0.124539 -0.107154 -0.231064 -0.197841 -0.0841662 -0.12016 0.363596 0.0898725 0.0852487 -0.183064 -0.222953 0.128378 0.186206 0.0772723 0.18652 -0.102756 -0.0969322 -0.264135 -0.109977 0.377447 -0.289687 0.161397 -0.191786 -0.330999 -0.256283 0.247587 -0.241636 0.0206982 -0.0973186 0.269968 -0.0751186 -0.435907 0.155606 -0.250123 -0.266699 -0.198383 0.141884 0.200011 0.164332 0.0669101 0.128787 -0.0256603
улица 0.0964737 0.102136 0.110353 -0.231525 -0.0447136 0.0836915 -0.111102 0.00798938 0.0138604 0.13904 0.0515677 0.128478 -0.0481267 0.0888418 0.211186 0.300562 0.33849 0.228087 -0.283129 0.316502 -0.194462 -0.0831062 0.208629 -0.0980318 -0.10358 -0.0306749 -0.0398761 0.25324 -0.0217279 0.0624346 -0.0603937 -0.10278 0.210222 0.156174 0.0757171 0.262009 0.102601 -0.171647 0.0247526 -0.380259 0.267532 0.066153 -0.0813966 -0.576057 0.0993848 -0.399148 0.199559 -0.0133021 0.1172 -0.0379895 0.219745 -0.291542 0.189054 0.133988 -0.229688 0.0416015 -0.0323332 0.437904 -0.348553 0.0582677 -0.0656021 -0.343653 -0.0728995 0.0934009 0.0155484 -0.251584 -0.08893 0.208277 -0.0449839 -0.0586986 -0.0284352 0.114069 -0.240715 -0.241158 0.0622129 -0.0779088 0.195887 0.134075 0.0225502 0.00109268 0.13027 -0.0192964 0.255505 0.488945 0.126839 0.250471 0.00953804 0.0159702 -0.220223 0.209513 0.102233 -0.104501 0.020856 -0.163625 -0.0284917 -0.151251 -0.136927 0.0307951 -0.110973 0.0895118 -0.00370833 -0.0479654 -0.00181656 0.0837355 0.0359234 -0.247964 0.0228441 -0.0296061 0.05107 0.0408262 0.00236263 0.146428 -0.126462 -0.207433 -0.127996 0.158829 0.00127721 0.223567 -0.177912 0.0616746 0.0055993 0.0786463 0.221933 0.294949 -0.113461 -0.153067 0.177054 0.185977 0.0298855 0.0667714 -0.185046 -0.0205585 -0.0810009 0.146762 0.114014 -0.00384073 -0.150297 0.0260288 -0.0171268 0.121933 0.349955 -0.100826 0.119308 -0.0877344 -0.0627682 0.00920906 0.122017 -0.235237 0.266638 0.205125 -0.276436 -0.0272993 0.143943 -0.293015 -0.188264 -0.292818 0.382103 -0.229861 0.173015 -0.113819 -0.134473 -0.277141 0.0930385 -0.0323066 -0.0693386 0.284091 0.0349172 0.0363977 0.257037 -0.0557133 0.486626 0.350429 0.121806 -0.0676262 0.0395835 0.0533176 -0.104267 0.113286 0.0313771 -0.345241 0.142927 0.119955 -0.0497729 0.0776106 -0.29884 -0.0515715 -0.269088 -0.373374 0.10934 -0.0392735 -0.0225013 -0.382645 0.129561 -0.505784 -0.301944 -0.316781 -0.0214565 0.13015 -0.0280005 0.15081 -0.115506 -0.267252 -0.160483 -0.302263 0.302475 0.230744 0.266816 0.0184797 0.299387 -0.204496 -0.189728 0.32295 -0.226382 0.176538 0.231326 0.290471 -0.0555167 0.133558 0.416061 0.109556 -0.00494695 0.162914 -0.208197 0.140665 -0.0212298 0.300981 -0.245292 0.137087 0.0801494 0.0786868 -0.0109503 0.127326 0.00278936 -0.0702661 -0.0729058 0.0897789 -0.18418 0.121111 -0.0971959 0.315561 -0.11049 0.0246043 0.0794445 0.0551358 -0.149719 0.243731 0.0818799 0.216504 -0.211645 -0.242716 0.0798663 0.211756 0.0909757 0.306963 -0.0177564 -0.0336854 -0.273939 0.0400984 0.119162 0.0466714 0.0178388 -0.0134878 -0.246639 -0.187702 0.0999097 0.108839 0.148451 -0.267325 -0.0458151 -0.0709868 -0.134967 -0.0477333 0.0437356 0.101821 0.203815 -0.034889 0.0302237 -0.0626149 -0.290808 -0.102297 -0.0236395 0.0621265 0.16558 0.0445575 0.217933 -0.135618 0.0788136 0.150596 -0.113469 -0.308316 0.00739096 0.178561 0.241745 -0.1627 -0.0245266 0.195326 -0.0337429 0.204383 0.107806 0.0818478
путь 0.125829 0.155582 -0.22624 -0.129813 -0.267171 0.00205055 -0.256469 -0.11931 -0.0606419 -0.394876 0.192902 0.105418 0.0509599 -0.241371 -0.172398 -0.243901 0.120128 0.121946 -0.0990115 0.212626 0.028872 -0.0562112 0.0765215 0.128233 -0.00391374 -0.0466161 -0.0285773 0.126284 0.0177373 -0.23819 0.0784176 -0.143625 0.126526 -0.00999255 0.16821 0.393093 0.0675255 -0.127314 0.139393 -0.0810479 0.0776986 -0.242002 -0.272904 -0.391517 -0.0768919 -0.0189639 0.270452 0.311183 -0.0326715 -0.0420791 0.466912 -0.697792 -0.188583 -0.227003 -0.224538 0.295314 -0.0169939 -0.108222 -0.118292 -0.0341448 0.0847763 -0.239937 -0.130394 0.236679 0.00819811 -0.368865 0.0169618 0.17089 0.0117698 0.222778 -0.0209595 -0.171703 0.246467 0.0365009 -0.0417625 0.0963632 0.173611 0.0319884 0.397224 -0.144119 -0.161106 -0.166714 0.309689 0.0319979 -0.0546554 0.150094 -0.0839978 -0.0251813 -0.100375 0.338989 -0.0642726 0.374173 0.141886 -0.0441861 -0.192242 -0.0786861 0.155218 0.0113092 0.258476 0.352108 -0.0685959 0.0133676 0.180051 0.300607 0.0954715 0.145201 -0.0687591 -0.162447 0.135979 -0.0991497 -0.235503 -0.0450641 -0.155775 0.120348 0.136639 0.0711484 0.133445 -0.0554846 0.273476 -0.260605 0.0565765 0.218351 -0.0500397 -0.223226 -0.130456 -0.298977 0.0581617 0.0961385 -0.210922 -0.144094 0.15067 0.163196 0.0180982 0.141012 0.166759 0.124456 -0.333559 -0.0411523 -0.053312 -0.292383 -0.0212576 -0.0771349 -0.0577443 0.00467841 -0.0606039 0.311449 -0.127497 -0.119499 0.122451 0.0774761 -0.196865 -0.0703981 0.0316973 -0.0719842 -0.0531711 0.075408 0.304465 0.126497 0.0435385 0.303457 0.0757854 -0.248618 -0.165827 0.157798 0.220433 0.0576887 -0.0113452 -0.185858 0.312754 -0.180778 0.0559732 -0.115426 -0.411181 -0.000510481 -0.193736 0.108529 -0.141734 0.0206245 -0.0686294 -0.386242 -0.108219 0.0364442 0.0135514 -0.0573495 -0.0234376 0.238108 0.0136646 -0.037006 0.196802 -0.314696 -0.146327 0.0913965 -0.18697 -0.0868951 -0.110543 0.014411 0.0688119 0.0600999 -0.160481 0.441943 -0.14609 0.116129 -0.372399 -0.0842768 -0.018776 -0.124063 0.278134 0.563146 0.143188 0.0981219 0.239204 0.134102 -0.167943 0.260923 -0.0488139 -0.211622 0.159777 0.495585 0.130885 0.245276 0.155521 0.0700814 -0.147126 0.0173124 0.27355 -0.10439 -0.16351 -0.0123282 0.0201165 -0.160796 0.0149155 0.0345797 -0.161846 0.30296 -0.0192661 -0.179562 -0.100872 -0.323421 -0.289183 -0.106319 0.146824 0.120094 -0.124969 0.181538 -0.00350112 0.0671916 -0.193251 0.407841 -0.0407463 -0.0109683 -0.0613363 0.0380965 0.0198564 0.152187 -0.000671131 0.0869793 0.0459288 0.0553402 0.0526547 0.262186 -0.0597337 -0.0164841 -0.0533488 -0.275494 0.110922 -0.00152339 0.0512174 -0.0980244 -0.0829908 -0.0772365 0.0319196 0.336116 -0.26694 -0.278749 0.0187476 0.06386 -0.0724132 -0.0108868 -0.200733 0.140347 -0.0461876 -0.257058 0.125474 0.1212 0.0513072 0.161344 -0.267214 -0.0678496 -0.0354154 -0.178794 0.151573 -0.256458 -0.249415 -0.479326 0.168879 0.0520828 0.129516 0.124134 -0.166947 -0.0426263
человек -0.124993 -0.197644 0.0139195 -0.278409 0.151209 -0.00924352 0.173458 -0.0187115 -0.0484124 -0.00925551 0.505243 0.0620318 0.0971339 -0.310419 0.174751 -0.0120132 -0.164651 0.240685 0.14047 0.0791695 -0.142505 -0.0192468 -0.108283 0.0380357 0.100234 -0.0987554 -0.069856 -0.0702497 0.116773 0.105037 0.0498788 -0.226199 0.0253672 -0.369383 0.0843213 -0.145548 -0.0371291 0.103676 0.0727478 -0.238506 -0.0364365 -0.568629 -0.17804 -0.0493516 -0.232901 -0.00525297 0.069285 -0.00497133 -0.206119 0.04337 -0.0706529 -0.0130592 -0.0755906 0.00763991 -0.274514 0.0972252 -0.248417 -0.209543 0.264933 -0.273034 0.0449636 -0.214801 0.213708 0.282199 0.0140308 -0.228187 0.0711743 0.401216 -0.0305193 0.136164 0.304702 -0.0789862 0.0159546 0.0516626 0.0210366 0.160044 -0.112519 -0.0782725 0.197485 0.203404 -0.0590939 0.125956 0.317228 -0.0529646 0.134651 -0.0507009 -0.20631 0.300501 -0.166526 0.0839286 -0.294818 -0.17525 -0.0782699 0.0918862 0.171828 -0.0739742 -0.325823 0.235041 0.191578 0.224645 0.0684313 -0.180308 0.0181644 0.147701 0.25547 -0.0906581 0.0125607 -0.0482931 -0.177565 -0.236178 -0.123776 0.0324446 -0.0708119 0.187874 0.0348382 0.101368 0.0102136 -0.00755265 0.231935 0.114129 -0.214113 -0.318088 0.14939 -0.135498 0.205109 -0.0804917 -0.255874 -0.260703 0.34332 -0.0197587 0.0968548 -0.0100482 0.21651 -0.021866 -0.098088 0.0436199 -0.388763 0.00344394 -0.00525619 -0.28413 -0.260782 -0.100996 -0.06226 -0.260649 -0.181892 -0.0668825 0.118567 0.0706986 -0.291804 -0.217105 -0.0608372 0.0876902 0.259917 0.1259 0.180127 0.0612851 0.0445016 0.00357736 -0.014591 0.225213 -0.162972 0.177758 -0.214994 -0.236359 0.342435 0.160247 -0.0445131 -0.148485 0.107023 -0.124577 0.0585518 0.128907 -0.188593 0.136157 0.0261776 0.0648737 0.0349705 0.278 -0.0766243 -0.23982 0.11533 -0.340266 0.19943 -0.247644 -0.0778167 -0.190907 0.249806 0.348672 0.139345 0.206544 -0.262966 0.197095 0.308658 0.0572731 0.242138 -0.0918125 0.277508 0.16431 0.312611 0.596793 0.172142 -0.214878 0.0463711 -0.0219277 -0.0970454 -0.455453 -0.0994567 0.158746 0.109579 -0.330163 0.178361 0.550305 0.0033969 0.441258 -0.138708 0.165765 0.141406 0.317898 -0.0525159 -0.333494 -0.0454645 -0.0769238 -0.0450404 0.224444 0.160889 0.249449 0.0394779 -0.00352669 0.0306588 -0.069927 -0.035321 0.0149582 -0.119809 -0.00543273 -0.18334 -0.0773168 -0.058384 0.090804 0.228565 -0.217086 -0.174486 -0.160905 0.0876359 0.23644 0.116652 -0.103139 -0.219725 0.305039 0.272032 -0.248849 -0.155829 0.0151777 0.327538 0.0126701 -0.183587 0.205748 -0.092882 0.13942 -0.0281065 -0.170087 -0.0192665 -0.010261 -0.0669504 -0.219622 0.179117 0.552522 0.146832 0.0477628 -0.123164 -0.0341589 -0.062765 0.138895 -0.280927 -0.253175 0.0430245 0.0267876 -0.148582 0.0721331 -0.366442 -0.101447 -0.0568694 -0.155375 0.382009 0.203258 0.108507 0.119093 -0.0267441 0.102596 0.182127 -0.201381 -0.109478 0.381059 -0.193256 0.0762294 -0.13162 -0.112092 0.0966253 -0.0271637 -0.0719005 0.063851
день 0.12855 0.00149205 -0.186744 0.223447 0.169677 0.0375089 0.0323083 0.0331449 -0.0733272 -0.183163 0.00359837 -0.0403567 -0.0497813 -0.285856 0.0243435 -0.0557749 0.00178853 0.27681 -0.0311462 -0.0435075 -0.139764 -0.0126924 0.237723 0.0317269 -0.152543 -0.083481 -0.548944 -0.286475 -0.00644179 0.122985 -0.0381042 0.165957 0.0183331 -0.112817 -0.0279358 0.0965871 0.0651458 0.132633 -0.103766 0.0904217 0.499489 0.00750139 -0.177048 -0.210192 -0.0313299 -0.129354 0.0364923 -0.346204 0.194849 0.19457 -0.0186315 -0.0260298 0.166282 -0.0827216 0.233819 -0.0851967 -0.376534 -0.171138 -0.13819 0.0782694 -0.0867467 -0.0248742 0.0316722 0.0640598 -0.115995 -0.404085 0.228589 0.0584877 0.0136012 -0.446594 -0.12274 -0.110066 0.195151 0.267165 0.153218 0.103406 0.161337 0.309796 -0.251217 0.187205 0.0197294 -0.202717 -0.162663 0.00695943 -0.116657 0.0219388 -0.186717 -0.00693696 -0.0115287 -0.130053 -0.120973 0.0562028 0.0505329 0.0398197 -0.135149 0.103997 0.046206 0.0765417 0.235265 0.115656 -0.336122 -0.0430086 0.151064 -0.0535985 -0.039137 0.0490727 0.028873 0.0967842 0.0376525 -0.0261668 0.109906 -0.182261 0.150566 0.102173 0.102606 -0.155501 0.268224 -0.0841378 0.00778333 -0.0107415 0.0952283 0.111388 -0.107939 -0.315483 -0.0752273 0.307368 0.0959055 -0.180407 -0.0891359 -0.235617 0.0152413 0.0920895 0.0186967 0.102645 0.0262769 0.0904465 0.395526 -0.00712032 -0.0760783 0.288438 0.109171 -0.0235671 -0.213517 -0.16291 0.261176 0.23269 -0.38347 0.124056 0.0811402 0.314222 -0.180733 0.0932125 -0.110062 -0.311821 0.144688 0.214356 0.058833 -0.352353 0.0154153 -0.00228276 0.330489 0.200989 -0.0929571 0.207118 -0.0351064 -0.11724 0.0746112 0.222382 -0.227732 0.0932529 -0.263859 0.0356939 -0.301201 0.274734 0.213505 -0.0164913 -0.0882462 0.343873 0.0553656 0.0272781 0.0120012 0.073605 -0.0549866 0.0373552 -0.254945 -0.304572 0.425947 -0.0395236 0.250834 -0.249336 -0.129782 0.104643 -0.0130308 -0.232218 -0.0390095 0.102546 -0.133788 -0.126917 0.0227497 -0.0421137 -0.0747493 0.135478 -0.0449298 0.0253408 -0.07161 -0.198625 0.064032 0.364405 0.25429 0.123443 -0.0546553 0.055665 0.260413 -0.166589 0.165656 -0.0726603 -0.0356972 -0.0942288 0.126011 0.10237 -0.251181 0.0269225 -0.397472 -0.237609 0.370329 -0.0545333 -0.396113 -0.114492 0.0298779 0.101889 0.279069 0.115396 -0.198453 -0.276995 0.0278942 0.246241 -0.0470474 -0.311653 0.137617 -0.130564 0.070082 0.118329 -0.166278 -0.0992584 0.107358 -0.113558 0.244058 0.0897081 -0.32182 0.127959 0.0622767 -0.259126 0.0141328 -0.0729911 -0.0882197 0.14578 0.37807 -0.269138 0.180848 0.0933923 0.0965807 -0.280278 -0.0208616 0.488715 0.366818 -0.246935 0.115916 -0.147941 -0.0718399 -0.0523393 -0.0713432 -0.124108 -0.0629054 0.194761 0.12983 -0.380988 -0.31901 0.0222286 0.131104 0.118987 0.266746 0.221815 -0.174786 0.121795 -0.191267 -0.0233345 0.0180063 0.310006 0.03537 -0.226536 -0.371404 -0.111508 0.222409 -0.0604159 -0.127055 -0.0192764 -0.0282229 -0.117401 -0.0354745 -0.176506
солнце -0.0343939 -0.386218 0.0582408 -0.394965 -0.165825 -0.0559606 0.0545517 0.0862745 -0.134593 -0.0862077 -0.0576428 0.28922 0.195527 -0.019221 0.0904205 0.140754 0.0256496 -0.0835909 -0.212222 -0.0924511 -0.200788 0.0321482 0.0682321 0.0447221 0.193142 0.18404 -0.170602 0.184974 -0.061426 0.0771204 0.274294 0.0694583 0.152281 0.130557 0.0310766 -0.142865 0.0188222 0.00542112 -0.0771482 0.0165426 0.198524 -0.00213812 -0.0594583 -0.180771 0.00860851 -0.432592 0.0884498 -0.103098 0.0460214 0.0372294 -0.0163284 0.0320226 0.00219887 0.0691815 0.397329 -0.183126 -0.204439 -0.170309 -0.0647625 -0.142693 0.162216 -0.152525 0.120868 0.206437 -0.0326124 -0.0540213 0.226894 -0.0747152 -0.332793 -0.0719868 0.0386987 -0.139658 0.0338381 0.21342 -0.137019 0.115558 0.00337066 -0.157375 -0.40229 0.399593 -0.123113 -0.0863849 0.0420163 -0.164054 0.127503 0.289005 -0.230873 -0.0375816 -0.261562 -0.354266 -0.245422 -0.246702 0.366952 -0.0344485 -0.0171259 0.112408 -0.0597422 0.382056 0.0117166 0.22226 -0.0285617 0.191655 -0.156217 -0.0193685 -0.179032 0.138684 0.0916311 0.0928169 -0.0755899 -0.319181 0.307428 -0.100176 0.198599 0.294571 0.0910851 -0.0426418 0.126958 -0.186395 0.0672355 0.255078 -0.00694415 0.10047 0.157684 -0.108131 0.102901 -0.0746187 0.0191029 -0.0836944 0.0758228 -0.120657 0.00132226 0.184701 -0.103312 0.215709 0.0782555 0.170742 0.160899 0.304342 0.00262693 0.141492 -0.18248 -0.0172717 -0.0204155 -0.0758811 -0.211934 0.145164 0.0187738 -0.280935 0.0590659 -0.225557 0.142215 -0.185503 0.0217553 -0.0451362 -0.0357786 -0.0544927 -0.241358 0.148734 -0.186748 0.268894 -0.0392862 -0.242445 0.0427096 0.193036 -0.150879 -0.0560924 -0.10076 -0.0830555 0.0700406 -0.0986049 -0.228824 0.148719 0.200427 -0.0964126 0.012379 0.24038 -0.0300934 0.151518 -0.0322499 -0.0315954 0.0876201 0.0834357 0.0726361 -0.247503 0.234155 -0.0698869 0.225597 -0.021018 0.0765535 -0.0437965 -0.422312 -0.148271 0.262266 -0.0594471 -0.121338 -0.179521 -0.0708815 -0.0599339 -0.132968 0.115195 0.0704457 -0.0558323 -0.125668 0.233316 0.00695756 -0.146086 0.154382 0.106632 0.0957494 0.0242565 0.0407516 0.263215 -0.0379625 -0.209483 -0.234284 -0.0849689 0.110228 -0.129602 0.27706 0.0473428 -0.166552 -0.182427 -0.110907 0.0916328 0.260268 -0.162779 -0.0872996 -0.0322882 0.120825 0.115219 0.228146 0.0600149 0.0360749 -0.068308 0.0351314 0.166241 -0.0887423 -0.0747592 0.251524 0.135579 0.0278392 -0.0603381 0.0712267 0.250867 0.297522 0.132718 -0.0355524 -0.141375 -0.114892 0.241004 -0.000158 -0.196389 -0.0746742 0.0208804 -0.274816 0.0118828 0.287616 -0.264355 -0.0203978 0.11507 -0.0424681 0.0173868 -0.141096 -0.00985978 0.177721 0.131267 -0.045373 0.038172 -0.0408683 0.205122 -0.421746 -0.147031 0.126835 0.0415439 0.0274485 -0.170486 0.114545 0.26476 -0.103539 -0.0601213 -0.0599449 0.0511409 0.101091 0.181351 -0.01259 -0.0516126 -0.160615 0.0939265 -0.182869 -0.323243 -0.255044 0.238102 0.154666 -0.222466 0.0301877 -0.161106 0.069774 -0.00947952 -0.274509 -0.0904661
свет -0.0447931 0.0376441 -0.0225066 -0.314806 0.202212 0.125941 0.146824 0.0886567 -0.00824552 -0.225965 -0.145536 0.113543 0.440124 0.107164 0.0457051 0.215257 0.0322065 0.11672 -0.0986051 0.0829167 -0.0415908 0.146389 0.131489 -0.0801142 -0.152868 0.10297 0.143424 -0.275091 0.0301595 -0.0956177 0.0669799 -0.151106 0.132459 -0.0703118 -0.052297 0.0989692 0.12355 0.0653777 -0.0111482 0.0612673 0.0560009 0.119769 0.203152 -0.106193 0.204927 -0.392194 -0.188408 -0.262972 0.130827 0.00215171 0.060985 0.195574 0.300583 -0.15538 0.0138221 -0.115856 -0.202412 -0.126593 0.239894 -0.303931 -0.0346993 -0.420002 0.0306217 -0.0843885 -0.00733674 -0.0744517 0.0949785 -0.0239554 0.175484 0.071121 -0.000318649 0.118276 -0.26849 0.287815 -0.0406068 0.114209 0.0481505 -0.110906 -0.205997 0.353489 -0.00992781 0.0621351 0.109311 -0.114782 -0.267109 0.00247185 -0.300841 0.0350073 -0.035939 -0.290026 -0.235707 -0.151951 0.1616 -0.022123 -0.003358 -0.210696 -0.313596 0.162441 -0.102326 0.088421 0.18083 0.270163 -0.113045 -0.0581237 -0.392256 0.125311 0.0130721 0.294793 0.168517 -0.0649533 0.125703 0.174671 0.126448 0.229653 -0.129359 0.108732 0.0968738 -0.06274 0.0178217 0.0667562 -0.0198572 0.136961 -0.404598 -0.227865 -0.145868 0.134053 0.099795 -0.223478 0.244391 -0.10706 0.0785363 -0.108455 0.0602651 0.177852 0.0411979 0.187447 -0.0134947 0.0860962 -0.270551 0.0388058 0.00719432 0.0183362 0.0526961 -0.0518051 -0.0477387 0.134224 0.209104 -0.00775804 -0.182257 -0.37532 0.151665 -0.285452 0.05672 -0.212617 0.0122807 -0.00548216 0.0482859 0.0760823 -0.121815 -0.0193418 -0.128223 -0.0785085 0.240418 0.0558579 0.252112 -0.0301137 -0.0716438 -0.163324 -0.167772 -0.00384326 0.247761 -0.00282878 0.120403 0.0703323 0.187519 0.111098 -0.146705 0.0536183 0.154734 -0.222663 -0.0266437 -0.0943334 -0.0894945 -0.176111 0.109724 -0.1255 0.273604 0.0210466 0.291035 0.14571 -0.455696 -0.170433 0.272284 -0.221549 -0.189319 -0.16595 0.0756825 0.0682958 0.0060521 -0.0572893 0.288232 -0.0627983 -0.0332719 -0.146437 0.00874978 0.184508 0.318314 0.24543 0.311517 0.0571559 0.29022 0.319715 -0.042356 0.0592211 0.0692159 0.219953 0.155938 -0.113283 0.266867 -0.015493 -0.137682 0.138471 -0.0648476 0.0120439 0.159794 0.179349 0.0306618 -0.0419338 0.0720877 0.0151329 0.297744 0.290442 -0.461978 0.0794007 -0.193135 0.215827 0.10994 0.0608097 0.142616 0.166587 0.156815 0.232962 -0.135845 0.268403 -0.260848 -0.100055 0.0202603 0.0251217 -0.242641 0.37788 -0.000841763 0.0939379 -0.110526 -0.179227 -0.24348 0.285099 -0.240409 -0.371068 0.433661 0.132077 -0.22428 0.1346 -0.353268 0.158271 0.13778 -0.190623 0.0597265 -0.0473277 -0.110862 -0.183133 0.00652859 0.0933094 0.0637605 -0.0987386 0.289472 -0.162501 0.00583162 0.0887998 0.198106 0.0357548 0.02267 0.411505 0.0955803 0.403803 0.0386658 -0.0550425 -0.166607 0.210023 -0.101503 -0.494762 -0.301497 0.224959 -0.128143 0.0146003 0.0748819 -0.0714598 -0.0328243 0.102799 0.144465 -0.0286101
видеть 0.0868271 -0.000160488 -0.0979843 -0.0240443 -0.092619 -0.0983173 0.0441593 0.0507164 0.0852289 -0.0292632 0.109039 -0.242667 0.0166718 -0.108219 0.274231 -0.113262 0.0540683 -0.135992 -0.0604328 -0.106439 -0.0604845 -0.0536009 0.159965 0.082049 -0.150878 -0.357062 -0.183162 -0.120563 -0.261604 0.130651 -0.171297 -0.105054 -0.0369279 -0.0607029 -0.117536 -0.0234783 0.0719377 0.0108341 0.119341 -0.176055 -0.0436985 0.179623 -0.297372 -0.119482 0.133965 -0.361608 -0.196918 0.0543246 0.0931371 -0.256298 0.0319272 -0.0555263 0.104996 -0.0128927 -0.147649 -0.00946671 -0.0909497 -0.0411279 0.0521433 -0.0928153 0.108933 -0.102075 -0.0576037 0.0277725 -0.27382 -0.379079 -0.0330119 -0.225302 0.0891987 0.0105059 -0.110602 0.164382 0.199774 0.051799 0.203628 0.287187 0.109559 0.0744664 0.0568385 -0.0160524 0.0959677 0.0204373 0.143804 -0.0478115 0.0819384 0.066126 -0.165673 0.0904829 -0.152362 -0.195044 -0.156569 -0.0617809 0.0859652 0.138171 -0.271192 0.057624 -0.131777 0.0645612 0.0913351 0.184494 -0.186671 0.210655 0.0485813 0.000925543 0.311209 0.195169 -0.045919 -0.0900643 0.26939 0.0041482 0.237878 -0.0136408 -0.122848 0.0875586 -0.0859047 0.174881 0.0932961 0.00546608 0.0308764 0.223833 -0.0360046 0.273432 -0.131492 0.0807656 0.0289141 0.0498507 0.0919821 -0.227227 -0.175277 -0.106447 0.00941449 0.00203611 0.127799 0.165451 0.0753895 0.0392732 0.264515 -0.0112227 0.0567154 0.274127 0.0341685 -0.164546 0.062858 0.00164316 -0.16813 0.208032 -0.141247 -0.20735 0.0926755 0.453354 -0.271123 -0.223627 -0.00134784 -0.162412 0.0114547 -0.047633 -0.00646343 0.0485812 0.0862319 0.0296864 0.168255 0.0342163 -0.0590184 0.121545 -0.0717956 0.149179 0.129837 -0.101601 0.00608507 0.10526 0.110616 0.190353 -0.0491733 0.305692 -0.00348386 0.0499329 -0.209207 0.102546 0.00248055 -0.120628 0.0177204 -0.27302 0.0907097 -0.0411802 0.0748602 -0.266764 -0.0495246 -0.259285 -0.00671822 -0.0146012 -0.121898 0.099219 0.224641 -0.0238394 -0.0820214 0.0828238 -0.0937776 -0.114267 0.0705764 -0.00774822 0.00347246 0.211105 -0.172932 0.21156 0.0903578 0.182717 0.0244715 0.0877816 0.222719 0.0501507 0.0557971 0.182689 0.242753 0.315152 0.053937 -0.0758251 0.124085 0.234485 0.148038 -0.122583 0.0449973 0.232037 -0.243458 -0.012282 0.146557 0.0370412 -0.249425 0.0122261 0.0676216 0.223951 0.0709229 0.131909 -0.280467 0.07339 0.0506693 0.231288 -0.20322 0.210964 0.0740075 0.103526 0.0287203 0.18879 0.094938 0.148644 -0.160821 -0.075851 0.0182371 0.00809452 -0.182572 -0.116288 0.286487 0.0229904 0.14365 0.0207889 -0.0577257 0.14768 -0.0320247 -0.271938 0.243399 0.0352913 -0.125253 -0.180621 -0.234138 0.0549986 0.0911851 0.0523851 -0.27112 -0.269442 -0.118912 -0.053272 0.00202726 -0.119897 0.187074 -0.087156 0.101292 -0.195701 -0.0836633 0.170483 -0.165199 0.13563 0.135221 -0.218574 -0.130568 0.0754774 0.0347779 0.0767128 0.0405204 0.00745877 -0.212758 -0.183232 -0.277815 -0.22035 0.176124 -0.420741 0.0568864 -0.0139022 0.135051 0.0308474 0.309008 0.161345
сидеть -0.00560407 -0.134767 -0.0628982 -0.178415 0.113312 0.0440188 0.0369625 0.0955326 -0.222522 0.0845756 -0.00168048 0.0693032 0.0716242 -0.145794 0.0428007 0.00974188 0.0859512 -0.145178 -0.0700391 0.0836402 0.131818 0.02106 0.0476815 -0.108275 0.22231 -0.081178 -0.0767868 0.0561761 0.055372 0.0619686 0.0844141 -0.021669 0.120219 -0.117258 -0.0791936 0.0681719 0.0298993 0.104253 0.0926201 0.0179411 -0.083471 0.0181567 -0.000851249 0.137858 0.0646187 -0.102577 0.0924524 0.0133056 -0.0277802 -0.259346 0.0777176 0.0709293 -0.0316746 -0.0978067 0.174077 0.0440435 0.0388895 -0.15315 0.0032002 -0.325777 0.107889 -0.244297 0.0739521 -0.171938 -0.0461852 0.0411001 0.0758831 0.0387463 0.00478779 -0.0308078 0.0796779 -0.0430689 -0.299843 0.0812405 0.0244656 -0.0729901 0.016605 -0.190044 -0.018195 0.13134 0.0744343 -0.0353858 0.0175441 -0.151285 0.209261 0.091239 -0.0702409 0.0109917 -0.0671633 -0.0334453 -0.292441 -0.0168739 0.201385 0.0856034 -0.155835 -0.0698117 -0.0766518 0.0789724 -0.0460847 0.101451 -0.0961289 0.0559126 0.0589363 -0.165762 0.0901458 0.0975135 -0.052427 -0.0150956 0.0130816 0.0131934 0.233911 -0.0162614 0.00676144 0.174597 0.0761971 0.14745 0.0345676 0.0306941 0.142901 0.0966147 0.0727639 0.164305 0.00312362 -0.0100146 0.0556054 -0.00551536 -0.0642045 -0.131749 0.17111 -0.107332 0.0818947 -0.0292155 0.0543291 0.294572 0.0262095 -0.0791014 -0.00877582 0.223079 0.206146 0.0796132 -0.0784596 0.00144059 0.0986954 -0.0389355 -0.0422146 -0.0453238 0.0512595 0.0260589 -0.00250033 -0.0830625 0.0815929 -0.00748072 0.0320661 -0.0618811 -0.0476693 -0.084692 -0.0760544 0.14256 -0.0664671 0.0878666 0.207073 -0.0434584 0.0127277 0.07217 0.00559068 -0.00707758 -0.101038 0.0226918 -0.0744881 -0.104127 0.0170304 -0.00208987 0.245093 0.0381993 0.0316165 0.137687 -0.117604 -0.00570976 0.103698 0.16087 0.11604 -0.180728 0.167174 -0.0494956 0.162548 -0.055966 0.120753 -0.123934 -0.0101645 -0.0243963 -0.162606 -0.0504517 0.0341559 0.108138 0.133753 -0.1564 -0.189991 -0.174224 -0.0215048 0.00346237 0.0658501 0.10055 -0.131839 0.12593 0.0673695 -0.00227056 0.0701022 0.1222 -0.00652808 0.0589552 0.142892 0.139794 0.0103477 0.0235772 -0.265997 -0.0661616 0.0783561 -0.248132 0.122424 -0.0011371 -0.120288 -0.106049 -0.0174915 0.038409 0.0730048 -0.00685987 0.0449171 0.072617 0.173128 0.0459363 -0.0466175 0.0753797 -0.147677 0.0629502 -0.014226 0.0535399 0.000408119 0.0539141 0.244915 0.205644 0.029841 -0.194313 0.141295 0.097472 0.0175294 -0.0851857 -0.0562779 -0.127787 0.0513907 -0.043216 -0.000976986 -0.0295473 0.0940775 0.0191438 -0.19937 0.115871 0.134465 -0.241096 -0.0535362 -0.0517853 0.0727026 -0.260963 -0.146563 -0.108068 -0.0378439 0.0182346 -0.0959982 0.0191999 -0.245099 0.029194 -0.0784206 -0.0710492 0.0557785 0.148549 0.0688891 -0.0305565 0.0178616 0.213552 -0.0376951 0.135823 -0.00125355 -0.061866 -0.055002 0.194835 -0.0278323 0.0604007 -0.0264079 0.118913 -0.171517 -0.125608 -0.08315 0.0851795 -0.186179 -0.110853 0.235851 0.0332766 0.0737207 0.0956026 0.141728 -0.129411
думать 0.239323 -0.015387 0.0323533 -0.174873 0.0608802 -0.057671 -0.348146 0.10338 -0.220384 -0.069847 0.139139 0.0921788 0.105517 -0.122077 0.168365 0.0874198 0.162045 0.456563 0.16917 0.407951 -0.360265 -0.0799556 0.261592 0.0153542 -0.00473917 0.207213 -0.149089 -0.227194 0.0514942 0.0780602 0.13609 -0.02331 0.422484 -0.145317 0.321707 0.485865 0.0787067 0.0674773 0.225903 -0.0845407 0.0555888 -0.0601548 -0.0171003 -0.106564 0.143735 0.184422 0.250577 0.180217 -0.0231908 -0.135204 -0.0954046 -0.266402 -0.158859 -0.272134 -0.00170231 -0.345067 -0.37467 -0.23319 -0.264118 0.215879 -0.0355761 -0.146905 -0.0869906 0.106438 0.0941858 -0.404858 -0.00526176 0.264877 0.00395659 -0.0038089 -0.160563 0.117379 0.025622 -0.0664893 -0.186736 0.36057 0.02234 0.256789 0.140346 -0.109786 -0.075074 0.0584367 -0.111144 0.173625 0.0620837 0.0384138 -0.247025 -0.16354 0.0738314 0.245872 -0.286454 0.0557652 -0.102673 -0.000915108 0.0248907 -0.176091 0.0394274 0.0855706 0.199197 0.0526368 -0.170457 -0.193435 0.28291 0.246251 -0.0852039 -0.226752 0.0951252 -0.212292 -0.303162 -0.114752 -0.0480292 -0.155601 -0.0377176 -0.0304762 -0.282355 -0.157478 -0.215942 0.289795 0.0460747 0.0574547 -0.0751616 -0.259042 -0.105448 0.185519 -0.10908 -0.0211015 0.17202 -0.161012 -0.0248737 -0.0587938 0.0236128 0.33449 -0.0314149 0.276989 0.180522 -0.0227065 -0.0375783 0.194648 0.0988384 0.229701 0.18985 -0.227117 -0.130875 -0.0883909 -0.00377293 -0.185994 0.148651 -0.0191155 -0.221311 0.0686976 0.0966204 -0.0789782 0.113713 -0.0451864 -0.307592 -0.217609 0.243719 -0.329265 -0.127128 -0.0351149 -0.115729 -0.0964926 -0.146359 -0.0397504 0.126572 0.0687241 -0.257002 -0.171411 -0.00817107 0.0730309 0.0566619 0.159596 -0.407026 0.335861 -0.0452383 -0.192846 0.00303514 0.068674 0.0383247 -0.242405 0.14171 -0.00775866 -0.149309 0.0211222 -0.329398 0.0852721 -0.342797 0.0436215 0.0693989 0.21265 0.0753342 0.0777202 0.14655 -0.33751 -0.206274 -0.147234 0.117388 -0.0368697 0.0705969 0.313105 0.0218731 0.182465 -0.278903 -0.128664 0.273379 0.0409325 -0.106803 0.065734 0.196751 -0.0730118 -0.0628008 -0.143233 -0.246811 -0.00476799 -0.0846551 0.108016 -0.100421 0.271939 0.0316764 0.302202 -0.112459 -0.0610529 0.00928979 0.0726162 -0.0598252 0.141328 0.0520862 0.351384 -0.0269868 -0.0987717 0.154494 0.163019 -0.234701 0.143473 -0.29989 0.0367948 -0.21208 0.0649835 -0.148113 0.0126672 -0.0846634 0.0398314 0.0711354 0.0987251 -0.0292159 0.128217 -0.111896 -0.0400595 -0.0185989 -0.244936 0.0551516 -0.0694461 0.101971 0.155548 -0.0457336 0.0591409 -0.382181 0.0648445 0.249687 -0.0924234 -0.119672 -0.0359296 -0.0750211 -0.0244005 0.224048 0.0524591 -0.143957 -0.2351 -0.0889286 -0.0854418 -0.0368348 0.314267 -0.192133 -0.264824 0.23856 0.239631 0.0651545 0.0298495 -0.249436 0.0133398 -0.122767 0.180162 0.217252 0.211648 0.125214 0.0194279 0.246252 0.081215 0.0862954 -0.11217 -0.0781522 -0.488861 -0.0648802 -0.0765254 -0.0662897 0.123725 0.147629 0.270603 0.38229 -0.154438
жизнь 0.00611731 -0.0322696 -0.108493 0.123665 -0.0938068 -0.204497 0.0547987 0.0459907 -0.0381203 0.106694 0.0637228 0.153044 0.20421 0.0715769 0.0641083 -0.00563231 -0.128126 0.0911479 0.0846022 -0.153433 -0.225242 -0.0616328 0.0597794 0.150285 -0.0662982 0.20418 -0.127476 0.192261 0.122214 0.268416 0.100966 0.107461 0.0367824 0.2483 0.271118 -0.0730207 0.0503135 -0.0103281 -0.0840246 0.0990464 0.285902 -0.00820708 -0.0230991 -0.201851 -0.0742441 -0.0063647 0.173053 -0.0468638 -0.198988 0.146708 0.0130048 -0.0493271 0.0318195 0.0639331 0.0420817 -0.203547 -0.235436 -0.0764521 -0.0397355 0.051252 -0.0941375 -0.15852 -0.0339083 0.0555127 -0.0842915 -0.223304 0.396845 0.0291043 -0.311589 -0.0916634 -0.192073 -0.0678807 0.363542 0.129884 -0.0391052 0.00551714 0.151089 -0.00429786 -0.0611714 0.246767 -0.243215 -0.367787 -0.27005 0.0865107 -0.0440124 0.112573 -0.147202 -0.102632 -0.108744 -0.175308 -0.0692155 -0.0402698 -0.0485038 -0.263011 0.0845194 0.126616 0.177422 0.274909 0.329099 0.130448 -0.141808 -0.0116458 0.0240613 0.283379 -0.0779216 -0.0342778 0.102613 -0.174476 0.0179717 -0.0826386 0.372971 -0.0590099 0.069067 0.044108 -0.00741653 -0.254674 0.0864366 0.0437563 0.0912217 0.221644 0.00791529 0.219383 0.0952402 -0.185281 -0.044074 0.0549474 -0.0582183 0.0480445 -0.163682 -0.0417935 -0.0382025 0.433944 -0.116103 -0.0589632 0.00844032 -0.0320131 0.186589 0.142601 0.0575504 0.230393 -0.0663754 -0.112958 -0.252377 -0.061041 -0.154999 0.12711 -0.402445 -0.119589 -0.0845145 0.0551114 -0.0865599 -0.153842 0.0112595 0.0514548 0.139012 0.092725 -0.180836 -0.0207523 0.00619918 -0.0778758 -0.183864 -0.22997 -0.0307326 0.0182783 -0.170099 -0.143224 0.161354 0.0737012 0.0829243 -0.0357279 -0.244985 0.0544555 -0.360693 0.273306 0.0727498 0.0432036 0.076105 0.391777 0.167078 -0.175366 -0.236969 0.0979237 -0.132194 -0.0200908 -0.12987 0.128716 -0.0688756 0.0100692 -0.0582454 0.230887 -0.295918 0.205809 0.184916 -0.0564591 -0.135451 0.0157129 0.0878514 0.030418 -0.0200723 0.0452892 0.0293937 0.042146 0.120212 0.217667 -0.203794 -0.204115 0.0616394 0.218297 0.179597 -0.0370811 0.169547 0.232333 -0.0446076 -0.215267 0.136509 -0.390916 0.11388 -0.038308 -0.0182845 0.179436 0.247914 -0.100647 -0.105692 -0.0775227 0.200127 -0.0676557 -0.335447 0.147226 0.00845632 -0.0785394 0.213264 0.173064 0.122762 -0.103469 0.186204 0.158913 -0.0652104 -0.125936 0.0253041 -0.26259 -0.0971122 0.0118453 -0.061861 0.136899 0.208227 -0.065486 -0.209237 0.210085 -0.212504 -0.118784 -0.087418 0.0813983 0.0050125 0.217265 0.173673 -0.0711977 0.0841523 -0.246735 -0.000155535 0.0746237 0.0237769 0.238222 6.33041e-005 0.142136 0.164205 -0.132333 0.0753131 -0.182385 0.0627379 0.110924 -0.266434 -0.0589985 -0.00550383 -0.294696 -0.0149034 -0.00782609 -0.00383337 0.302439 -0.106035 -0.107477 0.0422441 -0.0749012 0.175684 -0.26646 0.096477 -0.00351895 -0.0332168 0.000957994 0.066149 -0.124884 -0.252567 -0.187521 0.069971 0.141186 -0.167183 0.0155616 0.0862254 -0.108322 -0.0634774 -0.102263
вопрос -0.0372632 -0.211314 -0.0029349 -0.340495 -0.0228311 0.0429891 -0.0530185 0.0106578 0.0226207 0.118722 -0.0172582 0.102057 -0.128788 -0.0488112 0.307406 0.123787 0.235491 0.0483484 -0.163818 -0.098925 -0.0741092 0.00972843 0.0990922 -0.207555 0.16778 -0.099106 -0.0981432 0.0587207 -0.156389 0.153319 -0.0268267 -0.0177916 0.291934 -0.192532 -0.143876 -0.0105102 0.0658633 0.0963508 -0.0944626 -0.245009 0.0986404 0.159589 -0.0588301 0.0190835 0.169569 -0.351207 0.0390744 -0.157227 0.0548986 -0.173115 -0.0262537 -0.0700978 -0.0919777 -0.119443 0.132042 -0.253452 0.108233 -0.0491168 -0.0473283 -0.210185 0.00567406 -0.125092 0.106013 -0.0736863 -0.190043 -0.175209 -0.118994 -0.321818 0.100928 -0.0321762 -0.0967661 0.0263909 -0.0796344 0.0213153 0.0766158 0.201936 0.0332905 0.137926 0.00173293 0.0583822 0.12801 0.0959752 0.0696032 0.170384 0.22597 0.35928 -0.146537 0.0438914 -0.0884903 -0.278193 -0.0887328 -0.13636 0.190533 0.017661 0.0168028 -0.173761 -0.135436 -0.0159547 0.0704748 0.162905 -0.0207237 -0.0512726 0.0443805 -0.161541 0.0435975 -0.190827 0.0290488 -0.0831729 -0.119552 0.069349 0.291986 -0.0847266 -0.154967 0.0622742 0.0871884 0.253781 0.0195464 -0.0171045 0.0416325 0.235798 -0.0243687 -0.0453524 0.192865 0.0213958 -0.0108615 -0.0083315 -0.0260025 -0.175914 -0.0789426 -0.0318134 0.0304156 0.131898 -0.00743826 0.169263 -0.0229624 -0.0113878 -0.00861962 -0.0228892 0.119261 -0.0342674 0.16987 -0.174151 0.0011953 -0.22141 -0.178896 -0.0448108 0.152626 -0.0845547 0.00946313 -0.0783582 -0.149575 -0.168781 0.0272203 -0.122435 -0.0067254 -0.0332695 -0.00311126 -0.136927 0.079229 -0.113076 -0.00508926 -0.0780891 0.0128981 0.0013762 -0.109683 0.00854533 0.00100897 -0.128341 0.17312 0.0803044 -0.0593265 0.15337 -0.0220555 0.286212 0.0214423 -0.00632612 -0.150188 0.154298 0.0358837 -0.361797 0.167711 0.0127893 0.0402816 -0.0809008 0.132276 -0.223851 -0.0797946 -0.228961 0.0110662 -0.031422 -0.120003 -0.0102911 0.243216 -0.0768805 -0.15448 -0.230112 -0.03795 0.107983 0.241855 0.295495 0.205158 0.138338 0.0589303 0.0385708 0.323503 -0.0329822 -0.0043652 -0.108451 0.191026 0.135295 0.0573752 0.245083 -0.127952 0.32439 0.00586333 0.0927229 -0.0455091 0.0887701 0.228049 0.0475756 -0.189097 0.102328 -0.0338725 -0.0208901 0.139555 0.269092 -0.03068 0.107776 0.0943021 0.0657497 0.0949317 0.324385 -0.0958755 0.00778878 -0.0927577 0.170887 -0.110913 0.147045 0.0387245 -0.0136025 -0.0797236 -0.116945 0.00364777 -0.0751381 -0.0590911 0.202065 -0.0909288 0.0123281 -0.355996 -0.1394 0.0396722 0.0621437 -0.0948035 0.108771 -0.154185 0.29474 -0.0921666 -0.349217 0.0957203 -0.0368387 -0.0851212 -0.162465 -0.152826 0.0377277 0.0948821 0.183093 -0.0234818 -0.249823 -0.147538 0.0510908 -0.210305 0.0566334 0.14472 -0.15563 0.184106 -0.0217971 0.0846342 0.207152 -0.199258 -0.0727362 -0.0509568 -0.0488118 0.138325 0.233369 0.00383895 0.0694886 0.00536441 -0.00699011 -0.0117293 -0.0935321 0.0211967 0.0322766 -0.127049 -0.192975 0.0397211 -0.221893 0.129575 0.163008 0.212964 0.273735
ответ 0.164375 0.0749228 -0.127084 -0.0588329 -0.230734 0.0142636 -0.249468 0.196479 -0.00735137 0.144006 0.0821483 -0.0601429 0.0188927 -0.106321 0.0702717 0.0415279 -0.00705496 0.026827 -0.0798192 0.21722 -0.15538 0.0151331 0.173855 0.152106 0.17553 0.0920487 -0.233885 0.124821 -0.121614 0.171698 -0.0173676 0.0914638 0.300674 -0.0620089 0.0818269 -0.111642 0.250783 0.0963307 -0.025823 -0.0580629 0.151766 0.110269 -0.0127483 -0.210166 -0.00261902 -0.11267 0.049556 -0.109586 -0.0598562 -0.196061 -0.134381 -0.000927882 0.121773 -0.159239 0.111515 -0.147386 0.0105706 -0.0937827 -0.131312 0.0728446 -0.0944009 -0.0434545 -0.147095 -0.145178 -0.0592148 -0.156437 -0.18905 -0.134931 0.0422291 -0.130213 -0.248944 0.167509 -0.192835 0.028044 0.0832813 0.248057 0.0324634 -0.21715 -0.149235 0.113524 0.255417 -0.0553092 0.0427144 -0.00600587 0.0773948 -0.0218025 -0.00035882 -0.0105311 -0.0151415 -0.197245 -0.090134 -0.0402595 0.025511 -0.0248331 -0.12458 -0.0169343 -0.109784 0.286605 -0.00712908 0.277247 0.0301308 -0.177398 0.135073 -0.00168859 0.250182 -0.0159781 -0.0496417 -0.212991 -0.0439381 -0.0638174 0.116439 -0.286341 -0.0238765 0.0472783 -0.0045041 -0.0438381 -0.10033 0.159317 -0.0534178 0.0851471 0.0673539 0.152605 0.0623933 -0.192361 0.0287006 0.0633115 0.112335 -0.151677 -0.138179 0.065606 0.049922 -0.0618985 -0.206412 0.22689 0.0839424 -0.140125 0.235667 0.128972 -0.0247726 0.112499 0.168219 0.0254134 0.0703093 -0.0877137 -0.128187 0.193397 0.0208296 -0.0804482 0.0735078 0.0052941 -0.0388712 -0.0210884 0.0592351 -0.134106 -0.188927 0.00136138 0.216546 0.021327 0.0111281 0.0442286 0.0767576 -0.113802 0.0592125 -0.0045912 -0.0725115 0.0194408 0.137569 0.100902 0.0293651 -0.03346 -0.0979254 0.0411231 -0.156015 0.08863 -0.00698941 -0.0679552 -0.094731 0.274984 -0.0497034 -0.00667768 0.0226492 -0.0455332 -0.0160955 -0.00181199 0.11444 0.0461285 0.00718586 -0.0790583 0.196192 -0.000304148 -0.106156 -0.119068 0.120427 -0.126777 -0.0804737 -0.0405251 -0.131278 -0.171861 -0.057098 -0.32373 0.232655 0.0714113 -0.0506975 0.205342 0.147275 -0.22983 0.144505 0.0304673 0.238719 0.148899 -0.00720588 0.271578 0.0758432 -0.00637864 -0.058934 -0.205925 -0.0465789 -0.0842379 -0.0224003 0.181618 -0.0898387 0.0771029 0.0111889 -0.179424 0.253898 0.0347831 0.0424608 0.135217 0.287756 0.257672 0.0817425 0.242412 -0.327669 0.213834 -0.154423 0.133592 -0.0380799 0.148291 0.16668 0.125223 -0.230231 -0.224046 -0.0189871 0.018577 -0.11288 0.0475636 -0.0428923 -0.189701 -0.308968 -0.140521 0.106873 0.146567 -0.0233069 -0.0229473 -0.181502 0.159119 -0.0076549 -0.145002 0.198557 -0.10798 -0.143361 -0.214956 -0.0798346 -0.0709896 0.278564 -0.0807554 0.134425 -0.175809 -0.200036 0.0310829 -0.0139508 -0.114441 -0.0393183 0.0134565 -0.0108061 -0.171499 -0.00254849 0.0711109 -0.160575 0.0574207 0.0158333 0.072353 -0.115406 -0.0398821 -0.0360314 -0.0341471 -0.0527414 0.103835 -0.100894 -0.300543 0.0194542 -0.0723487 0.0927832 -0.248053 -0.0631773 0.096916 0.222129 -0.0410855 0.217713 0.0177568
нужный 0.0850167 -0.253203 -0.143115 0.0276115 -0.117617 -0.214219 -0.172917 -0.00919751 -0.157437 0.026103 0.103182 -0.0954358 -0.0827499 -0.235131 0.218925 -0.188754 0.0797159 0.101582 0.064905 -0.0593416 -0.270363 -0.106264 0.153219 0.113539 0.018788 0.0251939 -0.362549 -0.0130474 -0.10534 0.162392 0.145891 0.148214 -0.00369919 -0.0442464 0.109245 -0.0605631 0.021606 -0.013489 0.0625482 -0.0539385 0.266459 0.0309986 -0.284763 -0.0524456 -7.22971e-005 0.0338671 0.0236225 0.0695746 0.0987433 0.0122088 -0.149181 -0.426192 -0.0930945 0.0278614 -0.00665411 -0.147753 -0.0856873 -0.313547 -0.12781 0.0540995 0.00183086 -0.0930622 -0.0207328 0.26521 -0.0768805 -0.323747 0.0518422 -0.0590752 -0.0511484 0.0376551 -0.0382149 -0.0545248 0.235483 0.118386 -0.0360057 0.246965 0.00208285 0.11963 -0.00255317 0.0677181 -0.251094 -0.0670392 0.0833114 -0.0567104 0.0729312 0.159721 -0.145981 -0.0627507 -0.0366741 -0.073264 -0.16296 0.0697208 0.0080209 0.0196431 -0.127909 0.0573378 0.0486461 -0.0602996 0.261157 0.153003 -0.320444 -0.097428 -0.0246056 -0.0558423 0.180067 0.0568677 0.0374973 -0.199161 -0.116205 -0.122033 0.159434 -0.050897 -0.139834 0.151303 0.0582568 -0.211115 -0.00563339 0.0325017 0.0899377 -0.0287358 -0.0893253 0.0335055 0.101466 -0.0748533 -0.03201 -0.112723 -0.0305615 -0.111343 -0.124401 -0.0229007 -0.0810499 0.145332 -0.0959173 0.148105 0.126922 0.015107 0.0780957 0.122361 -0.0245919 0.17057 0.0725571 -0.28709 -0.0937865 -0.0383663 -0.0785658 -0.0431617 -0.0724503 0.033813 0.0157845 0.171 -0.0889084 -0.0630716 0.124452 -0.197207 0.0502571 0.0422136 -0.0450566 -0.117433 -0.0359627 0.0465913 0.0240183 0.0415251 -0.122199 -0.0230448 -0.0193685 0.0281463 -0.0407135 -0.07861 0.0504365 0.0549618 -0.176724 0.0705687 -0.177773 0.330777 -0.110111 0.0381632 0.0259057 0.227661 -0.0711 0.00142132 0.0747544 -0.0539826 0.0092362 0.0316546 0.0405493 0.0967412 0.104578 0.0206004 -0.100087 -0.057232 -0.0992087 0.182317 0.0915608 -0.158032 0.10512 0.0196428 -0.0767497 0.036926 0.0634759 0.106027 0.111754 -0.0110287 -0.213731 0.168617 0.229664 -0.167426 -0.0820663 0.0914462 0.219581 -0.0302144 0.0225517 0.294739 0.0848735 0.172271 -0.0776099 -0.208492 0.129687 0.252302 -0.00544967 0.118928 -0.0170476 0.0613316 -0.0800996 -0.150286 0.245973 0.0602671 -0.315807 0.135606 0.170886 -0.0166517 0.183436 -0.0237049 -0.116595 0.0120487 -0.166196 -0.000396975 -0.155041 0.00147021 -0.0249377 -0.17827 0.11607 -0.0243393 0.00295045 -0.0393777 0.150727 0.0588771 -0.204529 0.0171377 -0.135797 -0.166624 0.0104447 -0.194451 0.106179 0.120685 -0.0673128 0.0360215 0.0522713 0.00193992 -0.00453537 0.0402334 -0.0410789 -0.153426 -0.141749 -0.0505985 0.208107 0.16048 0.0460633 -0.0676666 -0.00494375 -0.0383072 -0.0659576 0.101963 -0.0630793 -0.192855 0.122981 0.0867713 -0.177849 0.200892 -0.249501 0.00827896 0.0236021 -0.207832 0.018243 0.0765399 -0.00682909 -0.0801383 0.0363194 0.0557415 -0.00917522 0.0175597 -0.0173115 -0.322943 0.0940888 -0.24564 0.0859444 0.100078 0.0851963 0.022743 0.0164463 0.0908001
знать -0.0523222 -0.188663 0.0167627 -0.265744 0.0209548 -0.0790915 -0.258301 0.0519681 -0.156652 -0.000322703 0.301353 0.28309 0.137596 -0.169933 0.0996355 0.147132 -0.186515 0.115762 0.105898 0.21205 -0.233967 -0.192821 0.0335522 -0.050649 -0.0325925 -0.0686674 -0.227819 -0.138985 -0.0531281 0.0420004 0.094327 -0.0263269 -0.0222261 0.0560623 0.134952 0.0754011 0.0869535 -0.0207747 0.134893 -0.153791 0.208329 -0.0424639 -0.0939403 -0.258918 0.0407304 -0.129256 0.156946 -0.0808083 -0.00132756 0.0417952 -0.125123 -0.134671 -0.0764564 0.257551 0.105663 -0.219914 -0.246802 -0.0689672 -0.185353 -0.114698 0.00935842 -0.349252 -0.0212844 0.0481449 -0.0107692 -0.473386 0.0628327 0.0579011 -0.316312 -0.0477044 -0.0429297 0.243042 0.00395189 0.0276843 -0.100982 0.323547 0.16143 0.278753 0.0262783 0.13197 -0.189088 -0.172394 0.0301151 0.050164 -0.0993636 0.29498 -0.0235242 -0.0182683 -0.0856223 0.153289 -0.320086 -0.102386 0.150391 0.169667 0.105371 -0.131627 -0.131057 0.181417 0.173706 0.290747 -0.211354 0.0791407 -0.022704 0.363649 0.235629 0.00224793 -0.0495018 -0.0938645 0.102301 -0.127515 0.27891 0.0209996 0.0660508 0.258748 -0.10327 -0.150569 -0.0712847 -0.110003 0.148163 0.157419 -0.147091 -0.0680967 0.0320925 0.140117 -0.0267662 -0.307616 0.198139 -0.224972 -0.0479701 -0.045462 -0.123381 0.178594 -0.0362374 0.449829 0.0997068 0.0918923 -0.0183048 0.407213 0.0120826 0.233722 0.098269 -0.0289104 0.112342 -0.108225 0.0683485 -0.0433715 0.135493 -0.288582 -0.0941404 -0.0157405 -0.0994424 0.107312 0.0456326 -0.103636 0.0228922 -0.255142 0.149259 -0.132664 0.240335 0.00766757 0.0774647 -0.131433 -0.0161246 -0.243226 0.136926 0.157354 0.00631122 -0.250671 0.0453704 -0.0902416 0.106848 0.092525 -0.104027 0.196362 0.143576 0.108011 -0.080353 0.0750065 -0.0154009 -0.111128 0.152275 -0.278224 -0.052865 0.0927794 0.0601482 -0.151604 -0.00932933 -0.155724 0.0434599 0.228126 -0.17291 -0.0183343 0.0426555 -0.209164 0.0749616 -0.233921 -0.00462033 -0.193583 0.098336 0.0360066 0.00473085 -0.199259 -0.46008 -0.123865 0.25942 0.0249917 0.110089 0.224803 0.143532 -0.283929 -0.0195177 0.525918 0.0408826 0.223713 -0.316159 0.121544 0.00170193 0.084468 0.085406 0.0996216 -0.420409 0.351456 -0.183943 0.160543 0.210081 -0.0709833 -0.0848227 0.111261 0.241219 0.163415 0.0604815 0.064852 -0.0900059 0.00904421 -0.128796 -0.0838533 -0.0199775 -0.0688042 0.0349497 0.0696863 0.169707 -0.119418 -0.0854036 0.125961 0.0341263 0.0770679 -0.246041 0.135214 0.10811 -0.249542 0.040238 0.0060557 0.233945 -0.0156433 -0.225904 0.139801 -0.0429199 -0.149729 0.158268 0.115631 -0.202667 -0.175935 -0.241198 -0.0192917 0.436441 0.129157 -0.122251 -0.152367 -0.163505 -0.180136 -0.274289 0.0215128 0.038215 -0.097365 0.0224371 -0.129614 -0.186533 0.243539 -0.32763 0.0307937 0.0388619 0.0579818 -0.059191 0.254346 0.199044 -0.100404 0.047828 0.386104 -0.0888497 -0.229898 -0.166853 -0.0809477 0.0205178 -0.0758076 0.0128141 0.0730648 0.0373067 0.0611211 0.188741 -0.163315
ночь -0.00132596 -0.131325 -0.0118206 -0.291353 -0.0153713 -0.06325 -0.110605 0.0241267 -0.302192 0.0835 0.182622 0.109126 0.0766018 -0.206612 -0.0604981 0.164322 0.0249112 -0.322495 -0.154165 0.126715 -0.0376004 -0.160244 -0.220576 0.0258077 0.00315208 0.106502 0.0982256 -0.300127 0.0939107 -0.0606633 0.0515363 -0.153606 -0.0396812 -0.0761544 -0.175354 0.0258076 0.0425122 0.144595 -0.0195748 0.0677063 0.0264545 -0.0143075 -0.108247 -0.259334 0.171387 -0.138259 0.0379473 -9.0141e-005 0.00580292 -0.148712 -0.202205 0.029418 0.0620843 0.171193 0.0582158 0.0948905 -0.0507907 -0.213893 0.0506423 -0.0419476 -0.0961028 -0.275086 0.154739 -0.0131897 -0.310188 0.043413 0.109738 0.156286 -0.295926 0.082943 0.218068 -0.0818442 0.0189971 0.0705524 0.104912 0.228282 0.213828 0.0705194 0.140274 0.143563 -0.0294578 -0.26712 0.186604 -0.0899871 0.0535609 0.217469 0.105004 0.124561 -0.132518 -0.145173 -0.433658 -0.144031 0.0460174 -0.020196 -0.0377157 0.0108726 0.0167333 0.261195 0.233244 0.319627 -0.277355 0.0313038 0.131781 0.162277 0.185216 0.18183 -0.104829 -0.0524131 0.118779 -0.17218 0.0531916 -0.0182164 0.239565 0.270195 -0.00131057 -0.110828 -0.225122 0.12709 -0.0161642 -0.0101927 0.207981 0.111824 -0.0293591 -0.217139 0.118883 -0.0849453 0.0982854 -0.173279 -0.109862 0.115796 -0.0614099 0.144156 0.165787 0.35596 0.117392 0.141576 -0.0349407 0.240171 0.252056 0.0342745 -0.042242 -0.0498224 0.127486 -0.100928 0.168092 0.221531 0.0637643 -0.11074 0.172071 0.000700708 -0.0446082 0.203802 0.00865043 -0.126975 -0.0219251 0.0359122 0.00196328 -0.0907594 -0.0737058 0.00823492 0.0938245 -0.0730361 -0.0642245 -0.134496 0.174314 -0.0765739 0.118551 -0.185025 0.0745749 -0.0341152 0.0763197 -0.0729982 0.12181 0.115615 0.17639 0.0170635 -0.133287 0.0159458 -0.171083 -0.0439584 0.0332804 -0.0416474 0.0379205 0.0182447 0.234756 -0.178786 0.0919071 -0.0318577 0.249346 0.0923239 -0.133966 0.0299383 0.0350894 -0.12482 0.0734779 -0.0530811 0.0298717 -0.132174 -0.149526 -0.346838 -0.0269316 0.196218 -0.306963 0.0756001 0.00925899 -0.123531 0.12416 0.425415 0.0823896 -0.141808 0.0407278 0.23618 0.273037 0.0324142 -0.162719 0.0667252 0.189956 0.0191396 0.00376667 0.0667188 -0.189392 0.0521449 -0.233413 -0.0109011 0.174828 -0.0489338 -0.0543088 -0.0425379 0.0525519 0.247342 0.0828434 0.101349 -0.079367 0.140182 0.0291788 -0.194688 0.102757 -0.0584356 0.15716 0.185989 0.0993258 -0.0498825 -0.162927 -0.0896311 0.0222492 0.0581673 -0.0293667 0.0374493 -0.0484357 -0.0089968 0.157858 -0.071957 0.155197 -0.175297 -0.0487687 0.0954854 0.0309087 -0.200172 0.0677931 0.13754 0.0760939 -0.191815 -0.0545369 0.0351343 0.0403146 -0.143384 0.146325 0.0423709 -0.243242 -0.0770779 -0.114375 -0.0288987 0.10563 0.0296448 0.185574 -0.0475643 -0.2928 0.106866 -0.019311 -0.0774563 0.130749 0.0295725 -0.058844 -0.00480399 0.150757 -0.0605586 0.0574121 0.111774 -0.0626264 -0.223419 -0.281891 0.14884 0.00939311 -0.144342 0.0067677 0.0378999 0.173401 0.115111 0.0605076 -0.035037
тихий 0.172515 0.00862249 -0.237801 -0.040294 -0.157983 -0.182739 -0.0343457 0.146974 0.00351368 0.0198289 -0.0772867 0.0415883 0.244374 -0.120094 0.0263922 0.0637086 -0.0251729 0.234776 0.0169014 0.107055 -0.194486 -0.192574 0.398452 -0.0073087 0.0250569 0.0120512 -0.434124 0.137781 0.00314921 0.0743463 0.0858304 0.0415858 0.328949 -0.0272976 0.115028 0.102652 0.0330934 -0.0234725 0.151859 0.0361864 0.262945 0.0569924 -0.161497 -0.194485 0.0149213 -0.184372 0.149321 -0.129197 0.203559 0.00930781 0.099007 -0.153723 0.134023 -0.0215301 -0.0491714 -0.200452 -0.297128 -0.276493 -0.268531 -0.122905 -0.0428229 -0.189069 -0.0544909 -0.0982681 -0.0902456 -0.453083 0.229391 0.0680457 0.21831 -0.137005 0.0378093 -0.108733 0.00307852 0.0944152 -0.105723 0.181846 0.211278 -0.274037 -0.174617 0.405746 -0.0955365 -0.0257478 -0.0605877 0.0585659 0.0885214 -0.00894805 -0.250526 0.0255227 0.0128177 0.0825975 -0.131483 -0.110734 -0.0231133 -0.0326242 -0.213924 0.0769477 -0.0688828 0.0914179 0.0794542 0.146827 -0.141043 0.0534308 0.0824741 -0.119745 0.0759216 -0.0720849 -0.115305 -0.0312524 -0.0613098 -0.22946 0.129127 -0.171281 -0.0451097 0.0952373 -0.0126502 -0.0295615 0.147195 0.0979874 -0.00571081 0.166266 -0.0555768 0.143275 0.005317 0.0636276 -0.0959286 0.0841017 0.0113786 -0.0892675 0.163382 -0.00631515 -0.051193 0.0674921 -0.090141 0.0300711 0.19849 0.0436554 0.0570564 0.320374 -0.19389 0.211752 0.108697 -0.180671 -0.0739176 -0.000937699 0.0227746 0.251964 -0.250735 0.071892 -0.0234364 0.208386 0.027713 -0.0306138 0.28927 -0.157267 0.0505629 -0.031157 0.0280053 0.0173251 -0.0831156 0.00640145 -0.0316244 -0.116154 0.00736845 0.107736 -0.0155458 0.107268 0.0658765 0.0630742 -0.0551469 -0.0589993 0.00749756 0.127791 -0.0240139 0.0227281 -0.00804649 -0.110266 -0.207719 0.38505 0.0202007 -0.199726 -0.0469215 -0.166083 0.00206734 -0.145851 -0.179775 -0.103646 0.137697 0.0306821 0.0813813 0.0428933 -0.136376 0.0399782 0.312065 -0.017352 0.0968669 -0.0341704 -0.0461304 0.15932 0.00912387 0.0658523 0.159456 -0.0272701 -0.113215 0.255849 0.135109 -0.12494 0.102183 0.131162 0.208636 0.0788945 0.146599 0.100148 0.00776335 -0.203302 -0.0375709 -0.186287 -0.0758397 0.0113627 0.328489 0.160972 -0.09148 0.113823 -0.237446 -0.120646 0.152826 0.104656 -0.238943 0.0144087 0.301906 0.239071 0.160345 0.278023 -0.232016 -0.0554845 -0.125025 0.313138 -0.111318 0.124622 0.0289931 0.121942 -0.00213096 -0.109399 0.0209328 0.0803104 0.214955 -0.0809687 0.0472243 -0.0791779 -0.241232 -0.237158 -0.00988529 -0.0520486 0.0144992 0.159776 -0.191984 0.409517 0.0908951 -0.265895 0.247847 0.0626982 -0.102692 -0.104729 -0.221617 0.0952673 0.27057 -0.0335439 -0.101153 -0.0277451 0.00640574 -0.00978856 -0.209944 0.020845 -0.134409 -0.07673 0.0959981 -0.106021 -0.0281098 -0.0352741 -0.228769 0.0524961 -0.0861316 0.0686788 0.0412137 0.170367 -0.15815 -0.133826 0.0852761 0.115627 0.0724186 -0.205787 -0.140796 -0.211234 0.144157 -0.10012 0.081493 0.132914 0.0154754 -0.0937128 0.0944407 -0.00915472
слышать 0.0323422 0.0442436 -0.00117908 -0.168516 -0.0428422 -0.00514848 -0.0487971 0.213978 -0.0584972 0.228412 -0.218784 -0.0547852 0.120217 -0.0497548 0.0437565 0.224151 0.0905637 0.123038 -0.0837425 0.0308724 -0.056434 -0.096077 0.146391 -0.125118 0.064538 0.0544376 -0.0341041 -0.0640808 0.0955862 0.078337 0.254717 0.147292 0.114778 0.021456 0.0433511 0.0798354 0.121942 0.0943537 -0.0136163 0.0524657 -0.00229347 0.171368 0.0996006 -0.0310334 0.0393093 -0.198671 0.00243293 0.0432573 0.0760894 -0.0281842 -0.0181338 -0.116978 0.146705 -0.0181325 0.199796 -0.135848 0.0216301 -0.295566 -0.102412 -0.0506993 -0.145199 -0.179723 0.0530866 -0.108742 -0.0335585 -0.238101 -0.082323 0.116833 0.133039 -0.141673 -0.161694 0.0258059 -0.146577 -0.0378379 0.00894473 0.172552 0.0844296 0.0808145 -0.040942 0.223621 -0.03105 0.0873575 -0.0430176 0.0960349 0.151254 0.0856741 -0.0201104 0.015829 -0.00982968 0.0532568 -0.0650491 -0.0162177 -0.0365666 0.0495382 -0.0988211 -0.10971 -0.0326897 0.101185 -0.137318 -0.0496716 -0.142845 -0.117934 0.0749162 -0.307793 -0.269392 -0.182528 -0.0101565 0.041063 0.0258674 0.0672728 0.0937225 -0.0480829 -0.00280201 -0.0516757 0.00649861 -0.097857 -0.0208608 0.00430083 -0.0739964 -0.0793724 0.0411943 -0.0452719 0.132651 0.12051 -0.0514698 0.0808596 0.00463515 -0.109305 0.107808 0.0466702 -0.0333258 -0.102242 -0.0995687 0.256275 0.0733126 -0.0356605 0.00972952 0.24281 0.0305362 0.0486866 0.244008 -0.0407537 -0.0462765 0.0238819 -0.0297218 -0.0490679 0.189443 0.0312457 -0.102089 0.0694114 -0.00476843 0.194179 -0.0224198 -0.148535 -0.162171 -0.163267 0.0467288 -0.0728501 -0.114471 -0.00561778 0.0647334 -0.058061 0.217281 0.0353206 -0.13334 -0.0843612 -0.0703891 0.000781823 -0.20662 -0.0407145 0.14758 0.0989853 0.133896 -0.149055 0.127583 0.0435337 -0.189843 0.0421661 -0.0612966 0.0118754 0.09417 0.13585 0.0307107 0.151006 0.0368824 0.13552 0.0405522 -0.0718237 0.0281996 0.0145186 0.125508 -0.110508 0.0499347 -0.202523 0.0316019 -0.0581244 -0.071192 -0.0125486 0.00440927 -0.0398062 0.0459905 0.14735 -0.0488927 0.132846 0.16453 0.17748 0.168264 0.0356523 0.185167 0.168535 -0.161045 -0.101161 -0.0681 -0.103038 -0.0410703 0.042493 -0.0810555 -0.0431692 0.219356 0.301964 -0.184956 -0.0717485 -0.0973566 -0.116506 0.0502411 -0.00880066 -0.206349 0.0374453 0.213562 0.108573 0.0910564 0.193145 -0.174701 -0.104939 -0.0276642 0.0438444 -0.0167116 0.177716 0.132471 0.263787 -0.0165959 -0.202428 -0.075416 -0.12996 0.0401415 -0.00400984 0.035132 -0.248378 -0.131207 -0.00554339 -0.0151316 -0.0893291 -0.111229 0.1499 -0.163892 0.170115 0.0197321 -0.258126 0.0549803 -0.142769 0.051947 -0.00581544 -0.0418771 0.115855 0.125214 -0.0655265 0.131184 0.000572095 -0.020647 -0.00168517 0.150107 -0.0173056 0.0535275 0.110571 0.0884053 -0.0508389 -0.0779004 -0.113 0.0476381 0.107179 0.0197774 0.0125935 -0.0919355 0.0521767 -0.0374762 -0.0765497 0.085266 0.134317 -0.124131 -0.15015 -0.031426 -0.0849796 -0.0217762 -0.0703832 0.053393 0.182301 -0.0795104 0.0716609 0.200708 -0.0302189
тишина -0.0136186 -0.155028 -0.0296823 -0.0501806 0.144262 -0.0334711 -0.139458 0.0265421 -0.00106463 0.121025 0.0603375 -0.155849 0.0396755 -0.178253 0.199791 0.192788 0.0697577 0.200203 -0.0611435 0.00107604 -0.0373089 0.00615856 0.341093 0.0422705 0.0945448 -0.1075 -0.139139 0.143287 0.134181 0.162853 0.334361 -0.0725243 0.0445235 0.101201 0.157059 -0.142033 -0.236366 0.0470942 -0.182747 -0.229736 0.299535 0.00482787 0.0317049 -0.0107033 -0.211924 -0.196372 0.116145 0.0540908 -0.152708 0.0989677 0.148089 -0.278514 0.0260452 0.136796 0.0863533 -0.137693 0.0458082 -0.0259223 -0.0397096 -0.194131 0.0156754 -0.155369 -0.0504219 -0.0895851 -0.0661925 -0.185353 0.0360523 0.106475 -0.00355206 -0.0575 0.0625449 -0.146891 0.0499393 -0.0197555 0.201542 -0.00780097 -0.0750259 0.138779 -0.159303 -0.119554 0.100586 -0.208387 -0.0751181 0.193884 0.20975 0.213532 -0.146735 -0.109612 -0.0428096 0.0437088 -0.185774 -0.0477784 -0.0348784 0.0283694 -0.0672542 0.0133173 -0.104457 -0.225451 0.0936511 -0.0197897 -0.166888 0.0436329 -0.0139975 -0.202788 -0.016329 -0.158204 0.108468 -0.0296572 -0.206539 0.122697 0.3718 -0.149392 -0.372682 -0.00121654 0.0114801 -0.162878 0.0785177 0.0374273 0.0922439 0.0672966 0.0362555 0.031913 0.165411 -0.0808641 0.0512343 -0.0248893 -0.130647 -0.143487 0.0430153 -0.26552 0.108133 0.00922478 -0.0340281 -0.0591146 -0.163382 0.145067 -0.429637 0.0299982 0.157423 -0.119809 0.260423 -0.331943 -0.292365 -0.101235 0.0126227 0.0462243 -0.0441073 0.242217 -0.0669068 0.115223 -0.065386 0.133009 0.0151382 -0.0257016 0.176991 -0.0275791 0.0445856 0.0604017 -0.00927 0.102423 0.160502 0.0350545 -0.041039 0.232916 -0.219391 -0.105149 -0.159298 0.0886736 0.229899 0.137359 -0.141985 0.206807 -0.317396 0.16137 -0.180886 0.104284 0.144611 0.00684614 0.257406 -0.0239138 0.0102071 -0.0845248 0.139156 -0.00117969 -0.104783 -0.15726 -0.0632367 -0.145493 -0.0541808 -0.138658 -0.202783 0.181049 0.00830514 -0.122032 0.146749 -0.0787435 -0.085285 0.0647473 -0.00668959 0.213869 -0.103976 -0.0833543 0.0531194 0.0692574 0.133385 -0.14429 0.0589106 0.0981128 0.0669604 0.133163 -0.0886039 0.125025 -0.101184 0.13711 0.0570467 -0.2229 -0.102536 -0.0666331 -0.0298439 0.255245 0.0816242 -0.164974 -0.192608 -0.00326044 0.144051 -0.0472488 -0.214528 0.110211 -0.00462854 -0.00518974 0.149105 -0.167887 -0.0547725 -0.156042 -0.00877629 0.109285 -0.116485 0.104551 0.0651829 -0.0300264 -0.0778071 -0.0865266 0.146748 -0.324948 -0.101721 0.0921883 -0.135142 -0.0712475 -0.00645521 -0.0134536 0.114045 -0.0388861 0.0647118 0.236049 0.0728916 0.0589825 0.119116 -0.149732 -0.101752 -0.14514 0.097111 -0.0197979 -0.191374 -0.134338 0.19359 0.0974074 0.0847416 0.0571798 0.0590465 0.179509 -0.0554254 -0.066913 -0.101054 -0.092523 0.264154 0.219022 -0.0438168 0.111339 -0.0991177 -0.108002 -0.0516066 -0.113819 0.247081 0.131033 -0.0234529 -0.0649018 0.197131 -0.133284 -0.0206874 -0.0139577 0.0141049 0.0295864 -0.0374953 0.13935 0.107571 0.0137784 -0.147281 0.13074 -0.0499087 0.115645
спать 0.0125682 -0.196059 0.0211481 -0.107057 -0.0001757 -0.0849579 -0.166096 -0.240991 -0.115069 -0.0723686 0.220839 0.125322 -0.129406 -0.158321 0.109315 -0.0685029 -0.0297671 0.118754 0.0487563 0.024647 -0.0487118 -0.088145 0.112625 0.0956647 -0.0309849 -0.220059 -0.24667 -0.0851697 -0.207031 0.0194739 -0.0907943 -0.0408944 0.14474 -0.157537 -0.0153814 0.0423076 -0.188899 -0.161635 0.0384873 -0.162241 0.308635 -0.180938 -0.220605 -0.00910126 0.0531936 0.129405 0.0912315 -0.0264288 0.185197 -0.0394556 -0.0309782 -0.214598 -0.0800514 0.132078 -0.105582 -0.0849428 -0.163863 0.0119326 -0.324808 0.024118 0.0377744 -0.178381 0.0720462 0.3079 -0.0679046 -0.300875 0.136327 -0.039356 -0.0953937 0.0931306 0.0649254 -0.0928901 0.265172 0.104956 -0.235604 0.050892 0.0104398 0.169924 -0.0115848 -0.0563758 -0.138918 -0.101654 0.133442 0.0335083 -0.0115272 0.169515 -0.229451 -0.0477899 -0.00786984 0.0124124 -0.260319 0.0064968 0.0310768 -0.0420757 -0.0389993 0.0508078 0.078158 -0.218619 0.175197 0.165141 -0.202902 0.045483 0.0761261 0.178656 0.127719 -0.0253186 0.0457381 -0.35976 -0.145754 -0.146982 0.0451853 -0.11131 -0.138998 0.145065 -0.049712 -0.0573783 -0.106256 -0.0128286 0.170492 0.058544 -0.172378 -0.155299 0.0447496 0.0510643 -0.0276925 -0.121509 0.0670015 -0.137131 -0.0889882 -0.0169736 -0.0742078 0.244502 0.144619 0.0903777 0.0669641 0.0923842 -0.0806205 -0.0676474 0.00385395 0.0450209 0.0645096 -0.0836157 0.000240587 -0.178838 0.147417 -0.0415435 -0.158037 0.141368 0.03628 0.0880724 -0.0838671 -0.0380539 0.11124 -0.102714 0.111193 0.0342004 0.053671 -0.310004 0.120985 -0.0517688 0.0727005 0.0442996 -0.110031 -0.144718 0.191702 0.160976 -0.0123619 -0.0865225 0.12667 0.0495349 -0.113558 -0.0203641 -0.225563 0.195357 -0.106508 0.0230444 -0.0267388 0.109499 -0.12357 -0.153031 0.0959016 -0.246434 -0.102256 -0.0186917 -0.0903372 -0.20124 0.0422901 0.0697177 0.105563 -0.0497925 -0.17138 0.200893 -0.021999 -0.0529989 0.0981524 -0.164798 -0.0394632 0.181176 -0.0809391 0.140664 -0.0351106 -0.0781889 -0.391088 -0.127871 0.3009 -0.118819 -0.0789916 0.139419 0.0366769 -0.181719 0.163115 0.415956 0.0112792 0.319689 -0.119614 -0.0050287 -0.08806 0.181772 0.0526234 -0.136875 0.00799763 0.215225 -0.0955536 0.0562636 0.0416776 0.0878828 -0.20465 0.0832766 -0.140352 0.0198239 0.0387901 -0.0540182 -0.0715132 0.00320741 -0.259729 -0.0705279 -0.0924915 -0.0964031 -0.143572 -0.244391 0.0338611 0.154772 0.0290738 0.042703 0.148431 0.2131 -0.153472 0.212747 -0.116048 -0.332001 0.0981469 -0.00364765 0.140514 0.0531937 0.0974238 0.0281437 -0.0926198 0.0770527 0.12561 0.0868668 -0.0974013 -0.240341 -0.138537 -0.119176 0.123191 0.162945 -0.0725413 -0.163987 -0.134665 0.0035915 -0.155585 0.227287 -0.0334333 -0.196249 0.122922 0.121248 -0.0890168 0.325511 -0.288822 -0.0954164 -0.111384 -0.0603152 0.0751681 0.211006 -0.0549117 0.0492965 0.0659358 -0.0290439 0.253861 -0.00511364 -0.0614068 -0.278888 0.082747 -0.0807549 0.0357666 0.016664 0.156371 -0.01734 0.0149488 0.0976858
бояться -0.0931161 -0.100022 0.0384851 -0.0461427 0.164198 -0.118675 0.083158 0.0932704 0.0366929 0.126061 0.046909 -0.102294 0.0173254 -0.0884431 -0.046953 0.210625 -0.110519 -0.183548 -0.0441884 -0.0412797 0.0816883 -0.122637 -0.153377 -0.0747867 -0.0961973 -0.0518956 -0.0673341 -0.238162 -0.00564787 0.0724866 0.015133 0.0492161 -0.174356 0.0425792 -0.224612 -0.0540232 -0.0935041 0.11965 -0.0271934 0.0704047 -0.00473001 0.119839 0.0504905 0.00678399 0.0971029 -0.138531 -0.201373 0.0374515 -0.00235468 -0.0351378 -0.234603 0.155592 0.101256 0.199501 0.0750616 0.0587103 0.0358831 -0.223276 0.0498519 -0.0258769 -0.0975812 -0.0786511 0.10547 0.000282769 -0.232414 0.0441925 -0.00997698 0.114039 -0.0867973 -0.165189 0.0665295 0.0398265 0.0107764 0.0001086 0.195154 0.16649 0.0652755 0.0914208 0.00217337 0.0793779 0.0808954 -0.0167554 0.030955 -0.0065285 0.0654512 0.111215 0.106914 0.178798 -0.00612922 -0.0907243 -0.138187 -0.118531 -0.0453457 0.0437519 0.0318294 -0.0666242 -0.103746 -0.0160529 -0.0761632 -0.0151184 -0.104268 0.0975642 0.110731 -0.0853013 -0.0837677 -0.030637 -0.147052 -0.0033878 0.164604 -0.0424497 0.0694396 -0.0440404 0.054443 0.0751501 0.0310675 -0.0899591 -0.0760913 0.018409 -0.0358403 -0.0362464 0.060572 0.0739339 -0.0285772 0.0212962 0.145429 0.0841156 0.0675693 -0.18678 -0.0259767 0.0440598 -0.0950287 -0.0185797 0.115072 0.189513 0.0301158 0.0800846 0.115723 0.149188 0.19475 0.0895537 0.16772 -0.103674 0.0547245 0.0442327 0.19547 -0.0103703 0.0144737 -0.020854 -0.0209809 0.183047 -0.0634246 0.238111 -0.0615613 -0.0501721 -0.0245128 -0.0564016 -0.0543669 -0.0189574 0.090986 -0.104026 0.111988 0.10934 0.0785196 -0.0407484 -0.0441582 -0.0567324 0.126795 -0.0802143 -0.0793193 0.0746786 0.0382164 -0.0231649 0.166443 0.0387076 0.239781 -0.0602761 -0.0983023 0.00959396 -0.0679999 0.0425442 -0.00309343 -0.102377 0.095984 0.044311 0.147732 -0.203848 0.0743192 -0.108679 -0.00402217 0.0650287 0.142692 0.0641566 -0.0812923 -0.0475635 0.0936501 0.0682276 -0.0207955 -0.0257159 0.06505 -0.238691 0.0243293 0.243356 -0.112763 0.168623 -0.0052655 0.242881 -0.0744511 0.0422986 0.11693 -0.0270009 -0.0627486 -0.0152699 0.19605 0.0302887 -0.0887523 0.11275 0.0633876 -0.0802807 -0.0103617 -0.0845494 -0.128767 0.0680939 -0.203853 -0.014992 -0.0534673 -0.0800709 -0.0411261 -0.132629 0.0702858 0.229759 -0.0354462 0.0544299 -0.0671266 -0.0971056 0.149791 0.00836236 0.0128423 0.156329 0.138303 0.00943958 0.026667 -0.017719 -0.0453619 -0.134574 0.0356521 -0.00292288 0.0887316 -0.148369 0.0535524 -0.030657 0.13195 -0.0185068 0.0396153 0.0245288 -0.0196705 0.0163134 0.0955816 -0.190839 -0.0300052 -0.139379 0.0851677 -0.0422841 0.0529578 0.142742 0.0347704 -0.00699337 0.0124511 0.145552 -0.11136 0.0794045 0.0826807 -0.1115 0.218628 0.11659 -0.0171323 -0.163161 -0.156967 0.136238 0.0568523 -0.00756468 0.0788101 -0.0856716 -0.249691 0.0480914 -0.126267 -0.0858636 0.153314 0.122537 -0.0829995 -0.072595 -0.158477 -0.0631092 0.0479705 -0.0631998 0.0217923 -0.00365596 -0.019433 -0.0257725 0.114166 0.125215
голова -0.00270429 0.0108179 0.0731201 -0.0842796 0.0400567 -0.0423514 -0.190849 0.0507104 -0.0453677 0.00319209 0.0245579 0.0149089 0.150143 -0.0778276 0.181585 0.0370431 -0.0425013 0.300365 -0.100814 0.0374321 -0.10496 -0.00581916 0.0847817 -0.0524268 0.0137335 0.0112445 -0.157243 0.0802891 0.168592 0.123472 0.139516 0.0757635 0.11927 0.0356368 0.132923 0.136543 -0.0291632 -0.0394156 0.0322939 -0.140267 0.110565 -0.0699047 0.167544 -0.132912 -0.170375 -0.127397 0.223909 0.00650715 0.0707299 -0.0788793 0.146007 -0.205611 0.0182804 -0.0667245 -0.0585349 -0.289129 -0.105361 -0.0194585 -0.0299396 -0.236776 -0.10325 -0.308168 0.036654 0.0250407 0.0777407 -0.258142 0.0543815 0.0744647 0.0841042 -0.0172778 -0.129455 -0.130594 -0.114812 0.112391 0.0279636 0.0845447 0.0129979 0.0989122 0.0779494 0.041784 0.0616198 -0.0265881 -0.0223251 -0.0154471 -0.0740677 0.00804748 -0.107755 0.0672615 -0.121322 0.124532 -0.264327 0.0368451 -0.028467 -0.00579124 -0.0186829 -0.0982799 -0.0454427 -0.0421131 0.0470096 0.079221 0.0046324 -0.0789765 0.0871266 0.150339 -0.0900543 -0.190716 0.0146294 -0.155003 -0.056106 0.0469793 0.136427 -0.0143717 -0.159328 -0.0281511 -0.00526164 0.0268208 0.0581578 -0.0388261 0.0916444 0.0579413 -0.0323824 -0.124194 0.0988602 -0.031869 -0.0103448 -0.0163348 0.093424 -0.203655 0.0925625 -0.222697 0.227371 0.14228 0.0319275 0.096068 -0.114755 0.137329 -0.25981 0.175552 -0.00470574 -0.0575911 0.118959 0.0192949 -0.164705 -0.125689 0.0735399 -0.0612858 -0.00361499 0.0110853 -0.227491 0.0319079 -0.192947 0.0946694 -0.0378843 -0.120953 0.0566454 -0.129401 0.209736 -0.04065 0.068951 -0.0169005 -0.0597993 -0.0883007 0.0119726 -0.0697666 -0.00334224 -0.0788197 -0.103587 -0.155054 0.00887874 -0.149495 -0.068366 -0.00670859 -0.435497 0.102838 -0.105284 0.103684 -0.0790845 0.220988 0.191319 -0.30254 0.0156687 -0.0649427 -0.0782024 0.0247245 -0.0783279 0.155019 -0.141226 -0.00708247 0.113006 0.019324 -0.162704 0.0120687 0.123534 -0.161103 -0.0442445 -0.163419 0.0817411 0.0237704 0.0172485 0.206061 -0.0172154 0.11668 -0.165807 -0.131488 0.0271456 -0.00369122 0.0839474 0.179549 0.214415 -0.0399171 0.104721 0.251702 -0.160073 0.136264 0.0823612 -0.0554677 -0.0123827 0.104428 0.0141286 0.0783249 0.0319542 -0.00790229 -0.0398475 0.100812 0.110986 0.0409176 -0.236945 0.0022544 0.103469 -0.110497 0.0346614 0.253036 -0.214094 0.0821197 -0.116035 -0.0164376 -0.0655617 0.0693982 0.0516626 -0.164057 -0.111224 -0.157864 -0.0748191 0.14362 -0.0399473 0.12756 -0.194391 0.127019 -0.219299 -0.265802 0.0925029 0.0504405 0.0482858 0.13779 0.0128629 0.256183 -0.13796 -0.142117 0.232616 -0.144488 -0.11245 -0.0179966 -0.0459588 -0.0760947 0.342065 0.0133115 0.0586476 -0.257715 -0.196927 0.0340113 0.0102234 0.103183 -0.0529674 -0.244833 0.137043 0.00426218 -0.0784902 0.177793 -0.207503 -0.00963548 -0.0373588 -0.00890633 0.178442 0.0975365 0.0795413 0.0229139 -0.118461 0.0885074 0.0828247 -0.217005 -0.0230907 -0.0871521 -0.2144 -0.0108814 0.0936232 0.0576316 0.028362 0.0260842 0.1246 -0.0164338
полна -0.0353789 -0.0127241 0.0357136 -0.154639 -0.0736417 -0.0444837 -0.0644425 0.0387814 0.0144266 0.175727 -0.159708 -0.0132132 0.0699477 -0.0646157 0.0272539 0.114959 -0.0208428 0.0724092 -0.0902415 -0.0288408 0.0187053 -0.106854 0.0743304 -0.108863 0.0704526 -0.0430463 -0.017162 0.0831053 0.061082 0.0435541 0.22189 0.052332 0.0505885 0.0167551 0.0311869 0.0213 -0.0149225 -0.0541474 -0.0294936 -0.0387868 -0.00533108 0.0574656 0.050244 0.0236379 -0.0436391 -0.109737 0.0446995 0.100635 0.0723621 -0.0204027 0.102318 -0.222807 0.0386713 0.0996983 0.104131 -0.0463434 0.114943 -0.199968 -0.135023 -0.14231 -0.108044 -0.19336 0.0865036 -0.00393969 -0.00957064 -0.126047 -0.0468825 0.0365024 0.0914523 0.00891213 -0.0792938 -0.0460854 -0.0473968 -0.0321781 -0.0633392 0.105061 0.0132331 0.0256758 0.00904708 0.139115 -0.0784885 0.0356659 0.0481931 0.0482679 0.126301 0.104981 -0.00409207 0.0430421 -0.0156343 0.0793551 -0.101866 0.019016 -0.0186651 0.0396057 -0.0973922 -0.0495826 -0.000516944 -0.027154 -0.128709 0.0290621 -0.0930153 -0.0441227 0.0202288 -0.174553 -0.172056 -0.166182 -0.0220878 -0.0648105 0.0296361 0.0438248 0.0408742 -0.0230314 -0.120734 -0.0018118 0.0258712 -0.038003 -0.0337319 -0.0326236 0.0290132 -0.0445126 -0.0586469 -0.0803303 0.127347 0.105841 0.0201871 -0.0210417 -0.0149252 -0.0741323 0.103844 0.0486486 -0.0547253 -0.0614477 -0.0335409 0.165229 0.0140215 0.0375903 -0.186389 0.151567 -0.00232877 -0.0550529 0.213658 -0.0245399 -0.0409131 0.028642 -0.00220683 -0.0823155 0.063305 0.0630484 -0.124784 0.0110804 -0.0144545 0.12141 0.0144547 -0.0667914 -0.0573494 -0.125999 0.0470306 0.0232119 -0.0425066 -0.00856611 0.0277289 -0.064647 0.162451 -0.0246089 -0.0655056 -0.0331937 -0.0443846 -0.051413 -0.0917215 -0.0660169 0.0785373 0.014266 0.0397791 -0.154052 0.0264389 0.117377 -0.140613 0.0108945 -0.0754328 -0.0833326 0.0372023 -0.0103132 0.032258 0.0396314 0.0850059 0.120047 -0.0276578 -0.0100251 -0.0044238 -0.0542864 0.0596841 -0.0203695 -0.00867761 -0.0630417 0.0955421 -0.0637908 -0.106809 0.0848619 -0.0333934 0.056743 -0.0325979 0.0776848 -0.110499 0.0883858 0.148111 0.169027 0.144927 0.0643265 0.0962498 0.0686415 -0.0256954 0.0388066 -0.0586452 0.0946737 -0.114234 -0.0143615 -0.0793637 0.0905997 0.154702 0.14574 -0.0798727 -0.0204722 -0.0559909 -0.0188631 0.0271729 -0.0449952 -0.195851 0.00355816 0.145844 0.0633932 -0.0140578 0.111082 -0.104497 -0.0340068 -0.0385883 -0.0691714 -0.0301105 0.104971 0.0395907 0.0933013 -0.0430024 -0.141626 -0.0669879 -0.0726055 0.0686744 0.0694158 -0.0668582 -0.107382 -0.0625262 -0.112205 -0.0144421 -0.00832392 -0.0787313 0.190591 -0.046752 0.166203 0.0217856 -0.137104 0.0125523 -0.0793802 -0.0150902 0.0166142 -0.060638 -0.0611475 0.0831053 0.0624769 0.0897738 -0.00358691 -0.0758523 0.0456147 0.118787 0.0556049 0.0381589 -0.00443054 0.0137254 0.0116681 -0.0718989 -0.0104012 -0.0733596 0.0423452 -0.0542573 -0.167718 -0.0430256 0.0834698 -0.0466757 -0.0498476 0.0130889 0.0376523 0.00954161 -0.0772502 0.106488 -0.135534 -0.0952471 -0.0542238 0.0910128 0.141092 -0.031591 0.0104999 0.105502 0.0684209
слово 0.0381441 -0.126094 -0.00258703 -0.0536222 -0.172274 -0.0503904 -0.0680927 -0.0956076 -0.199245 -0.354789 0.285152 0.22147 0.144997 -0.0273234 0.0887634 -0.191367 -0.0756475 -0.0267584 0.200768 0.0147946 -0.358482 -0.0704374 -0.158204 -0.109754 0.00459636 0.320455 -0.086493 -0.196134 -0.0338429 -0.209081 -0.227184 -0.0882293 -0.0593864 0.0641328 -0.00165936 0.0675952 0.315817 0.0122147 0.05394 0.191705 0.026897 -0.087645 -0.243845 -0.240558 0.183305 0.174412 -0.0221152 -0.260195 0.174824 0.044504 -0.29218 0.311049 -0.0548919 -0.00255872 -0.141484 -0.0771516 -0.339863 0.0212296 0.0139242 0.0530825 0.132014 0.0785783 -0.0685852 0.0923304 -0.0269785 -0.148221 0.137164 -0.100856 -0.268859 -0.138509 -0.0460497 0.0195617 0.119219 0.122248 -0.122887 0.161217 0.102549 -0.236663 -0.157875 0.332015 -0.0555558 -0.0701838 0.0570779 -0.129076 -0.412214 -0.0153817 -0.131563 0.00340477 -0.0237098 -0.26618 0.0156137 -0.0827323 0.0406864 0.0397592 0.261252 0.056335 -0.15887 0.333933 0.341817 0.162422 0.0476789 -0.119124 -0.134567 0.292314 0.330488 0.270778 0.0757376 0.0926902 0.117758 -0.379413 -0.0959433 0.00745989 0.330869 0.326541 0.0728912 0.06654 0.0270841 -0.0496959 -0.113101 0.0663636 0.069385 0.014964 -0.113153 -0.121807 -0.128995 -0.139072 0.130835 0.0482812 -0.171807 0.193541 -0.0857491 0.0813852 -0.00904889 0.0256333 0.114349 0.0123546 0.495443 0.0953757 -0.147441 0.213934 -0.406252 0.166763 0.0629126 0.0994641 0.0408181 0.214586 -0.00330304 -0.325287 0.0004004 -0.00713303 -0.00818043 -0.0182541 0.219343 0.0662593 0.048593 -0.106951 0.0258654 -0.117434 -0.0120536 -0.0113042 -0.10373 0.0433151 0.0218014 -0.0795597 0.163528 0.256592 0.12124 -0.140141 0.0886901 0.0429693 -0.0717525 -0.121096 -0.092253 0.134248 0.0366694 -0.154892 0.0622191 0.0345708 -0.0275466 0.0691485 -0.010838 -0.0490577 0.0687309 -0.0509607 -0.163879 -0.0363686 0.258658 0.117595 0.143667 0.23633 -0.0702812 -0.132623 0.148383 -0.0250077 -0.118574 -0.0204184 0.250111 -0.183116 0.0451618 -0.1055 0.149486 -0.212033 -0.27606 0.0104783 -0.0462971 -0.253937 -0.253596 0.108635 0.047914 -0.183518 0.0347216 0.242894 0.157067 -0.0793129 0.111212 0.019352 0.181361 -0.144969 -0.201564 -0.0954179 -0.0531189 0.190081 0.00487613 -0.13299 0.268496 -0.000536536 0.0430722 0.0136345 0.0812002 0.1228 0.0132882 0.131026 0.0263204 0.148722 -0.0476832 0.00656408 0.187336 -0.250172 -0.046197 -0.216302 0.164981 -0.0690138 -0.0598826 0.320879 0.0633443 -0.128347 -0.0520824 0.227325 0.00200382 0.129327 -0.00344858 0.132859 -0.0162236 -0.324589 -0.040726 -0.0474942 -0.0456176 0.153326 0.284455 0.195885 -0.0105222 -0.155384 0.22445 0.190224 0.196387 -0.13301 -0.00422219 -0.156183 0.0711146 -0.121621 -0.233281 0.132173 -0.0971989 -0.135468 0.0438909 -0.266695 -0.0384307 0.0226757 -0.0661708 -0.0347918 0.153484 0.270471 -0.0336453 -0.0336052 0.264435 -0.0557257 -0.280373 0.317909 0.141479 -0.186049 -0.209081 0.0697088 0.203507 -0.17687 -0.197718 -0.0734381 0.0542992 -0.141356 -0.0969716 -0.20423
старый 0.0231933 -0.269029 -0.0273578 -0.137502 0.0462464 -0.168296 -0.243085 -0.059953 -0.201668 -0.176315 0.235429 0.192288 0.129106 -0.222384 0.187695 0.00487144 0.0923926 0.207674 0.0367744 0.0385738 -0.37215 -0.216421 0.0702538 -0.106286 -0.0333571 -0.0175052 -0.0748443 -0.318263 0.0860011 0.0634805 -0.0320235 -0.0717501 -0.0567419 -0.01636 0.123799 0.0467213 0.0791433 0.00829028 -0.00286496 -0.207854 0.30984 -0.0254724 -0.325813 -0.251084 0.115134 -0.0324551 0.184224 -0.139455 0.195875 0.101514 -0.0643494 -0.22106 0.100255 0.169455 -0.142048 -0.0759813 -0.198085 -0.296468 -0.19882 -0.102233 0.0753074 -0.227132 0.0391642 0.237482 -0.199767 -0.429661 0.0893693 -0.0352223 -0.169253 -0.0261319 0.0268199 -0.204438 0.218412 0.122807 -0.0202184 0.307217 0.148773 0.045389 0.0144766 0.25401 -0.173269 -0.206487 0.0471137 0.0208772 0.0839598 0.247156 -0.264064 0.00924616 -0.200043 -0.0331224 -0.337488 -0.0335069 -0.0550343 -0.0964853 -0.00509628 -0.062144 -0.255891 0.0706588 0.293014 0.0557538 -0.304369 -0.120648 0.015381 0.0721329 0.221117 -0.0287228 0.00519465 -0.120755 -0.0756304 -0.343313 0.263537 0.151813 -0.0625202 0.318517 -0.0195217 -0.115266 -0.0633088 0.0817455 0.0420644 -0.0507053 -0.0389512 0.102461 -0.00631382 -0.155077 0.0491434 -0.139549 -0.00429922 -0.198348 -0.122656 0.112439 0.0255137 0.248401 0.0708332 0.299257 0.0775443 0.184979 -7.80944e-006 0.218887 -0.0534009 0.138122 0.0573729 -0.31672 -0.218015 0.0364711 0.00617285 0.111863 -0.136555 -0.0195899 -0.0685844 0.251851 -0.118409 0.089781 0.124488 -0.17004 0.0671199 -0.0709965 0.0692212 -0.273888 -0.0350337 -0.071338 0.0531879 0.136358 0.00964895 -0.0360279 0.150454 0.145246 0.019661 -0.0891085 0.171196 0.138718 -0.0179432 -0.0407866 -0.344394 0.246546 -0.0759419 -0.0610198 0.0667897 0.172615 0.0240336 -0.047013 0.0412595 0.0131047 0.168784 0.0588187 -0.118128 -0.131836 0.175781 0.0429191 0.0124708 -0.031952 -0.119975 0.209842 0.240427 -0.270634 -0.0203283 -0.136484 0.0638083 -0.0364429 -0.056495 0.0781504 -0.0436078 -0.0944295 -0.376316 -0.00890159 0.135837 -0.220937 0.0303856 0.382458 0.403608 -0.205579 -0.0341195 0.407756 0.191174 0.386535 0.092146 -0.200392 0.154534 0.131946 -0.05529 0.0321915 0.00737054 0.108223 -0.210442 -0.127428 0.43399 0.0630275 -0.28386 0.116746 0.0148549 0.148544 0.206234 0.0966467 -0.211239 0.0806134 -0.183587 0.0489441 -0.121842 -0.148552 0.0608242 -0.309498 0.217564 -0.118481 -0.0599096 0.0164234 0.11305 -0.0665385 -0.215556 0.258694 -0.0616536 -0.120118 0.251298 0.0446451 0.104192 0.0918925 0.123924 0.050336 -0.09361 -0.11853 0.281358 0.0780948 0.0832407 -0.173889 -0.0714504 -0.0157623 0.174548 0.0369895 0.0358328 -0.144469 -0.0493511 -0.00646013 -0.0604107 0.142037 -0.0460815 -0.258999 0.354245 -0.126449 -0.318303 0.0235252 -0.166774 -0.0510472 0.105897 -0.0104555 0.0602279 0.26408 0.149156 -0.186144 -0.00423788 0.167311 0.223948 -0.142297 -0.178077 -0.0849253 0.141667 -0.133295 0.0446391 0.0826842 0.0889051 0.00558236 -0.0537524 0.052725
новый -0.0046637 -0.23573 -0.111585 0.091979 0.119616 -0.266966 0.0488884 0.0141836 -0.154523 0.0613698 0.0707729 0.0389487 -0.0383067 -0.00917407 0.312003 0.0556075 0.267736 0.101944 -0.102795 0.0544302 -0.405941 -0.154819 0.0435669 -0.0394111 0.0211735 0.0297775 -0.250441 3.30532e-005 0.0363726 0.343724 -0.00653817 0.109377 -0.0255713 0.0070091 0.049428 -0.218215 0.15696 0.175891 -0.137565 -0.262243 0.35205 0.0820117 -0.121552 -0.25083 0.0638082 -0.047433 0.0308628 -0.179642 0.121933 0.17189 -0.136768 -0.0400791 0.216162 0.169022 -0.0314705 -0.0884353 -0.168931 -0.134118 -0.211717 0.0437141 0.0992787 -0.147068 0.0824392 0.0701637 -0.176509 -0.254531 0.181463 0.0932676 -0.110025 -0.247155 -0.00128466 -0.0708104 -0.0192233 0.0460186 0.196402 0.0507703 0.0404143 0.00798369 -0.185415 0.286146 0.0250592 -0.158875 -0.0993375 0.0838267 0.170947 0.102901 -0.156589 0.059797 -0.188036 -0.12062 -0.126903 -0.109085 -0.0147139 -0.158073 0.00835689 0.102832 -0.175743 0.12305 0.0599061 -0.123137 -0.353645 -0.101355 0.173527 -0.215169 0.10541 -0.125218 0.0302368 0.0422232 0.0293738 -0.12672 0.320878 0.031241 -0.0787121 0.0144447 0.0768424 -0.155147 0.00329396 0.165201 -0.0978316 0.189717 0.160519 0.0997503 0.149641 -0.274737 0.162751 0.123756 -0.104142 0.00675956 -0.073532 0.195739 0.0226641 0.103838 0.00696353 0.0634677 0.10051 0.0315055 0.237033 0.202704 0.130755 0.243252 0.199456 -0.265285 -0.172947 -0.221836 -0.0840545 0.0498105 -0.166359 0.073814 0.159324 0.15441 -0.197766 0.000495213 0.203677 -0.210048 0.042918 0.000548437 -0.0034879 -0.26097 -0.0675549 -0.194879 -0.0921849 0.135414 0.0690924 0.00593935 -0.0966999 0.147658 0.0535403 0.253855 0.129692 0.226903 -0.114167 0.0710309 0.0243934 0.259693 -0.0165904 -0.0141552 0.0454014 0.342282 0.0657765 0.0120314 0.105978 0.136723 0.130633 0.0933508 -0.135763 -0.204471 0.154828 -0.0770921 -0.0486144 0.00753658 -0.0963126 0.11852 0.26241 -0.274454 0.0134724 -0.110069 -0.153366 0.16405 0.103157 -0.0997352 -0.0624943 -0.131707 0.045474 0.10435 -0.0338299 -0.206455 0.0148892 0.180033 0.277297 -0.0793955 -0.178709 0.410206 0.111256 -0.0673901 0.138205 -0.0293237 0.102723 -0.0845384 0.141912 0.0595063 -0.025452 0.0102586 -0.201928 -0.0955211 0.282104 0.134737 -0.218151 0.103918 0.0259029 0.255997 0.318419 0.153307 -0.0116823 -0.306331 0.0115487 0.253691 -0.112216 -0.0325448 0.14494 -0.242119 -0.0596662 -0.186163 0.0369878 -0.0507757 0.0835491 -0.0921798 -0.0935471 -0.0079142 -0.274416 -0.0819962 0.260384 -0.0119814 0.170845 0.0931754 0.0536333 -0.0317841 0.108252 -0.178146 0.00287264 -0.0685599 0.140338 -0.159546 -0.105335 0.193955 0.133179 0.0451039 0.0895762 0.056507 -0.081868 0.150779 -0.173358 -0.137959 0.177106 -0.00530289 0.288038 -0.011379 -0.179849 0.00991536 -0.187883 -0.123669 0.0902029 0.0867312 0.131148 -0.0508392 0.0566124 -0.334257 0.157181 0.0900027 0.0978554 -0.159267 -0.413428 0.0945615 0.226919 0.00976048 0.0274557 0.00621968 -0.0162023 0.0613036 -0.0670524 0.089445
хороший 0.00120502 -0.221638 -0.00549672 -0.146205 0.136951 -0.139723 0.108035 0.150168 -0.23213 0.0373013 0.310232 0.148535 0.0288156 0.0412395 -0.0195957 0.0358272 -0.0214096 0.108692 0.0632265 0.218873 -0.0604577 -0.0569008 -0.105392 0.0195188 0.111137 0.00361874 -0.178111 -0.182683 0.0483013 0.211871 0.02753 -0.131665 0.155109 -0.114409 0.110291 0.0883171 -0.16335 0.011115 0.152733 -0.115541 0.0858245 0.101608 -0.0425462 -0.127832 0.0872087 -0.00324357 0.112422 -0.0773441 -0.240595 -0.10181 -0.218387 0.153136 0.0666865 -0.0431506 0.0598005 -0.228059 -0.270943 -0.110633 0.101695 -0.134077 -0.0125203 -0.450606 -0.0371484 0.139873 -0.0528244 -0.11863 0.232544 0.199568 -0.151738 0.0119018 0.139852 -0.0147799 -0.0854257 0.174694 0.0598493 0.166011 0.0135871 -0.164687 0.0132309 0.179597 0.017349 -0.0951828 -0.117457 0.0741161 0.0841555 0.171397 -0.113161 -0.0187654 -0.242651 -0.0711791 -0.422804 -0.196017 0.194539 -0.0595123 -0.0412271 -0.0969444 -0.27883 0.141645 0.242183 0.187333 -0.0689444 0.052507 -0.0172764 0.240714 0.0904908 -0.104081 -0.203755 -0.0761051 -0.0985607 -0.256195 0.41586 -0.267566 0.138552 0.206421 -0.264362 0.0903001 -0.12726 0.0994476 -0.034149 0.133948 -0.0327349 0.100427 -0.0167204 -0.134901 0.231664 -0.137739 0.0303779 -0.184517 -0.0375041 -0.0781046 0.180722 0.245912 -0.00210814 0.241677 0.0164486 0.0235794 0.0850861 0.168694 0.174099 0.388323 -0.0755581 -0.0828863 -0.1195 -0.00936844 -0.0760355 -0.00799073 -0.0439404 -0.0514177 -0.0870175 -0.0570346 0.166896 -0.149543 0.0382832 -0.00748982 -0.0489058 0.0118637 -0.136262 0.00585521 0.0366603 0.112259 0.0589242 -0.0965105 -0.260705 -0.0942491 0.0586611 0.0305783 -0.135969 -0.0660613 -0.00626835 0.117987 -0.0906571 0.139682 -0.14642 0.278634 0.0655802 -0.165005 -0.0371025 0.210272 0.0987584 -0.051125 0.0405246 -0.165595 0.105967 -0.266189 0.0126785 -0.125818 0.0791417 0.113828 -0.0241745 0.203162 -0.374527 0.0216318 0.340156 -0.115373 0.124163 -0.105382 -0.118678 0.0455684 0.0430607 0.0284906 0.297736 0.0411901 -0.0766607 0.0736713 0.0121657 -0.194981 0.0167627 0.113333 0.136615 -0.298373 0.192118 0.381021 0.0840912 0.0104022 -0.144152 0.00844468 0.143236 -0.171453 0.113315 -0.257616 -0.021809 -0.0971203 -0.160067 -0.000679626 0.148311 0.0978452 0.143734 0.209434 -0.0611385 0.0225627 0.150197 0.0623045 -0.135575 0.0448306 0.0216165 0.10535 -0.0809645 0.00328139 0.0177842 0.0343145 0.017731 0.0463714 0.195815 0.32884 -0.0861178 -0.104426 -0.0522403 0.0624407 -0.0113614 -0.135485 0.0488787 0.124222 0.241596 0.0696311 -0.00127262 -0.09022 -0.120601 -0.173531 0.174552 -0.0800007 0.0489491 -0.00667918 -0.216091 0.0478109 0.170164 0.00822638 -0.195076 0.0420209 -0.259918 -0.00985441 -0.111374 -0.0750444 -0.0338654 -0.238445 0.00634437 -0.041466 -0.103637 0.416142 -0.323431 -0.124495 -0.0871859 0.261631 0.189092 0.166227 0.0268552 0.0385187 0.0231761 0.165168 -0.000918627 -0.245158 -0.294023 0.0231878 -0.18528 0.145272 0.0423907 -0.0291722 0.237362 0.186074 0.171346 -0.201036
плохой 0.153599 -0.0382752 -0.0296434 0.0919954 0.0266083 -0.093306 -0.0514001 0.0508118 -0.108047 0.0251095 0.0567511 -0.118445 0.0319755 -0.0292149 0.158653 -0.0244392 0.0569524 0.0389425 -0.00241169 -0.12572 -0.191867 0.0090713 0.184004 0.0898286 0.018475 0.0379945 -0.197466 -0.0433266 -0.00896013 0.0914668 0.0557633 0.0471049 0.00571922 0.102213 0.123257 -0.0350732 0.200984 0.082303 0.0328808 -0.0126348 0.0569353 0.0493071 -0.224676 -0.194459 -0.00704543 0.00594014 -0.012328 0.077922 -0.0687844 0.0463749 -0.214178 0.0490248 0.081903 -0.0380176 -0.0815473 -0.223487 -0.191641 -0.0589285 0.0617227 -0.070058 0.0287059 0.0171065 -0.0546018 0.0530147 -0.0243861 -0.279665 0.0289301 -0.0376673 -0.10546 0.102829 -0.0699904 0.154043 0.213645 0.262019 -0.0537314 0.153382 0.0564279 0.0508244 -0.0477823 0.0297862 -0.17405 -0.0795547 0.0174984 -0.065686 -0.16686 0.0562319 -0.0542485 -0.116981 -0.0750086 -0.128694 -0.0899874 -0.157143 -0.085618 0.0883569 0.0236124 -0.0068163 -0.017321 0.0502537 0.0863083 0.212397 -0.271749 0.0723837 -0.0284876 0.143497 0.173202 0.0800398 0.149249 -0.0312338 -0.0609332 -0.115744 0.110567 -0.0131657 0.130437 0.13058 -0.0322025 -0.0151419 0.0229224 0.0112162 -0.0894953 0.148949 0.0313135 -0.11112 0.0116837 0.0176336 -0.0661112 0.0501943 -0.0191173 -0.103038 0.000702459 -0.123736 -0.0202319 0.0417978 -0.00627488 -0.0330406 -0.0611228 -0.103777 0.223347 0.169104 -0.00691903 0.302837 -0.0601691 0.00988535 -0.0571647 0.0439292 -0.0204064 0.00803852 0.0140877 -0.192507 -0.0982259 0.111156 -0.0622298 -0.0687203 0.156877 -0.00828464 0.0370129 -0.0106763 -0.0235298 -0.0751637 -0.0315266 -0.0244818 0.0138145 0.00119444 -0.0222967 0.0399516 -0.220277 -0.0322379 -0.0416112 -0.0197087 -0.0542103 -0.00802091 -0.011376 0.123884 -0.111778 0.124108 0.0590771 0.0310035 -0.07279 0.16499 0.0812217 0.0278215 0.0375747 -0.190605 0.000353585 0.0161785 -0.127428 -0.0981785 -0.03404 0.151885 -0.0309573 0.247339 -0.231744 -0.0448001 0.11588 -0.0360995 -0.00827145 -0.00124146 -0.0220186 -0.120048 0.0632055 -0.0103215 -0.0108971 -0.0186099 -0.197805 0.110256 0.117727 0.181559 -0.258772 -0.0968669 0.133583 -0.0828283 0.061151 0.0510625 -0.0423616 0.0365196 0.00587725 -0.0286016 0.149469 0.0454556 -0.0122842 -0.0971419 -0.0522739 -0.0533556 -0.0217487 -0.0729514 0.0573874 0.120223 -0.209982 0.113647 0.100291 0.0516113 0.0367197 0.0486689 -0.157316 -0.0739949 -0.0331368 0.133801 -0.155687 0.160515 -0.0270972 -0.01227 0.0075331 0.0486147 0.129963 0.173319 0.0122933 -0.144421 -0.0401738 0.038472 -0.000117854 -0.0939644 0.0504348 -0.109344 0.163447 0.0228747 -0.0479259 -0.035841 -0.0071138 -0.048353 0.111864 0.0533939 -0.114259 -0.124373 -0.0672148 0.151569 0.0686567 -0.0774466 -0.0532364 -0.109829 -0.0198447 -0.0598673 -0.0779919 -0.0124986 -0.0244229 -0.141839 0.0723757 0.000855371 0.043451 0.0910566 -0.124184 -0.0857193 0.0245572 -0.0636465 0.0616666 -0.0279756 0.0684377 0.0076758 0.049799 0.103285 0.000539268 -0.0949225 -0.252524 -0.170799 0.192831 -0.0881216 -0.0661641 0.0611839 -0.00917912 0.0110552 0.250138 -0.0994352
друг -0.136252 -0.105936 -0.0675091 -0.0107617 -0.00998325 -0.128042 -0.0335091 0.159695 -0.341933 -0.0357266 0.134878 0.153471 0.218939 -0.0492462 0.0182795 -0.0181735 -0.142712 0.244709 -0.00739573 0.110925 -0.198737 0.0733396 -0.0101996 -0.175754 0.0665582 0.337609 0.0256191 -0.124552 0.0774996 0.0232469 0.154227 -0.0228696 -0.15387 0.0307265 0.11878 0.134513 0.1621 0.0365239 -0.0828679 0.192887 0.0582363 -0.0650041 0.169777 -0.190549 0.075716 0.401744 0.167066 -0.194813 -0.0692651 -0.0774274 -0.183929 0.217698 -0.0495472 -0.215531 -0.00923132 -0.38052 -0.155518 0.0293992 0.0559705 -0.216187 -0.111351 -0.114054 -0.0322795 0.130938 0.199484 -0.0237563 0.302828 -0.0323052 -0.201987 0.0210049 -0.0732473 -0.00968463 -0.0829569 0.136541 -0.184048 0.0254147 -0.00480788 -0.0788062 0.136049 0.125411 -0.0580917 -0.224137 -0.0776017 -0.261357 -0.435389 -0.0666979 -0.181128 0.141268 -0.127042 -0.0466308 -0.37831 0.0907693 -0.201168 -0.105264 0.28622 -0.0480254 -0.16474 0.00572682 0.369242 0.248284 0.0526529 -0.165499 -0.179034 0.326495 0.131458 0.0694822 0.0585351 -0.0818889 -0.120619 -0.217035 0.152874 0.173472 0.194879 0.342329 -0.13077 -0.098878 -0.0286291 0.101322 0.0359449 0.121158 0.0656011 -0.143843 -0.299138 -0.189663 0.0227754 -0.0825992 0.104443 -0.117124 -0.099072 -0.0496796 0.138531 0.33557 0.23232 0.144464 -0.0312559 0.0422351 0.0990787 0.152681 -0.0424075 0.0842436 -0.311044 0.20154 -0.17787 0.00113286 0.00229323 0.0117881 0.196777 0.0106216 -0.268618 -0.384377 0.0125437 -0.131124 0.098037 0.141551 0.0300682 -0.124801 0.0275983 -0.158695 -0.00234878 -0.128211 -0.0616178 -0.113355 0.0154102 -0.0665338 0.193851 0.0669239 -0.0945013 -0.276426 0.103475 -0.199793 0.0344093 -0.186776 -0.498249 0.304631 -0.102344 -0.0805797 0.00449447 0.114387 0.209613 0.0384201 0.0285073 -0.253793 0.0244683 0.0107293 -0.0676472 0.153032 -0.0720415 0.255197 0.0440889 0.436833 -0.299443 -0.0651442 0.258259 -0.131989 0.037646 -0.120442 0.227893 -0.22231 0.0354627 0.00761698 0.181642 -0.179482 -0.331628 -0.212878 0.0300264 -0.170195 -0.075415 0.152379 0.0669314 -0.297302 0.275354 0.287747 0.0502761 0.12953 -0.00829822 -0.151195 0.23356 0.0294482 -0.285657 -0.0523478 0.121085 0.0701938 0.0691476 -0.000286904 0.16992 0.00575605 0.0595959 0.162716 0.139274 -0.148659 0.10988 0.234251 -0.0903126 0.264055 -0.210786 -0.0711789 0.232916 -0.122213 0.0851089 -0.299551 0.0363345 -0.2736 -0.0357646 0.312974 -0.170327 -0.133014 -0.285771 0.250801 -0.019985 0.030421 -0.0431454 0.0770682 -0.00446081 -0.0789218 0.172798 0.0683573 -0.313326 0.0687327 0.367604 0.0156084 -0.0152617 -0.0799619 -0.0267305 -0.0932087 0.0870132 -0.198455 0.0978395 -0.157881 -0.162374 -0.144703 -0.0894379 0.2422 -0.120944 -0.39181 0.288254 0.0582676 -0.0760495 0.307621 -0.00383416 -0.0828751 0.0653075 0.440142 0.156108 -0.128236 0.397974 -0.111498 -0.202088 0.218932 0.0110899 -0.0904597 -0.123988 0.0140175 -0.199974 0.177744 -0.0048902 -0.146309 0.0925408 0.034986 0.183364 -0.238445
