201 300
город 0.0172755 -0.028719 -0.00841349 -0.00524331 0.0511927 0.00688954 -0.0197704 -0.00274672 -0.00411156 -0.00701829 -0.0105337 0.00681709 -0.0581951 -0.0107058 0.00809961 -0.000331601 0.0247103 0.011817 0.0339158 0.0269466 0.0656985 0.0348477 -0.0149271 -0.0121973 0.00427184 -0.0159425 -0.037288 0.0339213 -0.0149525 0.00849393 -0.0480902 -0.014544 0.0485652 0.0128888 0.0130752 0.0424825 -0.0279072 -0.0108228 -0.00777984 -0.0105657 0.0217402 -0.0193626 -0.0136605 0.0217776 0.00584085 0.013932 -0.00103203 -0.038437 -0.0196819 -0.0241767 -0.0331286 0.0135292 0.00527607 -0.0308623 0.0220504 0.0356114 0.0163522 -0.00990526 0.00687177 0.0421796 -0.00650722 -0.0335087 -0.0444949 0.0316124 -0.0019301 0.0196463 -0.00147703 -0.0239594 -0.00029686 -0.0109114 0.0128022 0.00658513 0.00432751 0.0143762 0.0117014 -0.0178048 0.0275465 -0.0113004 -0.0390517 -0.0061526 0.0233955 -0.0379661 -0.0235885 0.000662494 0.0121626 0.00347065 0.0378354 -0.022096 0.00731803 -0.0423243 0.0250187 0.0145153 -0.0179957 0.00890674 -0.0300459 -0.0104284 -0.00894834 0.0117975 -0.00027331 -0.0144504 0.0452086 0.0265721 0.00591247 0.0268211 -0.00965387 0.00797211 -0.0547062 0.00287774 -0.0230689 0.0120711 0.0469682 -0.0104867 0.00458956 -0.00182751 -0.0350536 0.0234311 -0.0258254 0.025176 -0.00527668 -0.0135371 -0.0245103 0.0337902 -0.0171243 -0.0453016 -0.00892912 0.024234 0.0181102 -0.011624 -0.0181509 -0.0392617 0.024815 0.0488205 -0.00636213 0.0427454 -0.000672804 -0.0155745 0.0437452 -0.0286361 0.0232296 0.0369513 -0.00451209 0.0324577 -0.0304812 0.0121422 0.0106667 0.0168293 -0.0434568 0.0141972 0.0347412 0.000732279 0.0262845 -0.0504914 -0.0700898 -0.0407972 0.00236982 -0.0261795 -0.0387129 -0.00440016 -0.039702 0.0114849 0.0425041 0.0191159 -0.0419666 0.0146716 0.0105812 -0.0206013 -0.035126 0.0464764 0.0173754 0.0114662 -0.00597097 0.00876031 -0.0462744 0.0384867 0.023127 -0.0273463 0.0482075 -0.0160554 0.0196324 -0.00815187 -0.00411494 0.0118856 0.00169928 -0.0190379 0.00888109 0.00108149 -0.00355781 -0.0414175 0.00200378 -0.0122273 -0.0362666 4.49907e-005 0.0175218 -0.0177178 -0.0602374 -0.00337888 -0.011157 0.0255162 -0.000748903 -0.0382695 0.0507449 0.0321406 0.0410901 -0.00124751 -0.0184818 -0.0404388 0.0194113 0.0122171 -0.00373175 0.0134566 0.0568892 -0.0320395 0.0173147 -0.0736979 0.00908774 -0.0285758 0.0119468 -0.0544408 -0.0330681 -0.0134638 0.0108608 0.0216978 0.0126204 -0.0265292 -0.036285 0.0222678 0.0838688 0.0288562 0.0128906 0.00800627 0.0248567 0.00882816 -0.0104492 -0.0158953 -0.00835321 0.051452 0.0202659 -0.0313592 0.0116128 0.00242619 0.0181255 0.0504084 -0.0198683 -0.00923948 -0.0638155 -0.0215083 0.0702752 -0.0057123 -0.0304787 0.00695856 0.026124 0.00153314 -0.0147431 0.00766608 -0.0120721 -0.0304761 -0.0035323 0.0102827 0.00788965 0.0141097 -0.0196866 -0.0265481 0.0134243 -0.00392886 -0.00674307 -0.0308769 -0.00483775 -0.014004 -0.0164191 -0.0193205 0.0380229 -0.0422581 0.00234854 0.00724398 -0.0154771 -0.0423299 0.0355142 0.0216116 -0.0160533 0.0190693 0.00232507 0.0253998 0.0259146 0.046296 -0.0844485 0.0346562 0.03547 -0.0309474 -0.000139107 -0.0283569 0.00946299 -0.00527177 0.0144308 0.00640609 -0.0148374 -0.018244 0.0750864 0.0261787 -0.00857018 -0.00141199
большой 0.0124897 -0.00519091 -0.000674261 -0.00465303 -0.00128638 -0.00114843 0.00140585 -0.00082222 -0.0101732 -0.0143821 0.00274029 0.0153317 -0.020633 -0.0120211 0.00224772 0.00349106 0.0118971 -0.00967559 -0.00163085 0.00807212 0.00776098 0.00675407 0.000200465 0.00644028 0.0116833 0.000945848 -0.0194309 -0.00181426 -0.00893079 0.013474 -0.0139842 0.00702646 0.0110308 0.00258656 -0.0060603 -0.00123411 -0.0203991 -0.00517382 0.00924887 -0.0192341 0.00353183 -0.0113861 0.000163278 0.0182786 0.00396712 -0.0119654 0.0164138 0.000581916 -0.00462044 -0.0167278 -0.0105436 0.0156244 -0.00735801 -0.00962409 0.0152611 -0.000261207 -0.000970982 -0.00940463 -0.00140722 -0.00839124 -0.0174155 3.07541e-005 -0.0238341 0.00160486 0.00597912 0.00186489 -0.00954081 -0.0144993 0.0166321 0.000644701 0.000699544 0.008524 0.0153516 0.0257957 0.0068577 5.92874e-005 -0.0102567 -0.00258585 -0.00363604 -0.0216966 0.00196697 -0.00532382 -0.00723015 0.00625309 0.00131833 -0.00458367 0.0178192 -0.00572289 0.00951129 -0.00263523 0.0170866 -0.00918019 0.00323721 0.0132603 -0.0243569 0.0143692 0.0102712 0.00682014 -0.0153249 -0.00250562 -0.00308499 0.0159142 -0.00211267 -0.00946502 -0.000889117 -0.022049 -0.00876485 -0.00019068 -0.002111 0.0184965 0.00423916 -0.0055396 0.00497744 -0.0173663 0.0234972 0.0167854 -0.00249907 -0.00164265 -0.00591232 -0.00406831 -0.0017841 0.0126672 0.00219652 -0.00355326 0.00456159 -0.00525375 -0.00342997 0.00506409 0.0102211 -0.0216617 -0.00065086 0.0193172 -0.00721194 0.0217943 -0.0209029 0.00866258 0.0203503 0.0154293 -0.00298508 -0.00522928 -0.00407011 0.0095586 -0.0103594 0.0046304 -0.0170608 0.00583021 -0.0182071 0.0102266 0.0158287 -0.00650837 0.012641 -0.00692139 -0.0220054 -0.00742739 -0.00298584 -0.00720072 -0.0112424 0.00109343 0.00159347 0.00298744 0.0141995 0.00495501 -0.0196672 0.000682628 0.000684489 0.0205445 0.00124353 0.0204033 0.0102379 0.00889028 0.00278865 0.00521942 0.000458971 0.000664861 0.0116867 0.0209124 0.00428333 -0.00741074 0.00953468 -0.017132 0.00385299 0.019805 0.00545605 -0.00275578 0.000812786 0.0151546 -0.00729875 -0.00635585 -0.00368588 0.00421026 -0.00874988 0.00366151 0.00549196 0.00957772 -0.0230268 -0.00951626 -0.00431584 0.00744299 0.0194267 -0.0106031 -0.00140652 0.00681342 -0.00135107 0.00207503 0.00484722 0.00856489 0.00519916 -0.0111749 -0.0116344 -0.0166669 0.00963998 0.00528316 0.00324995 -0.00792148 0.0115504 0.00724861 0.014696 -0.0080975 -0.00579538 -0.00126491 0.00236026 0.0224553 0.013837 0.0142269 -0.00814326 0.0140152 0.0286368 0.0240288 -0.00773636 -0.00964007 0.0125142 0.00827518 -0.0274518 -0.00170095 -0.000269858 0.0221601 0.00053442 -0.0142592 -0.000397773 0.00991956 0.0134321 0.00907435 0.0191752 -0.017516 -0.00855132 0.00710152 0.0301492 -0.00343826 0.00577575 -0.00670955 0.00711756 -0.00332141 0.00572007 0.00886289 -0.00946909 -0.0108234 0.00522006 0.0256964 0.0089336 -0.00330306 -0.00810369 0.00418602 0.0118756 -0.015685 -0.0029203 0.00616313 -0.000421948 -0.00626234 -0.00429257 -0.00696662 0.0023945 0.00422623 0.000840138 0.0108013 0.0060165 -0.00467292 0.00533603 -0.000953236 -0.00805489 -0.0147139 -0.000435305 -0.00906378 0.00899823 0.0205072 0.00107931 0.00961988 0.0213213 -0.0207985 0.00652897 0.00283272 0.00678985 0.00261932 -0.00203337 0.00158456 -0.0077386 -0.00146817 0.0154574 -0.00630684 -0.0180775 -0.00335665
дом 0.0491825 -0.0601144 -0.0179377 0.0443941 0.108423 0.0067954 -0.00990509 0.0223175 0.018432 -0.0623684 0.081021 0.0272965 -0.107658 0.0228101 -0.0263718 -0.00939742 -0.0158093 0.0181445 0.0379999 0.0746006 0.0424464 0.0289046 -0.0081284 0.0784314 0.0291754 -0.000369277 -0.106634 -0.00538214 -0.0445746 0.0194802 -0.174326 -0.061181 0.153503 -0.0273405 0.0110179 0.0184133 -0.0813504 -0.012344 0.0620845 0.00338763 0.0604282 -0.058963 -0.0519361 0.0118563 -0.00229465 0.00361816 0.030461 -0.101996 -0.100045 -0.00459986 -0.0590628 0.0170169 -0.00290689 -0.0726836 0.0304993 0.0150314 -0.023039 -0.0244515 0.00741411 0.0731584 -0.0201767 -0.0352431 -0.132476 -0.00422356 -0.042232 -0.00138386 8.00774e-006 0.0174337 0.0453631 -0.0306606 0.00669427 0.0268847 0.0234354 0.081203 0.0309023 0.0354375 0.00483384 -0.0570513 -0.0529398 -0.0378011 0.112299 -0.082607 -0.00859331 0.0305344 0.0135817 0.00818511 0.00735521 -0.0239797 -0.00693675 -0.0590751 -0.00173837 -0.00347271 0.0495591 -0.01159 -0.0243689 0.00293424 -0.0471449 0.0516201 0.069427 0.0155772 0.0658708 -0.000358311 0.044721 0.114609 0.0334355 0.0332662 -0.0967543 -0.0550652 -0.0714502 0.0151242 0.0512363 -0.097918 0.0340096 -0.00348247 -0.0546471 0.0806855 -0.0479707 0.0614229 0.0149548 0.000753571 -0.0116088 0.0916841 -0.00679635 -0.121114 0.0582198 0.0209225 0.021075 -0.0255741 -0.08398 -0.0638952 0.0748929 0.0674403 -0.0643784 -0.0254008 -0.0334071 -0.0402737 0.0741932 -0.070965 0.0286755 0.0911731 0.00819738 -0.00887538 -0.0492486 0.00890816 0.0269072 0.0670671 -0.132247 0.0308715 0.0557429 0.0457282 0.0287089 -0.0819626 -0.0875278 0.00869032 -0.0372019 0.0763501 0.027182 0.0464592 -0.00664425 0.0421847 0.0597881 -0.012715 -0.131806 0.0873085 -0.0374378 0.0119433 -0.0384468 0.0575128 0.0351139 0.0960068 -0.0585731 0.0546689 -0.142652 0.0939506 -0.0202909 -0.0711159 0.0869306 0.0614197 0.062675 -0.0198992 -0.0392052 0.033228 0.0143189 -0.137356 -0.000345266 -0.0757573 0.0372346 -0.0406788 0.0332454 -0.0160677 -0.0817201 -0.0284755 0.0124438 0.00899137 -0.104945 0.0292539 -0.0211605 0.0265687 -0.0013881 -0.0135736 0.0991703 0.111965 0.0588871 -0.0290336 -0.0453677 -0.16228 -0.00485734 0.027265 -0.00619038 0.0122628 0.0345322 0.0685202 0.0295672 -0.0725232 -0.00889577 -0.0632216 0.0359854 -0.114105 -0.0438802 -0.0681607 0.0313203 -0.00555455 -0.0233672 -0.0434657 0.0459663 -0.0129887 0.133323 0.0522663 -0.0340855 -0.00588586 0.0285852 -0.0136537 -0.107927 0.0387127 -0.0236526 0.0687762 -0.00151664 -0.0896735 -0.00262151 -0.0384137 0.0108416 0.131393 0.0183377 0.0142756 -0.0863467 -0.0136172 0.0846353 0.0273587 -0.06063 -0.0104928 0.0413635 0.0866935 0.0670126 -0.0590582 0.00455904 -0.0553913 0.00919199 0.0187096 0.0523545 0.043737 -0.0426362 -0.0521225 0.0258011 0.0032839 0.0262528 -0.0626833 -0.0349939 -0.0577312 -0.0573538 -5.55994e-005 -0.0335619 -0.053792 -0.029716 -0.00642927 -0.0387575 -0.0305673 0.0238883 0.0897416 -0.0762977 0.037431 -0.0543273 0.0393104 0.0485138 0.0435691 -0.108194 0.0648392 0.0151714 -0.0289017 0.0336799 -0.0439556 0.0177125 -0.00117046 -0.0220385 0.011065 -0.0211084 -0.0445397 0.136327 0.0309356 -0.00918028 -0.0275824
дверь 0.0605657 0.248149 0.0519282 0.0148008 -0.207451 0.0889379 0.102262 -0.0167679 0.0540303 -0.0909135 0.0329834 -0.075242 0.00570116 0.106688 -0.109019 0.00157415 -0.187323 -0.0589641 -0.0682133 0.052124 0.152367 -0.056149 -0.0650846 0.0720464 0.0401598 -0.0976943 0.171285 -0.0817715 -0.0302486 -0.196895 0.0171205 -0.088286 0.00616555 -0.0669824 -0.0978285 0.0516182 -0.036963 -0.0816989 -0.0290225 0.0340482 -0.275198 -0.0299967 -0.0854308 0.0446111 -0.0440484 0.0631904 -0.0297641 0.0516187 -0.0126145 0.0193262 0.0514073 0.0487697 -0.0634486 -0.0549786 -0.129466 0.00349968 0.0491338 -0.0466463 -0.0590299 0.0454092 -0.016351 0.0173235 -0.00760349 0.0174693 0.0422101 -0.016853 -0.106886 0.0160793 0.194841 0.0521093 -0.0692299 -0.0222462 -0.0130595 -0.108566 -0.0860321 0.121704 0.0148548 -0.0468468 0.162711 -0.0269467 0.119881 0.144585 0.135732 0.0522581 -0.104695 -0.0511293 -0.0743548 0.169621 0.0194853 0.138808 -0.126892 0.0646642 0.0717982 0.0826909 0.100121 0.0152701 -0.0281581 -0.00203046 0.0436644 0.0770314 0.0524262 -0.205362 0.131608 0.0757339 -0.0264032 -0.0085376 -0.0264252 0.00552983 0.0410944 0.0356817 -0.276222 -0.132114 0.186626 -0.0125854 0.00794707 0.194687 -0.0667548 -0.0676061 0.0739498 -0.0890322 -0.0252808 -0.0903265 0.0538425 0.126486 -0.0402576 -0.0520334 0.0343975 0.0407811 -0.112511 0.0732394 0.0638591 -0.116892 0.103874 -0.138514 -0.021477 0.000329354 -0.0513827 -0.247166 -0.108259 -0.193349 0.0178893 0.117262 0.0258688 0.0693784 0.0578935 0.11371 -0.00611957 0.132367 -0.0674882 0.0281659 -0.018028 0.170898 0.0884603 0.139838 -0.173398 0.00326761 0.173977 0.0417503 0.165351 0.0588443 0.159407 -0.0800239 0.0950098 -0.0150502 0.0446997 0.173177 -0.0157422 -0.157056 -0.0598168 0.0518121 0.0371411 -0.0238245 -0.0660694 -0.157449 -0.0882179 -0.118764 -0.228599 -0.0434573 -0.067485 -0.037285 -0.0282441 -0.0611479 0.0450273 -0.114887 0.0291435 0.00661637 0.00592235 0.123465 0.0896247 -0.0528676 0.191238 -0.0569295 -0.111129 0.180001 0.146127 0.0584268 -0.172403 -0.00442245 -0.0736213 0.0690766 -0.0280626 0.115801 -0.0822276 0.0353351 -0.087955 0.105133 -0.0441088 0.0279255 -0.0524008 0.0351414 -0.111809 0.00648564 0.0404563 0.105061 0.0540047 0.0890359 -0.0820973 -0.0258139 -0.0635165 -0.0674686 0.00900199 0.0388259 -0.0648665 -0.0249149 -0.0431792 -0.0793863 0.0930478 -0.0866354 -0.070936 0.0654158 -0.207011 0.0210414 -0.163408 0.066962 0.0645128 -0.0632454 0.0617804 0.022156 -0.0258962 0.0223723 -0.105466 -0.0240447 -0.11991 0.0909187 -0.0302029 0.0144611 0.0651117 0.068468 -0.0709278 -0.0892942 -0.0367506 0.181247 -0.0486396 -0.0625317 0.0441829 0.0972822 -0.0439564 0.0322908 0.196135 -0.142238 0.0604355 0.0141815 0.149566 0.00976378 -0.0656761 -0.0351117 -0.0395546 -0.0396524 0.0214819 0.0643789 0.0678456 0.161992 -0.0630949 -0.155892 0.0102673 0.0532586 -0.0729039 -0.0579532 0.000130547 0.149668 -0.120906 0.0584124 -0.0426123 -0.129515 0.00562548 -0.0169928 -0.134881 -0.013058 0.121504 -0.022477 0.0505701 -0.00203393 -0.0694749 -0.0385067 0.0230826 0.00332086 -0.118209 -0.0725949 0.0880724 -0.00811998
окно -0.00568755 -0.0055956 0.0231359 0.0592431 -0.0970285 -0.0511696 0.0461985 0.00127252 -0.0934213 -0.0831004 0.164271 -0.0209996 0.094126 0.000678016 -0.0304598 -0.0713651 -0.170016 0.0851032 -0.00129251 -0.0485711 -0.142624 -0.0660487 0.0301488 0.0687572 0.0105435 -0.0529938 -0.0493173 -0.207426 0.0191597 0.0170606 0.0662247 0.0179017 -0.087595 -0.0672447 0.0237479 -0.111245 -0.00269952 0.0663118 -0.0276077 0.0294627 0.00375326 -0.0596695 -0.106623 -0.0940821 -0.0966724 0.0798644 0.00253872 -0.0407339 0.0173275 0.14801 -0.116526 0.0030356 0.0335033 0.0358375 -0.0639202 -0.216071 -0.166016 -0.164622 0.0162395 -0.0671466 -0.0548862 0.0031932 0.0489403 0.0813335 -0.0158039 -0.161301 0.0600701 0.0931568 0.0475392 -0.0473492 -0.0204018 -0.055149 0.0173997 0.0662184 -0.129055 0.223575 -0.077049 -0.0112477 0.0296538 0.109247 0.0464228 0.00473172 0.0767537 0.0281774 -0.104686 -0.0450454 -0.159755 0.103245 -0.0533 0.0298192 -0.24359 -0.0445978 0.0372841 -0.0233681 0.165264 0.0253469 -0.147408 0.00165582 0.220094 0.0745713 -0.0825521 -0.190711 0.0698199 0.0578436 0.103808 0.0288254 0.0602381 0.00169752 -0.0940559 -0.131497 -0.130461 -0.0880137 0.0954825 0.137971 0.0300883 0.0443401 -0.0597318 -0.0659031 0.112185 0.00611031 0.0295347 -0.129069 0.000925028 -0.0214553 0.0718001 -0.0303178 -0.0489028 -0.119969 -0.0465924 0.110634 0.0273874 -0.0729704 0.0595022 -0.109597 -0.0512154 -0.00800402 -0.0495623 -0.0243043 -0.152297 -0.00697563 -0.046826 -0.0746071 -0.0929433 -0.0197772 0.0146667 -0.0131494 -0.0180901 0.0889418 -0.121849 -0.0872344 -0.0642227 0.162686 0.200256 0.131812 -0.0651783 0.0819862 0.104928 -0.0320064 0.0999539 0.0227412 0.0550482 0.0539273 0.0617666 -0.00967108 -0.0249484 0.134083 -0.0265075 -0.106303 -0.0500902 0.10578 -0.132566 0.0540732 -0.144724 0.0456991 -0.112473 -0.0405138 -0.0384748 0.19342 -0.0258869 0.0595949 -0.0518289 -0.100937 0.0860177 -0.131725 -0.113803 -0.114273 0.198278 0.28779 0.0981551 0.0368873 -0.00548616 0.0368798 0.0185785 0.0623743 0.23498 0.0284525 -0.057731 -0.00868923 0.0186861 0.0676873 0.0485348 -0.0311338 -0.14718 0.00563383 0.0245707 -0.0443142 -0.14003 0.0484283 0.0983704 -0.117514 -0.142875 0.227509 0.0907594 0.199439 -0.0039295 0.047307 -0.0174596 -0.0141431 -0.0109792 -0.0708614 0.00971865 -0.0200285 -0.121841 0.0113474 0.157962 -0.0032511 -0.117365 -0.0339121 -0.0489539 0.0519384 -0.027688 -0.0586108 -0.192177 0.0102046 -0.0395018 -0.0414354 0.0115011 0.0350806 0.0303914 -0.171639 -0.0333595 -0.0861901 0.0279653 0.0824381 0.0963448 -0.0428108 -0.0897422 0.0827894 -0.0298256 -0.0889513 -0.00803664 0.0864133 0.0752568 -0.114099 -0.0206889 0.110509 0.034273 -0.0135762 0.152548 -0.140955 0.0226084 -0.074603 -0.0220245 0.0554324 0.0956004 0.0543296 -0.0363514 -0.0486854 -0.00181402 0.0940202 -0.012578 0.157609 -0.0631103 -0.185592 0.0828492 0.0605414 -0.191884 0.061322 -0.0901528 0.034101 -0.0876118 0.0304502 -0.0139106 -0.0968953 0.0431053 -0.0923632 -0.0708311 0.122571 0.168295 -0.0326479 -0.0945536 -0.0233472 -0.0711431 0.0477239 -0.00490547 0.0932764 -0.0930758 -0.0805174 0.0469377 -0.0301949
улица -0.0463748 -0.011724 0.04477 -0.150817 -0.166291 0.0390958 -0.0448451 -0.0372441 -0.0611209 0.0511999 0.00425453 0.080104 0.0477732 -0.0704255 0.0803494 0.0340556 0.0401288 -0.0181754 -0.097602 -0.0414109 -0.0907324 -0.0621902 -0.0301184 -0.0894155 0.0400675 0.00898722 0.0855557 0.102329 0.0277427 -0.0226581 0.131851 0.0458289 -0.117507 0.0710097 0.058521 -0.00312837 0.147969 -0.0102846 -0.0733789 -0.0761287 -0.00312745 -0.0344723 -0.0287581 -0.175986 -0.0463383 -0.0770116 0.0353303 0.052749 0.0490223 0.00332317 0.0499286 -0.0941573 -0.0170667 0.108928 -0.0499096 0.0376838 0.0718015 0.0642195 -0.0649132 -0.0903812 -0.00999118 -0.075792 0.110148 0.0747714 0.00376618 -0.0645782 -0.0434222 0.00679503 -0.0959811 -0.0234433 -0.0177733 0.0264739 -0.0395669 -0.0951923 -0.0471549 0.00903117 0.0523519 0.016513 0.0799256 0.0941187 -0.0686089 0.019629 0.170946 0.0651408 0.00086294 0.119467 0.055603 0.0254471 -0.0696218 0.0624274 -0.0394859 -0.0237379 0.0040441 -0.0168933 0.0706791 -0.00719743 -0.0382889 0.0861266 -0.00962975 0.070275 -0.0358287 -0.044273 -0.0705915 -0.0523613 0.0399727 -0.0316245 0.0855388 -0.00386959 0.0791069 -0.082814 -0.0544282 0.0916285 -0.0431797 0.0471738 0.0596097 -0.0146728 0.00430181 -0.0414805 -0.0146329 0.0213631 -0.0243439 -0.0793122 0.0980734 0.167876 -0.0688506 -0.108517 -0.00797986 0.0386229 0.0487894 0.139913 -0.0712921 -0.0970442 -0.0154684 0.0523248 0.025477 -0.00882681 -0.143575 0.124811 -0.0698737 -0.0574222 -0.00217438 0.0443874 0.0496471 0.0028283 -0.0566196 -0.0274478 0.101297 -0.126504 -0.0218578 -0.0492257 -0.102439 0.155222 0.12454 -0.0444195 -0.0258833 -0.135956 0.0397981 -0.00041325 0.0778573 0.0288046 -0.0514126 -0.0275206 0.16035 -0.0889956 0.0152093 0.0952614 0.0445151 -0.027592 0.0623051 -0.133418 0.133615 0.0024361 0.147606 -0.120124 0.0123428 0.0799209 -0.0668333 -0.0413341 -0.0786084 -0.0290394 0.039121 -0.01238 0.0421928 0.0717793 -0.00745824 0.0994059 0.0472431 -0.0259651 0.0351402 0.0242959 0.0507709 -0.0752146 -0.0567506 -0.0646071 0.0687585 -0.0898929 0.0382121 0.0164779 0.00172377 0.0710733 -0.101297 -0.19586 -0.124807 -0.0104315 0.10384 0.0879264 0.0680005 0.0125097 0.0658675 -0.10496 -0.061824 0.118244 -0.0311866 0.163042 0.0419138 0.091067 -9.24914e-005 0.0502314 0.0907921 0.0788911 -0.0265221 0.0818055 -0.0607874 0.0173212 0.0130638 0.00169716 -0.221158 -0.0295111 0.105106 0.0150847 -0.0822485 0.00381996 0.0436663 0.00744599 0.00591746 -0.119644 0.0524007 0.0367191 0.0474062 0.0618816 0.0180252 -0.176369 -0.0353194 -0.0213017 0.0494797 0.0479105 -0.11098 0.0593418 0.0688125 -0.0585323 -0.0385391 0.051343 -0.0445484 0.0994625 -0.0730798 0.0951447 0.0109209 0.0105898 -0.01392 0.00285517 0.0525119 0.00597726 -0.0112266 -0.11547 0.0257863 0.127966 0.114137 -0.0306625 0.0343145 -0.0115584 0.0168409 0.0505942 0.0405737 -0.0143274 0.0417193 -0.0701046 -0.0279984 -0.0595781 -0.0548439 -0.0434143 0.00395219 -0.124901 -0.0474551 -0.0169466 0.126091 -0.0569265 -0.0618692 0.102061 -0.0378461 -0.105542 0.0426397 0.0665313 0.0396167 -0.102653 0.000328211 0.126232 -0.125757 -0.0239341 -0.00775722 0.00695056
путь -0.00482827 0.0394579 -0.0361929 -0.0203001 -0.159135 -0.00694965 -0.0483454 -0.0887764 -0.0840018 -0.091908 0.176633 0.11073 0.121978 -0.0853093 0.0110103 -0.0856303 0.0682295 0.118844 -0.00680832 0.0402249 -0.214875 -0.0983902 0.00933725 0.00434534 -0.0543145 0.0631689 0.0371112 -0.0450225 0.0880035 -0.115386 0.0913164 -0.0452876 -0.106211 -0.0502662 0.0970473 0.124273 0.114638 -0.0593141 -0.0187098 -0.0800348 0.0747687 -0.135782 -0.149617 -0.2861 -0.0757425 0.149477 0.133797 0.0503427 0.105814 0.121193 0.0923027 -0.176228 -0.0794022 0.0495971 -0.24056 0.0479319 -0.142398 0.0611108 -0.0961093 -0.00992453 0.0229212 0.00419637 0.0548324 0.167416 0.0629263 -0.219825 0.0762154 0.134093 -0.102598 0.0770082 0.0747425 -0.116919 0.110559 -0.0284838 -0.0865049 0.0187345 0.062635 0.100304 0.227944 0.0154749 -0.14716 -0.0215027 0.154852 0.0423569 -0.167884 -0.00557572 -0.130091 0.0353112 -0.0786815 0.196947 -0.0644923 0.0547835 -0.0290753 -0.0643284 0.150868 -0.0175012 -0.00110025 0.000138951 0.166999 0.121261 -0.115214 -0.180235 -0.0510109 0.172598 0.159816 0.0229482 0.11568 -0.00479537 0.0147568 -0.183619 -0.169041 0.0984888 0.0372787 0.0733531 0.0645053 -0.0749876 0.0612617 -0.042024 0.0609395 -0.0337761 -0.0211465 -0.114782 0.0359954 0.0304086 -0.122923 -0.149139 -0.0149557 0.0900758 -0.0124724 0.0743878 -0.0248328 0.0547897 0.0772156 -0.0872088 0.0368431 0.0463786 -0.174504 -0.0236901 -0.0966566 -0.128192 -0.139437 -0.0383606 -0.00787364 -0.0273198 -0.0176695 -0.0011463 0.0354969 -0.0642649 -0.0161613 0.0217237 -0.157212 0.0905243 0.250941 0.0125386 0.0897722 0.039489 0.147215 -0.181235 0.08261 0.0115053 -0.0989464 0.0118508 0.00434047 -0.129692 0.182545 0.155591 0.0109492 -0.101921 0.145322 -0.0706762 0.0600588 -0.0200431 -0.133865 0.0425632 -0.0963847 0.00273953 -0.0477188 0.105192 -0.0325799 -0.124146 0.0098889 -0.0265214 0.0136185 0.0161511 -0.234994 0.0169826 0.0344103 0.162133 0.0595891 0.00368084 0.0533662 0.0323292 0.0132984 -0.0964571 0.0767749 -0.0614133 0.116705 0.0222958 0.0303482 0.238644 -0.157399 -0.255689 -0.242879 -0.151513 0.0459835 -0.0658845 -0.0583114 0.139832 0.0997945 -0.18231 0.00547447 0.159856 -0.0723671 0.213755 0.135448 0.0603719 0.0350727 0.254517 0.0302599 0.0117079 0.0675397 0.0508917 -0.043124 0.0707505 0.113386 0.0981471 -0.243271 -0.0438326 -0.0303546 -0.119234 -0.0254849 0.00393258 0.08651 0.0282778 -0.0511077 -0.0968933 -0.070185 -0.0981118 -0.113347 -0.192012 0.0394311 -0.0813031 -0.0160916 0.137614 0.107933 0.0180447 -0.153839 0.305333 0.0918339 -0.111345 -0.0405798 -0.014135 0.065142 0.0300799 0.068768 0.0507009 -0.0589429 0.191359 0.0411106 0.0835126 0.122652 0.00444664 0.0252733 -0.0536905 0.0575752 0.104354 0.0683356 -0.0284736 0.0508595 -0.0692647 -0.108877 0.202054 -0.185948 -0.157619 0.112754 0.0520038 -0.116358 -0.0722707 -0.0911294 -0.0951313 0.0137926 0.0230859 0.116082 -0.0337964 0.229706 -0.0514666 -0.0987993 0.094944 0.128334 -0.0291794 -0.0808558 0.0463986 0.0426059 -0.0838628 -0.0587339 0.0600325 -0.131356 -0.0149716 -0.0845036 -0.0559482
человек 0.0326302 -0.00721978 -0.0512646 -0.0215738 -0.0541937 -0.0111437 -0.0180566 -0.0159624 -0.0410028 -0.197458 0.129058 0.0411727 0.0656402 -0.0381683 -0.0732517 -0.099932 -0.067784 0.0416769 0.0504166 0.0361358 -0.000967504 0.0259674 -0.0372911 0.0598501 0.0284055 0.0259245 -0.0157932 -0.0978767 0.00890602 -0.0877702 0.0210178 -0.0648137 0.0324677 -0.0705923 0.00806102 0.0480081 0.0194882 0.0244082 0.0329876 0.0474169 -0.0669037 -0.108137 -0.0757814 -0.024653 -0.0385738 0.0847748 0.0358102 -0.0019897 -0.0498625 0.0176048 0.00699492 0.00123665 -0.0697976 -0.113161 -0.0488201 0.00115964 -0.103296 -0.1369 0.0862649 -0.0432257 0.0288317 -0.00849513 -0.0359478 0.0566159 0.0303106 -0.0789156 0.0463471 0.0231796 0.0064165 0.0752165 0.0145423 -0.0586699 0.077125 0.0898098 -0.0442394 0.10395 -0.0103216 -0.0849998 0.0677857 0.0318844 -0.0219636 0.011306 0.0352535 -0.129656 -0.1102 -0.0297148 -0.100671 0.0159349 -0.0118151 -0.0184759 -0.130137 0.0626482 0.0565895 0.0526405 0.018988 -0.0216026 -0.024003 0.0799976 0.145728 0.120572 0.0201766 -0.0141737 0.023667 0.137565 0.0347661 0.0840863 -0.0293868 0.0111532 -0.00301241 -0.110693 -0.0600897 -0.0651555 0.0607822 0.13212 0.0430125 0.0477824 0.0115603 -0.0691133 0.105555 -0.0342965 -0.0258124 -0.0106982 -0.0976049 -0.142505 0.00809227 -0.0428124 0.0018019 -0.039264 -0.0515127 -0.0581789 0.112471 0.0577179 0.0465053 0.0161778 0.0162712 0.0523154 -0.00706812 -0.0095849 -0.0512215 -0.0583888 -0.144727 0.0297919 -0.040187 0.00556129 -0.0105419 0.0988006 -0.0350603 0.00293528 -0.106996 -0.0760386 0.0347533 -0.0125411 0.0352371 0.078286 -0.00802392 0.0660522 0.0320138 0.0334948 -0.00727938 0.106708 0.048661 0.00182188 -0.0558767 -0.00926698 0.125417 0.0316189 -0.0276873 -0.111314 -0.00358052 -0.0428702 -0.108047 -0.105549 -0.180085 0.0627317 -0.0516169 -0.0289127 -0.0367442 0.0214879 0.0247843 -0.040642 -0.0287368 -0.0720117 0.018816 -0.111351 0.0358327 0.0245926 0.096602 0.15344 0.0781031 -0.00424218 -0.0994754 0.0553323 0.0252777 0.0788669 0.0228314 0.0259467 0.0381801 -0.0122611 -0.000287189 0.107435 0.0515177 0.0602214 -0.0838893 0.0132084 -0.0761217 -0.110215 -0.0356366 0.141927 0.0232854 0.00348245 0.103843 0.0501768 0.00738638 0.0643254 -0.0472906 -0.0678932 0.0708999 0.0672411 -0.0653829 -0.0349321 0.0174272 0.00775253 -0.000783869 -0.00978977 0.109843 -0.0488008 0.114005 -0.0524916 -0.0083243 -0.0267512 0.00817843 0.0218702 -0.103753 0.110115 -0.0166849 -0.0300693 0.0392656 -0.121115 -0.0186152 -0.104368 0.0418652 0.0157179 -0.051097 0.153386 0.00566176 -0.0473677 -0.0680824 0.0966471 0.0367297 0.0575811 -0.00619943 -0.00518082 0.0178089 -0.0927422 -0.0399936 0.0395464 0.00668998 0.00845216 0.105964 0.0260786 -0.0169568 -0.0182742 0.0479784 0.0012107 0.0663137 -0.0103554 -0.0325748 -0.00183049 -0.0398027 -0.0266595 -0.00492714 0.127168 -0.124326 -0.169856 0.00164554 -0.035217 -0.0380769 0.05415 -0.0301987 0.0350887 -0.0282748 0.044143 0.0615895 0.0543594 0.0267185 0.0535138 -0.13936 0.0233352 0.0566077 -0.0616283 -0.0658159 -0.0305579 -0.109721 -0.0765243 0.0188877 -0.0768482 0.0308605 0.00267133 -0.0378922 -0.0359744
день -0.0761144 0.0497987 0.0148351 0.0661362 -0.0498642 -0.0334281 0.0330227 -0.0687027 -0.00534546 -0.0151629 -0.0318054 -0.0103034 0.120923 -0.0349392 -0.0631064 -0.0809752 0.0727444 0.0771058 0.0422261 -0.110469 -0.0917348 0.00279604 0.0184948 -0.0312837 -0.0808754 0.0652913 0.110128 -0.121553 0.0946556 -0.062434 0.1632 0.0545155 -0.162892 -0.0316096 0.00991784 0.0343201 0.0494618 0.0123056 -0.0541878 0.0229356 -0.00971573 -0.0486332 0.0424511 -0.0085 -0.0286531 0.220108 0.0169975 0.0902253 0.143407 0.120982 0.0512355 -0.0412546 -0.0861283 0.0117143 -0.0821953 0.0148344 -0.0486481 0.0255309 0.0348365 -0.0245478 0.0308878 0.220464 0.133853 0.0878586 0.131186 0.0219386 0.0562051 0.0394945 -0.0962683 0.0785232 0.0790453 -0.111063 0.107448 -0.0344628 -0.0891792 -0.107665 -0.0685212 0.110058 0.109776 -0.0822753 -0.184545 0.0690043 -0.0230053 -0.0755054 -0.117942 -0.0790553 -0.0961722 -0.0288335 0.0455582 0.127245 0.0557696 0.0615618 -0.125875 -0.073124 0.11221 0.030953 0.102657 -0.152368 0.0064865 -0.0567182 -0.120252 -0.04774 -0.108031 -0.0299049 0.00189446 -0.0190603 0.158137 0.0538544 -0.0375948 -0.0586342 -0.126323 0.164904 0.00746334 0.0345563 0.0931583 -0.160817 0.0958328 -0.0876353 0.0426462 -0.0320593 0.00364134 -0.154799 -0.0593273 0.0592279 -0.110599 0.0137784 -0.0811292 0.0819251 0.110603 0.0116889 -0.0224845 0.0235479 0.123711 -0.107458 -0.000190563 0.0602409 -0.0948362 -0.0449736 -0.0706389 -0.147166 -0.135055 -0.0581828 0.0197831 -0.0228145 0.032157 -0.140745 0.113372 0.0278502 -0.0694745 -0.0414901 -0.0336544 0.00921327 0.144101 0.0734582 0.118466 0.0826142 -0.00862213 -0.181707 -0.023645 -0.0528051 -0.160377 0.0564049 0.0365286 -0.090461 0.0765569 -0.0460048 -0.00565868 -0.0617583 -0.0132883 -0.0968991 -0.0317372 -0.127314 0.0197694 -0.0226644 -0.0384877 0.00660316 -0.00674167 -0.0339014 -0.016522 -0.00709981 0.0158961 -0.00739662 -0.0472137 0.115442 -0.168319 0.0139191 -0.0515425 0.192331 -0.0503166 0.00182877 0.105758 0.101714 0.000662748 -0.00104488 0.0944173 -0.0251298 0.129204 0.0164852 0.00956488 0.107103 -0.157239 -0.117063 -0.0608032 -0.0971229 0.0158759 0.0509354 -0.1301 -0.0409483 -0.0802853 -0.0484686 0.0292065 -0.181307 -0.0308546 0.0705122 0.0700224 0.0367962 -0.0372127 0.251452 -0.00791858 4.75613e-005 0.072682 -0.040397 0.0975212 0.114861 -0.0318642 0.053261 -0.111411 -0.0757363 -0.136703 -0.103795 -0.00163347 -0.0362187 0.234197 -0.0498912 -0.0357504 -0.0714857 -0.094042 -0.00871448 -0.078646 -0.163801 0.0283928 -0.0543516 0.00986864 0.00798438 0.156834 -0.0044035 -0.11 0.0771013 0.145255 0.101301 -0.0621453 -0.205669 -0.0285479 -0.0215162 0.126101 -0.0105146 -0.0203842 0.124484 -0.106725 0.0135698 0.137311 0.0915804 0.0041325 0.0712071 -0.0516421 0.0269853 -0.0125715 0.105092 0.115166 -0.0354646 -0.0135308 0.187195 -0.109915 -0.00152559 0.0303298 0.110059 -0.00266628 -0.144595 0.153162 -0.098569 0.0393293 0.0437466 0.077097 -0.0398401 0.129199 -0.00411952 -0.0208464 -0.0349414 0.0792296 0.226967 -0.000464131 0.00451109 0.054627 0.0222967 -0.0303184 -0.0255633 -0.185931 -0.0745409 -0.113074 -0.00211514
солнце -0.0847717 -0.1384 0.0470809 -0.0712599 0.120564 -0.0227549 0.11441 0.0394557 -0.00153194 0.0302618 -0.0757621 0.0417463 0.0810196 0.04183 -0.00645646 0.0875085 0.0321238 0.0119343 0.0410281 -0.0752478 -0.0471311 0.0943903 0.0440372 -0.000621122 0.0202137 0.106603 0.0124204 -0.0380702 0.0155899 0.0291116 0.0687442 -0.0171908 0.0349911 -0.0553089 -0.0674229 -0.0445387 -0.085347 0.0590361 -0.00487717 0.0510501 -0.00984948 0.0390276 0.119745 0.114822 0.0851238 -0.00667748 -0.0671553 -0.0661012 0.0424333 0.0118171 -0.0591566 0.18805 -0.0114014 -0.0428358 0.120923 -0.115351 -0.0801874 -0.0233554 0.0995964 -0.0444764 0.0507131 0.082587 0.0849105 0.0162912 0.0473386 0.135493 0.0827888 -0.00535754 -0.0639037 0.0519852 0.102605 -0.0393067 -0.0519088 0.0915428 -0.0354981 -0.0734269 -0.0816462 -0.00130226 -0.114702 0.0280941 -0.0467158 0.0781079 -0.113639 -0.128005 0.0191634 -0.0513747 -0.104743 -0.0155467 0.00330621 -0.0947292 -0.0294214 -0.113045 0.015257 -0.0139914 0.0424157 0.00369788 -0.0149327 -0.0246311 -0.0797543 -0.0831424 0.0292327 0.0814799 -0.0983986 -0.0583234 -0.115448 -0.0053402 0.0384531 0.0893338 -0.107034 -0.0430807 0.0903696 0.0575706 0.0536926 0.0478321 -0.048257 -0.0627439 0.0390508 -0.011155 -0.00605697 0.100424 -0.0220541 -0.055162 -0.0562118 -0.0293435 0.044081 0.0951793 -0.045195 -0.0612742 0.16064 -0.0831941 0.0256321 0.0752885 0.0642884 0.0195586 -0.0305555 0.0494494 0.0325136 0.0311798 0.0212609 0.0412336 -0.112976 -0.0270585 -0.00602819 -0.0328728 -0.0206786 -0.0816709 0.107789 0.0200672 -0.0561298 -0.158539 0.142525 -0.165902 0.00360013 0.0382054 0.0731199 0.0292787 -0.16293 -0.0504425 -0.145989 -0.0190662 -0.112528 0.00446132 -0.0572469 0.0188611 -0.000142836 -0.115854 -0.0768389 -0.0217012 -0.028666 -0.00864897 -0.0604714 0.0373109 0.115891 0.0555741 0.0580556 0.0263418 0.0500117 -0.0175266 0.054892 0.0250035 0.0500091 -0.0406743 -0.0186976 -0.0822184 0.0267653 -0.101499 -0.0250992 0.0853688 -0.0375379 0.0763109 -0.112734 0.0247043 0.161329 -0.00770515 -0.0504063 -0.0567893 0.0736808 -0.0227536 -0.0028023 -0.0195177 0.106719 -0.0125637 0.0862624 0.0102515 0.00979223 -0.037893 -0.0713261 -0.137515 -0.0594048 -0.00607624 0.0822017 -0.104523 -0.0269742 -0.130015 -0.097952 0.0657396 0.0329615 -0.00150319 0.000936832 -0.0900767 -0.0560421 -0.103608 0.0950226 0.111709 -0.0560548 0.0742288 0.12901 0.00219982 -0.0547363 -0.0251702 0.124123 0.0134847 0.118232 -0.0602684 -0.0451179 0.0943175 -0.0665675 0.0826892 0.062552 -0.0080613 0.00971884 0.0410486 0.0910651 0.0582506 0.0721566 0.020541 0.0412482 -0.122171 0.05456 0.159829 -0.00978935 -0.1766 -0.0114653 -0.0382768 -0.0252745 -0.0397642 -0.0293709 -0.0242325 -0.0531551 0.00472768 0.0125038 0.0691005 -0.077151 0.0522681 -0.039704 0.0133757 -0.0717401 0.108279 -0.00185211 0.0155652 -0.124358 -0.0463221 0.0265092 0.0628979 -0.00830606 0.030642 0.0950895 0.0663621 0.115443 -0.0956525 0.00926988 0.146616 0.101843 0.100025 -0.0196468 -0.00529434 0.0621445 -0.0314416 -0.0347359 0.0798015 -0.107963 0.118367 0.0381051 0.0985539 -0.0144476 -0.140713 0.00933609 0.00898528 -0.0550835 -0.00689827
свет -0.174543 -0.203371 0.0473483 -0.185614 0.0931279 -0.0212448 0.00879604 0.00386307 -0.0901278 0.0111417 -0.105132 0.0566576 0.2038 -0.120506 0.0202736 -0.00576706 -0.0856895 -0.000622925 0.0452138 -0.292002 -0.0758104 0.0743852 -0.0854534 -0.146428 0.0536525 0.0840788 0.0277986 -0.183291 0.064661 0.100224 0.266914 0.176926 -0.158199 -0.00973778 -0.0078902 -0.206585 0.065233 0.166647 -0.107585 0.12074 0.0209323 -0.0044663 0.230559 0.176308 -0.0549689 0.0376209 -0.139548 -0.0607858 0.0346482 0.0603148 -0.190782 0.167257 -0.00171126 0.0529823 0.232038 -0.202698 -0.0044817 -0.25263 0.288846 -0.262883 -0.02181 0.0557019 0.240137 0.0517618 0.0121131 0.131346 0.0500373 -0.108065 -0.0840677 -0.0616461 0.00506803 -0.0160739 -0.0257761 0.167567 -0.0757881 0.0699469 -0.126548 0.0189344 -0.178323 0.163246 -0.131466 0.0584998 -0.082433 -0.249386 -0.0417228 -0.00365345 0.00366831 -0.0712544 0.0532673 -0.244594 -0.10784 -0.120815 -0.0327841 0.0288064 0.122226 -0.0216043 -0.0497913 0.0704242 -0.0284566 -0.0744235 0.00841446 0.164756 -0.187726 -0.202149 -0.140455 0.0025796 0.12191 0.0883469 -0.0446389 -0.132868 0.109205 0.0728545 -0.0288422 0.267071 0.08879 -0.184788 0.0213714 -0.183483 0.0409531 0.0996827 -0.0428343 -0.19846 -0.119109 -0.0215457 0.0721336 0.113004 -0.147688 -0.238064 0.211333 0.0224186 0.0393232 -0.0817305 0.0148797 0.106012 -0.0379644 0.0841306 -0.0478517 0.248043 -0.0521027 -0.0328186 -0.13696 5.26916e-005 -0.0239968 -0.0135816 0.0131907 -0.18543 0.185829 -0.0181848 -0.294265 -0.350932 0.125498 0.0799615 -0.0148351 0.0422535 0.139249 -0.00437455 -0.260279 0.0435087 -0.108591 0.0121429 -0.100857 0.183543 0.140668 -0.0779063 0.0079248 -0.233216 -0.0313308 -0.0790255 -0.175411 -0.112828 -0.164841 -0.169667 0.142224 -0.0187168 0.109314 0.117973 0.069961 -0.0487113 -0.0231131 0.150924 0.00865447 -0.0853466 0.0196088 0.0461531 0.142704 -0.00100667 0.253218 0.232895 0.00811007 0.149485 -0.105193 0.0822517 0.0534297 0.044166 0.165979 -0.0157027 0.136226 -0.0147446 0.0922579 -0.0380033 0.08675 -0.0282773 0.00946609 0.058066 0.0329617 0.0628964 -0.114865 -0.112233 -0.0159286 -0.0342295 0.0735625 -0.030276 0.0497374 0.0728613 -0.101118 0.0450421 0.00910137 -0.0434182 -0.0405986 -0.00913696 -0.122219 -0.0662194 0.10013 0.0218894 0.0183698 -0.0452251 -0.0610803 -0.105617 0.0355874 0.00481999 0.0503796 -0.0133795 -0.0212254 -0.0214395 -0.0672084 -0.110435 0.12018 0.0879598 0.179533 -0.126352 0.112986 -0.164937 0.0121677 -0.0633814 0.138393 -0.0314995 -0.177461 -0.214537 0.145136 0.209751 -0.0433131 -0.204751 -0.136735 -0.146477 -0.132722 0.127599 0.123878 -0.14587 -0.0986907 -0.0477825 -0.0214315 0.0570514 -0.0609534 0.078067 0.0779609 0.0531819 0.0648358 0.17102 0.0100359 0.0110973 0.117275 0.0509579 0.0997634 0.0242717 -0.00487745 -0.0948616 -0.00385606 0.0865829 0.192254 -0.0887426 0.0195275 -0.0185182 -0.0989419 0.171153 -0.0632395 -0.018527 -0.0124795 0.0971111 -0.00583605 -0.00131451 -0.0389775 -0.0190046 -0.0973864 0.0827494 0.0201733 -0.0543479 -0.0888265 -0.0692495 -0.0575387 -0.00738724
видеть -0.0255739 -0.121062 0.071374 0.026216 0.124722 -0.0404702 0.0268502 0.0489208 0.025443 0.0788067 0.0554099 -0.0373039 -0.103134 0.107614 -0.0230101 0.077322 -0.148514 -0.0106517 0.0651391 0.00734258 0.0771469 0.0542301 -0.0326432 0.0976909 0.0991968 -0.0346668 -0.0722721 -0.0178908 -0.0368127 0.113315 -0.129995 0.0151855 0.0857879 -0.0104274 -0.0236627 -0.163579 -0.157217 0.0503752 0.0490934 0.0440824 -0.0231424 0.00974126 0.0367296 0.171904 -0.0454342 0.00209658 -0.0403503 -0.0344038 -0.168064 -0.0299847 -0.205477 0.124054 0.0233117 0.0103552 0.113578 -0.149969 0.0333173 -0.0663721 0.10245 0.0499573 -0.0537421 0.0224479 -0.100519 -0.0305314 -0.0444947 0.131685 -0.0575286 -0.0268665 0.068443 -0.0226246 0.00968482 0.0680444 -0.0672245 0.0165945 0.0114292 0.0708578 -0.129165 -0.0784204 -0.115971 -0.0400024 0.172227 -0.0108765 -0.0660217 0.0351799 0.0966692 -0.0150019 0.0679956 -0.00154723 0.0208718 -0.121368 -0.0716646 -0.0769981 0.00912202 0.0207703 0.0207547 0.0108628 -0.0986896 0.0221037 0.0340732 -0.0863359 0.117866 0.00899966 0.0433342 0.0249866 -0.00503609 -0.0408777 -0.09064 -0.0779373 -0.165348 0.0576912 0.068544 -0.145852 -0.0163686 -0.0179722 -0.0937885 0.0758741 -0.145066 0.0713811 0.00880186 0.0454018 -0.0447321 -0.0207024 0.0300953 -0.0357273 0.188929 0.032881 -0.0483939 -0.126631 -0.0196395 -0.0284016 0.0375988 -0.0155256 -0.0763011 -0.0417616 -0.0744127 -0.093209 0.0187489 -0.00203925 0.0666422 0.100921 0.040383 -0.0449962 -0.0558253 0.00254062 0.00876345 -0.0914695 -0.0468409 0.0900848 -0.0577142 -0.0490223 0.113556 -0.0134122 -0.115856 0.126028 -0.094877 0.026791 -0.052288 0.113898 -0.00494028 0.0302074 0.0279064 0.0315361 -0.0719878 0.042213 -0.152163 -0.0268995 -0.0750492 0.00670293 -0.0234462 0.142519 -0.129175 0.110706 -0.0779901 0.0388527 -0.0605832 -0.0698389 0.142567 0.0292733 0.0447231 0.0966717 -0.0460494 -0.0265465 0.0261521 -0.131417 0.0911681 -0.0610972 -0.00799166 0.0498464 -0.0302419 0.0801059 -0.0276369 -0.0220396 0.0428253 0.0830893 -0.0112164 0.0617168 -0.0350142 0.0300682 0.021366 -0.0930028 0.166068 0.157314 0.148161 0.0642406 0.00443841 -0.0885745 -0.0937081 -0.164774 -0.0578983 -0.0178837 -0.0866416 0.0467808 0.0450803 -0.0644343 -0.111144 -0.0385198 -0.0312532 -0.205852 -0.103592 -0.129628 0.0144657 -0.0694071 0.040709 -0.0267504 -0.056609 -0.0270258 0.217691 0.0680781 -0.0775268 0.0527265 -0.026709 -0.0901391 -0.128133 0.0202189 -0.023521 0.0494334 0.0253537 0.107512 0.0762947 0.0100999 -0.0800346 0.0430166 0.10554 -0.0594041 -0.0667002 0.0217904 0.0575442 -0.136102 -0.0174519 -0.067498 0.0495311 0.105798 0.0589065 -0.071531 -0.00363111 -0.0592241 -0.0289706 -0.0326505 -0.00157111 -0.138385 -0.0614129 -0.0161419 -0.00809958 -0.0311842 -0.00785555 -0.00367346 -0.0703454 0.00168013 -0.0311708 0.101525 0.0357822 -0.098087 0.0535088 -0.0190094 -0.0845083 0.0544003 0.0351993 0.136831 -0.0975714 0.0226539 -0.129196 -0.0187168 0.0360859 -0.00528998 -0.154972 0.0218889 0.102095 -0.0686513 0.0333993 0.0279502 0.0718813 0.00317333 -0.0806887 0.163123 -0.0109851 -0.0136053 0.132909 0.0267798 0.0733763 0.0325101
сидеть -0.0945545 -0.152289 0.0598737 -0.0729879 -0.0176488 -0.0621452 -0.0179006 0.0011271 -0.0716464 0.145285 0.00223825 -0.0158541 -0.0224472 -0.0580981 0.0314009 -0.105601 -0.103488 -0.182245 0.100547 -0.133524 0.152076 -0.00883657 -0.136252 -0.0407669 0.246017 -0.0753683 0.0647117 0.075218 0.0508677 0.0706841 0.123287 0.0746088 -0.0632922 -0.0608732 0.0161101 -0.146255 -0.0603521 0.0896541 0.010282 0.024006 -0.271622 -0.0291586 0.0991735 0.364458 -0.10036 0.197886 -0.0456762 0.212297 -0.141243 -0.157664 -0.0953424 0.0422428 -0.167256 0.0133934 0.0828874 -0.021576 0.254125 -0.185497 0.112444 -0.165848 0.0716436 0.0563496 0.073067 -0.0376525 -0.00614327 0.197176 -0.0947481 -0.0554302 0.0291899 0.0724876 0.00576278 -0.0223047 -0.0692205 -0.0603931 -0.0445793 0.00723823 -0.155153 -0.137292 0.0775421 -0.0672066 0.0173676 0.0650405 -0.0339993 -0.138126 0.216075 -0.0187892 0.0893736 -0.01187 0.0398 0.0127936 -0.137058 0.0433211 -0.00870849 0.107537 0.00575632 0.0341226 0.0351983 -0.0203775 -0.0249319 -0.11269 -0.00127469 -0.0336064 0.033521 -0.130131 0.070743 -0.0420986 -0.000564788 -0.145732 -0.0975594 0.0177313 0.094672 -0.0583134 -0.148384 0.0573074 0.0699015 0.0101708 -0.102958 -0.0305225 0.146143 0.0479875 -0.052044 -0.0892414 0.0909714 0.108399 0.162223 -0.0285323 -0.177811 -0.0926511 0.0776019 0.0439195 0.105017 -0.0686801 -0.0225333 0.0198517 -0.0522316 -0.112965 -0.150953 0.126289 0.190737 -0.109324 -0.108986 -0.024028 -0.0155899 0.0958621 -0.0583823 -0.206363 0.0634692 0.0711838 -0.19283 -0.100082 0.103493 0.11718 -0.0119647 0.230194 -0.0187192 -0.0608738 -0.18958 0.233509 -0.0557971 0.1014 0.0690951 0.113533 0.0186264 -0.0464925 -0.0825194 -0.0857805 -0.0688023 -0.0590559 -0.0283603 -0.039761 -0.126864 -0.136757 0.116397 -0.0628131 -0.12022 0.0463758 0.0439488 -0.129031 0.0053971 0.213034 -0.00909772 -0.115693 0.149033 0.0203178 0.201988 0.146447 -0.014409 0.0850221 -0.196489 0.0725715 0.105228 0.147987 -0.0795985 0.315702 0.274209 0.0277605 -0.0764522 -0.0592046 0.0329279 0.0625335 0.0177594 0.13449 0.0102894 0.217358 0.00165257 0.0207963 -0.175704 -0.16996 -0.163137 0.0432291 0.0299568 -0.0723952 -0.0228387 0.123089 -0.257946 -0.125027 0.0191551 -0.12593 -0.184479 -0.0381514 0.0813182 -0.156748 0.175986 0.0197451 -0.108829 -0.104537 0.101533 0.0449236 0.0255602 -0.0411141 -0.201212 -0.115994 0.0223905 0.067871 0.0169406 -0.160654 0.0523446 0.163065 0.122772 -0.0865004 -0.0537173 -0.260252 0.133587 -0.0799902 0.0874543 0.0198798 -0.196573 -0.205006 0.237697 -0.145269 -0.0154639 0.0322479 0.0124511 0.019292 -0.0205919 -0.00261006 0.091711 0.0198909 -0.216035 -0.208154 0.0384162 -0.0508164 0.129101 -0.203313 -0.147152 0.16428 -0.0980318 0.128672 -0.0590952 0.133274 0.123691 0.0248654 0.0539456 -0.0562428 -0.126789 0.142518 0.0747026 0.137565 -0.0438743 0.0679447 -0.149377 -0.315229 -0.0783833 -0.00710186 -0.0756023 0.0847722 0.0210713 -0.114535 0.0143982 0.18261 0.180541 -0.128413 -0.233738 0.0447735 0.152911 0.0416292 0.0186962 -0.0165226 0.0662137 0.0200279
думать -0.0502617 -0.0484359 0.0976837 0.06688 0.0207602 -0.0842726 -0.105575 -0.0864788 -0.00149928 0.0588367 0.206333 0.0546135 -0.0940068 -0.000440748 0.0146097 0.00252853 -0.119118 0.173637 0.19289 0.0595258 -0.150942 -0.0445627 -0.121301 0.0532134 0.00755893 0.133273 0.0507698 -0.0397347 0.0887346 0.0387675 0.00775242 -0.00758711 -0.0465193 -0.00155015 0.180891 0.00507125 -0.083668 -0.0335325 -0.0173605 -0.0453199 -0.00812373 -0.201439 0.0292975 0.066481 -0.111249 0.381971 0.0791794 0.0883285 -0.149247 0.10614 -0.188816 -0.000788042 -0.17539 0.0760448 -0.169829 -0.089258 -0.0510985 0.0356419 -0.0417929 0.198011 -0.0531871 0.153095 -0.0333864 0.163747 0.140771 0.0608513 -0.0325945 0.146312 -0.114426 0.0795507 0.0491251 -0.00775891 0.110301 -0.14551 -0.0876006 0.00746825 -0.103597 0.0963406 0.153319 -0.129127 -0.0580723 0.0130993 -0.0330837 0.0818199 -0.0305281 -0.102856 0.0239642 0.0017629 0.0719623 0.182664 -0.0051017 -0.0324871 -0.230455 -0.0336601 0.217736 0.000194008 0.0197269 -0.0695713 0.151383 -0.0965264 0.0433624 -0.219213 0.0249003 0.24577 0.0879821 -0.156878 0.091671 -0.173876 -0.249968 -0.113926 -0.163999 -0.0195304 -0.0710147 -0.0765966 -0.107816 -0.17448 -0.175258 0.121576 0.00715276 -0.0358618 -0.0909311 -0.348976 0.104513 0.111317 0.076569 -0.103467 -0.0485426 0.0142251 7.28785e-005 0.0794597 -0.018609 0.11657 0.0359449 -0.174747 -0.0707235 -0.0391657 -0.149294 -0.0482209 0.0603127 -0.0756051 -0.0438871 -0.0126363 -0.123503 0.00124148 0.0691625 -0.209658 0.0697738 0.0791502 -0.177106 -0.0494825 0.0335908 0.115278 0.109102 0.231348 0.00947274 -0.0336617 0.0140282 -0.131728 0.015758 -0.0533499 -0.193765 0.0890168 -0.111217 -0.208389 0.0813535 0.0291958 -0.0545217 -0.0753528 0.126633 0.0385309 -0.0389671 -0.0306149 -0.269204 0.0603461 -0.119278 -0.132402 0.167936 0.00822821 -0.0426251 -0.0356509 -0.00808176 -0.0526521 -0.0562369 0.0185885 -0.185672 0.0931677 -0.179831 0.236382 -0.0982351 0.233043 0.174552 0.158003 -0.00496103 0.0211211 0.081592 0.0179472 0.202476 0.0616616 0.0821366 0.145263 -0.0197788 -0.149946 -0.0058722 -0.0976631 0.0128285 -0.14808 -0.284137 -0.187343 -0.0962859 -0.239613 -0.0654472 -0.0515463 -0.0807965 0.068264 0.014147 0.0331293 -0.0627486 0.126716 -0.293847 -0.036991 0.115558 -0.0580374 0.158623 0.0508498 -0.154754 0.0586824 0.106069 0.0931053 -0.114458 -0.119528 -0.0997978 -0.109119 0.172654 0.0102544 -0.0928477 -0.170671 0.00077551 0.012382 -0.122589 -0.287511 -0.0994537 -0.115125 0.0204941 -0.0560833 0.0835249 0.101104 -0.133565 0.0785134 0.22323 -0.232551 -0.0493002 0.0585857 0.0984688 0.0424192 0.210582 -0.135178 -0.217367 0.334334 -0.0706151 -0.105809 0.00785035 0.116446 0.192371 -0.112653 -5.3562e-006 0.161496 0.0439423 0.0441457 0.0919722 0.0198024 0.0142663 0.158375 -0.155837 -0.202383 -0.0424268 0.240874 0.0185573 -0.0198491 -0.141641 -0.173338 -0.135056 -0.0226112 0.175991 -0.113151 0.0955018 -0.0131472 0.130155 -0.088645 0.2437 0.202736 0.129584 -0.0715939 -0.0186724 0.253392 -0.150293 0.0315944 0.012352 -0.0311762 -0.0256342 0.00458578
жизнь -0.072991 -0.0983233 -0.0840072 0.118986 -0.0463245 -0.138714 -0.0371233 -0.0170749 -0.0506118 0.000266913 0.0527976 0.0232051 0.104657 -0.0909392 -0.0552425 -0.182421 -0.0849951 0.0631902 0.139635 -0.211571 -0.0909374 0.00416165 -0.044252 0.0580364 0.00318975 0.110771 -0.0173255 -0.00481529 0.108923 0.113233 0.15433 0.114444 -0.11439 0.00730897 0.154287 -0.102503 -0.0035658 0.04398 -0.0685964 0.101209 0.0792159 -0.128192 0.0256967 0.0671686 -0.141287 0.284175 0.07337 0.0817113 -0.105806 0.0907204 -0.016956 -0.0800045 -0.140127 -0.0241654 0.0477623 -0.0935099 -0.0334409 -0.166833 0.113523 -0.0504944 -0.00930584 0.133051 0.0582066 0.0820853 0.0407355 -0.0336639 0.210061 -0.0264886 -0.171813 0.0614438 -0.0409448 -0.128219 0.286365 0.111265 -0.0855431 0.00299242 -0.0647717 0.0399301 0.0964998 -0.0382731 -0.212874 -0.149105 -0.206994 -0.183634 -0.0733475 -0.0367428 -0.0356985 -0.0759835 0.0217932 -0.0295708 -0.0393057 0.129917 -0.134011 -0.0812593 0.0738335 0.0801363 0.168969 -0.0231535 0.237628 0.0317771 -0.0998731 -0.0193414 -0.0875485 0.11316 0.0363639 -0.00787276 0.0754924 -0.111881 -0.0691823 -0.0765493 0.142301 -0.00263682 -0.0366358 0.124743 0.0687078 -0.262716 0.0688744 -0.0745531 0.115057 0.0114959 -0.0315902 -0.0285206 -0.038376 -0.1782 0.0227263 -0.00902792 -0.141539 -0.0391239 -0.0420367 -0.0662238 0.0995025 0.252309 0.0315074 -0.044124 -0.0666422 0.0135081 -0.0257972 0.05944 0.0474027 -0.0522515 -0.190004 -0.0387466 -0.190088 -0.0104847 -0.0801734 -0.052934 -0.147009 0.0157644 -0.166515 -0.0909291 -0.0161755 -0.0326332 -0.0433899 0.125214 0.189413 0.149545 -0.18742 -0.0262778 -0.0615873 0.0165702 -0.103346 0.0510175 -0.12523 -0.066434 0.0188124 -0.212538 0.0102009 -0.0497069 0.0243674 -0.0993891 -0.278906 -0.177288 -0.322083 0.191529 -0.0554223 0.0112178 0.140455 0.0950394 0.0304154 0.0190827 -0.139739 -0.0114829 -0.0138358 0.0296923 -0.0251294 0.146078 -0.0122094 0.222244 -0.112656 0.0907175 -0.0945756 0.273642 0.0365117 0.0890166 0.0787886 0.106785 0.157465 -0.00888346 0.0243062 0.11735 -0.041133 0.0295676 0.0329473 0.0896168 -0.110913 -0.209991 -0.117026 0.0788139 -0.0542531 -0.035651 0.182621 -0.0546658 0.00672112 -0.0161322 -0.0278059 -0.286674 0.0769924 0.154956 -0.183445 0.050836 0.156939 -0.124274 0.116832 -0.00886326 0.115173 -0.101609 -0.123613 0.0207458 -0.0327418 -0.17632 0.0947659 -0.0383478 0.146453 0.0317163 0.0177705 -0.0834816 -0.0288842 -0.116458 -0.0434281 -0.333482 0.0283868 -0.052678 -0.0213263 0.0148701 0.175941 -0.0714088 -0.247951 0.0885572 0.0793883 0.01636 -0.0695532 -0.156048 -0.00959394 0.0362193 0.142369 -0.0222311 0.0874283 0.0245922 -0.124157 0.0108575 0.0508254 0.105432 0.0800156 0.00273119 0.005519 -0.00575455 0.0354277 0.0291139 0.0602916 0.0226166 -0.0181561 0.121781 -0.116564 -0.204566 -0.0650393 0.0833869 -0.0453065 0.111858 0.038399 -0.0898157 0.0361712 -0.132637 0.0851734 -0.0734063 0.0493798 0.0910158 -0.0277683 -0.106559 0.100582 0.174381 -0.00719107 -0.180483 -0.0971452 0.0931021 -0.0613118 -0.0721456 0.0179031 -0.0837451 -0.132365 -0.0603703
вопрос 0.0257065 0.0723082 -0.0564615 0.251781 0.0437841 -0.0526637 -0.0201172 0.014029 0.0325724 0.0412212 -0.0539067 -0.102267 -0.0504803 0.0702247 -0.0753488 -0.0793355 -0.00718809 -0.0275 0.0644735 -0.0217436 0.0338254 0.000969111 0.0326013 0.0534875 -0.128325 0.0354616 -0.0347171 0.0224532 0.0323477 0.0659284 -0.099499 0.0651388 -0.0742383 0.1177 0.0432148 0.0226023 -0.0336733 -0.0223173 0.0534028 0.0846716 0.0458091 0.088993 0.024204 0.00465308 0.0110857 0.0675883 -0.00583022 0.0360812 -0.0334084 0.047423 0.0425682 -0.0355042 0.0691467 0.017566 -0.00570012 0.0476229 0.0225806 0.0787 -0.0481423 0.135408 -0.06099 0.0422341 -0.0912394 -0.0945514 0.00116792 0.00863537 0.044814 0.0112056 0.00587481 -0.0290494 -0.0744738 0.0653529 0.059807 0.0125006 0.0351514 -0.091512 0.0286373 0.0443442 -0.00957317 -0.0927086 -0.03588 -0.119561 -0.14207 0.0808846 -0.0198312 -0.088322 0.103658 -0.111418 0.0810661 0.0416423 0.148724 0.102368 -0.083197 -0.0511589 -0.0982939 0.0395605 0.124061 -0.103592 -0.00365814 -0.110137 -0.0391065 0.0380159 0.00654878 0.0233623 -0.0382882 0.0319462 -0.0249513 -0.0285225 0.0683352 0.115191 0.0392543 0.0306615 -0.0157972 -0.150103 -0.0520681 -0.0816801 0.0204243 0.0740464 -0.0594754 -0.0618196 0.0536666 0.152939 -0.0755454 -0.0408164 -0.0108875 0.0400088 0.0375854 0.0851311 -0.0778513 0.0194343 -0.027198 0.0393771 -0.0695696 -0.0624018 0.00385292 -0.0550181 0.118266 -0.0217438 0.0137595 0.114917 0.0819876 -0.00925205 -0.0449901 0.0690876 0.0307736 0.00959505 -0.146503 0.0162814 0.0795906 0.152602 -0.0153748 -0.0206282 -0.0980416 0.00372638 0.0152042 0.030476 -0.0201081 0.0268563 -0.0181242 -0.0746942 0.00825194 0.0132904 -0.0492264 0.0581983 -0.0805576 -0.039656 0.0454829 0.12818 -0.0418473 0.0798708 -0.00941216 -0.00754118 -0.0501768 0.0369502 0.0129435 -0.0143313 0.102495 -0.00211408 0.0540462 0.0849963 -0.131882 0.0962415 -0.0526611 0.108614 -0.0474276 0.0815634 -0.0875092 -0.0777681 -0.103744 -0.0295318 0.0675597 0.0221451 -0.110989 -0.00712882 -0.0357418 0.116476 -0.0434399 -0.0142505 -0.0595509 -0.172156 -0.0568308 0.0680983 0.0691846 0.0209507 -0.0927012 0.0388569 0.0234941 0.018174 -0.0166225 0.0615323 -0.0411745 -0.132839 0.0197801 -0.164494 0.0563664 -0.122542 -0.00492702 -0.0502453 -0.0496001 0.0675131 0.0848551 -0.00722731 0.0115871 -0.0796935 -0.049817 -0.0386056 -0.0677826 0.0633923 -0.0297219 -0.0517946 0.0250958 -0.0618913 0.0549914 -0.0525793 0.0887359 0.0113116 -0.00264134 -0.0322605 -0.0931832 -0.00742387 0.00297802 0.127372 -0.000694138 -0.0713073 -0.0490733 -0.0549404 0.0530056 -0.0172651 -0.0265289 0.0337233 0.0224943 0.040794 0.0242122 0.044661 0.129303 -0.141731 0.0350046 0.0494559 -0.0605994 0.0384696 0.0128556 0.0588452 0.0234217 0.0589124 -0.0544418 -0.148432 -0.0257958 -0.0145666 0.0382119 -0.0101838 0.0601663 -0.0764654 0.0143065 0.0714967 -0.077458 0.0399969 -0.00423099 -0.0429425 0.0797973 0.0578389 0.0554278 -0.0241308 -0.0791783 -0.145393 -0.0181657 -0.0126756 0.0791888 -0.0256311 -0.0322698 0.0950423 0.0151889 -0.173259 0.0453577 0.0754168 -0.0119237 0.0791672 0.00231322 -0.00670353 0.00762186 -0.0334581
ответ 0.0143031 0.0503041 0.0167607 -0.0673168 -0.118033 0.0584556 -0.0572271 -0.0471487 0.102014 0.0567075 -0.0611971 -0.0501837 -0.216057 0.00114435 0.0368287 -0.013327 0.114074 -0.0370037 -0.108585 -0.0623626 0.0752441 -0.02409 -0.0161875 -0.0770296 0.108464 -0.105056 0.0350555 0.0589873 -0.111394 -0.0587216 -0.0497848 0.0263585 0.0939669 -0.0883346 -0.140862 0.0513441 -0.00176858 0.0106328 -0.0511198 -0.119429 -0.0799154 0.059274 -0.0519119 0.106622 0.0522957 -0.00133206 0.0601134 0.0733519 0.0301845 -0.104821 0.0727913 -0.071761 -0.153497 -0.0768542 0.0353317 -0.00986097 0.200672 0.0639419 -0.0512674 0.0373494 0.0205245 0.168431 0.0302873 -0.0480647 -0.0021886 0.0614479 -0.178971 -0.184776 0.101429 0.00453564 -0.0876274 -0.039862 0.0157271 -0.123414 0.0444417 0.0010372 0.0031358 0.127869 0.124063 -0.178902 0.122797 0.150305 0.0133904 0.0749772 0.121541 0.0946038 0.0647842 0.0272626 0.0458008 0.0516625 0.114932 0.0637342 0.0319587 0.0341561 -0.0258131 -0.0373819 0.0959364 -0.124373 -0.0449768 -0.00430626 -0.01888 -0.10319 0.0886594 -0.124552 0.0141119 -0.150129 0.00979714 -0.0821326 -0.0633841 0.14555 -0.0706889 -0.0530149 -0.0758307 -0.0891693 0.101684 0.166238 -0.0132196 -0.0311625 0.00601689 -0.0192078 0.0152144 -0.0819364 0.187197 0.139062 -0.0268149 -0.0102237 -0.0252284 0.0491624 -0.127886 0.00996167 0.0553678 0.0214108 0.0337487 -0.00441285 -0.0212337 -0.030426 -0.0182887 -0.172462 0.0915227 -0.191015 0.0773179 0.0137841 0.0478147 -0.0434122 0.0114088 -0.0374128 0.0484547 0.0117606 0.0516738 0.0690447 -0.0882959 0.0376205 -0.0648848 0.0134405 -0.0755186 -0.0220618 0.0633894 -0.0970183 0.0825991 -0.0510475 0.0872938 -0.0349589 -0.0135642 -0.0154306 -0.0929757 -0.0385209 0.0160033 -0.0145688 0.0571166 0.0152532 -0.0579993 -0.0204562 0.00301816 -0.0167213 -0.0606927 -0.0912376 -0.135442 -0.0979198 -0.0574066 -0.108699 0.0549085 0.0902475 -0.0142873 0.0522904 0.0387884 -0.0221985 -0.197208 -0.126278 -0.0433655 -0.160692 0.224857 -0.0093535 -0.0489625 0.0561535 -0.0431799 -0.0283654 -0.0731212 0.0292021 0.0521548 0.136539 -0.0526135 0.198763 0.0728513 0.0138812 0.0987102 0.0352422 -0.0768758 -0.150706 -0.0783277 0.171471 -0.0944761 -0.20841 -0.0547921 0.127305 0.0279833 0.0289339 -0.138132 0.124579 0.00663334 0.0478275 -0.0584911 0.0136697 0.0775027 -0.0147291 -0.0559269 0.0481805 0.0846889 -0.0246081 -0.0555301 0.0401414 -0.129669 0.0593375 0.0850141 0.0273896 0.0160428 -0.0265423 -0.0613203 0.0438583 -0.0831691 0.0173818 -0.0749789 -0.0941791 -0.0288931 -0.143536 -0.0191934 0.126495 0.071534 -0.0326543 -0.0898263 -0.0887756 -0.00282921 -0.0440274 -0.119186 0.0614704 0.045666 0.0626262 -0.018226 -0.0212994 -0.0490717 -0.0629551 0.0619525 -0.0939003 0.116012 0.0100438 -0.0825953 0.0423796 -0.0481389 -0.0621747 0.000950538 0.0442557 0.00531505 0.0624015 0.00810657 0.0354531 -0.0322676 0.0465289 0.0955931 -0.105319 -0.0199969 0.0105383 -0.0176106 -0.0898533 -0.0201322 -0.0417655 -0.0475021 0.0979217 0.0163105 -0.143732 0.0572923 0.189727 0.180742 -0.0542772 -0.0246393 -0.119528 0.0260511 -0.126129 0.0105041 0.0186501 0.0591884 0.15184
нужный 0.0549377 0.28521 -0.0253743 0.304518 0.0292401 0.0608354 0.00796995 0.01792 0.0841686 0.0274804 -0.0152349 -0.18608 -0.0138176 0.0645319 -0.163128 -0.0621523 -0.0934556 -0.0662337 0.102307 0.108146 0.104102 0.00362781 -0.0614789 0.0904255 -0.133212 -0.0109311 0.0793678 -0.0279552 0.0658034 -0.0809676 -0.12606 -0.00594145 -0.139497 0.0911308 0.0550247 -0.0121126 0.0386237 -0.0082322 0.0353607 0.0928597 -0.108799 0.012112 0.0759869 0.0317277 -0.0607697 0.20401 -0.0545466 0.0571383 -0.0608007 0.0416013 0.0115425 0.121733 0.119691 -0.000651464 -0.139523 0.167703 0.0781614 0.150187 0.0567852 0.189261 -0.059193 0.144139 -0.145068 -0.183087 0.0672264 0.135105 -0.0841371 0.0870067 0.0845625 -0.0242466 -0.0476786 0.103814 -0.0619115 -0.0846663 0.0848809 -0.14566 -0.0354648 -0.0954209 0.0492514 -0.126749 0.118428 0.00533379 -0.090701 -0.0058789 -0.129645 -0.307888 0.213151 -0.0416703 0.133565 0.177966 0.193221 0.0908938 -0.184233 0.00319235 -0.0349078 0.0595379 0.0669772 -0.0103726 -0.129402 -0.149556 0.0861999 -0.0162442 0.0489667 0.0419306 0.0854201 0.0664799 -0.0471797 0.0493851 0.130807 0.112035 -0.197394 0.0458154 0.0248187 -0.169389 -0.0892442 -0.0627806 -0.0396877 0.0801768 -0.111643 -0.144477 0.0686643 0.0520048 -0.119554 0.0198696 -0.0268829 0.0719881 0.0357775 0.129585 0.000327526 0.0953999 -0.00793028 -0.221388 -0.0352874 -0.148725 -0.02419 -0.096394 0.0773445 -0.0967514 -0.0701957 0.018144 0.0157565 0.142643 0.057062 0.129957 0.110242 0.0183462 -0.0806339 0.0614268 0.0410472 0.127118 0.0168984 0.0984501 -0.0576791 0.0565298 -0.0570666 0.0101954 0.0961929 0.0901189 0.0243757 -0.0542989 0.0304611 0.0854375 0.0237315 -0.0155963 0.00486336 0.00538894 0.0813176 0.173682 -0.116878 -0.0100312 0.0825321 -0.0950769 0.0269912 -0.123783 0.0321731 -0.083304 0.0841468 -0.118684 -0.00957858 0.222125 -0.12132 0.000403239 -0.0553636 0.139801 -0.105357 0.0913945 -0.0356155 0.0367593 0.00218168 0.00845025 0.201811 -0.0351654 -0.171487 0.0638228 0.0590865 0.179645 -0.0171148 -0.0813798 -0.0991257 -0.315881 -0.0904142 -0.0382307 0.100551 -0.0191739 -0.167713 0.0611403 -0.0230129 -0.0422705 -0.09486 0.0136918 -0.105227 -0.229786 0.0962106 -0.15657 0.101965 -0.0321361 -0.0582023 -0.112281 -0.163166 -0.00344394 0.10628 -0.00434851 0.0760184 -0.0524501 -0.158099 -0.0797897 0.101302 -0.0455153 -0.0627457 0.0338182 -0.122096 -0.139768 0.00294969 0.0219767 0.0728649 -0.0586336 0.0895326 0.00269468 -0.0633157 0.0990001 -0.051604 0.0491363 0.00620765 -0.0771541 -0.122302 -0.138174 0.126497 -0.0674754 0.142798 0.014156 0.0188124 0.0838488 0.0353686 -0.074758 0.122947 -0.131755 -0.0222126 0.177288 -0.0313164 -0.0329938 0.0139858 0.0421335 0.126094 0.0268604 -0.0866685 -0.200468 0.0375577 0.0790838 0.0691319 -0.0608804 0.231915 -0.079139 -0.06888 0.169332 -0.141856 -0.0284983 -0.0233794 -0.236919 0.175332 0.065927 0.0709174 0.0346042 -0.170976 -0.212038 -0.019446 -0.0166633 0.0466006 -0.0194509 -0.00580971 0.0932031 0.0677744 -0.0423682 0.0552896 0.143316 -0.0811378 0.175336 -0.0675227 -0.0961412 0.0192024 -0.103351
знать -0.0487598 -0.053896 0.0178795 0.204718 -0.0497519 -0.024546 0.0406256 -0.0905205 0.00515786 -0.0626238 0.13996 -0.00862268 -0.158552 0.0178289 -0.177196 -0.141868 -0.186915 -0.0879919 0.0290336 -0.0372042 0.090378 -0.0111759 -0.165006 0.151768 0.0937456 -0.0122059 0.0135801 0.113853 0.0513554 -0.107509 -0.054354 0.021901 -0.216851 0.0746383 -0.0034935 -0.22793 -0.110084 -0.0891745 -0.0190701 0.0472681 -0.0236822 -0.234256 -0.100816 0.0258152 -0.243271 0.225974 0.0190583 0.0275385 -0.0991904 0.154654 -0.0173467 -0.00241762 -0.027012 0.171001 -0.074822 0.215572 0.0832124 0.071627 0.0442279 0.0949056 0.0734617 0.154273 -0.0492865 0.135224 0.103228 0.183469 0.00629365 0.149953 -0.0861334 0.0575348 0.19077 -0.137112 0.0566654 -0.027283 -0.0408038 -0.182714 -0.0993796 -0.16356 0.00248579 -0.028184 0.00854434 -0.0828518 0.0951901 -0.116891 -0.0511542 -0.12891 0.172829 0.0843213 -0.0504927 0.144476 0.0834326 0.066502 -0.0267338 0.0290192 0.0499475 0.163441 0.0240457 -0.0348352 0.0183421 -0.0611253 0.0733655 -0.0967208 -0.0704003 0.0664726 0.149482 0.095821 -0.0497616 0.0224688 -0.0607594 -0.0651376 -0.217871 0.00243306 0.06678 -0.0171856 0.0964468 -0.0320477 -0.0109713 -0.0717983 0.047906 -0.174703 0.0122155 -0.0395772 0.156236 -0.119176 0.151272 -0.114381 -0.121168 0.149738 0.00475182 0.0385543 0.0482857 -0.121094 -0.0105157 -0.2399 -0.080908 -0.0560489 -0.0830321 -0.096255 -0.0449873 -0.163525 -0.182484 0.128773 0.00172713 0.0753498 0.0694103 0.0474584 -0.117022 0.113778 0.0993401 -0.0448392 0.0392425 0.185203 -0.000668179 0.170985 0.061461 0.127183 -0.00282415 0.170439 0.000614953 0.170118 0.0586149 0.0877702 -0.0667147 -0.000974628 -0.00133917 0.0365617 0.0118783 0.0970138 0.0694832 -0.016909 -0.115736 -0.0849206 0.0191701 -0.254778 -0.162198 0.0477257 0.153196 -0.0412106 -0.0812143 0.248223 -0.0832328 0.00836721 0.116051 -0.0405576 0.0370494 0.0891308 0.163336 0.204522 -0.0388686 -0.0959353 0.0578852 -0.0238757 -0.177555 0.189628 0.220211 0.124073 -0.0266986 -0.00613186 -0.122131 -0.0359805 -0.101749 -0.193482 0.0374362 -0.0138307 -0.215503 -0.272361 -0.0610879 0.0105979 -0.209676 -0.119622 -0.0980503 0.0681457 0.0833788 -0.0869476 -0.0872887 -0.112801 0.0715713 -0.0907872 -0.215407 -0.153562 0.119334 -0.101058 0.0259551 0.00239005 0.029823 -0.184691 0.0780733 -0.129823 -0.052357 -0.0470946 -0.150808 -0.313888 0.155296 -0.0387858 0.0718781 -0.182749 0.113152 -0.182689 -0.00207546 -0.127271 0.00764179 -0.0733004 0.0377133 -0.0087737 0.10578 -0.0426891 0.0354441 0.089275 0.234917 0.0242377 -0.0716222 -0.00495102 0.0951181 -0.100298 0.0832147 -0.233473 0.209305 0.309479 -0.195511 -0.00966048 0.099497 -0.00988583 0.200046 -0.145166 -0.0978405 0.0718597 0.101971 0.206388 0.0793793 0.0850275 0.0210076 -0.0672315 -0.128835 0.0916667 -0.194703 0.052887 -0.085956 -0.0909419 -0.0408959 -0.00221193 -0.0509469 -0.118588 -0.0209365 -0.199827 -0.0470962 -0.0144327 -0.100601 -0.0612031 0.0808065 0.151352 0.143726 0.236861 0.037725 0.131841 0.0220237 0.017377 -0.0394766 -0.151479 -0.34618 -0.0810896
ночь -0.17738 -0.085081 0.068261 0.101607 0.266428 0.00604281 0.279505 -0.0789429 -0.00875331 -0.0575052 -0.0979592 0.0505863 0.0850368 0.0841581 -0.0261995 0.0234474 -0.0421344 -0.0850835 0.0541613 -0.233704 0.0466179 0.0147266 -0.137872 -0.138619 -0.183757 -0.0253086 0.101335 -0.185422 0.107133 -0.0474936 -0.0451065 -0.0074486 -0.342086 0.0462532 -0.128094 -0.113578 -0.0823139 0.0392592 -0.080522 0.131524 0.00745556 -0.020127 0.073591 0.13063 0.0278452 0.0502691 -0.120508 -0.160285 0.106631 0.215371 -0.0322963 0.308931 0.0870274 0.194726 0.00711178 0.0885355 -0.116183 0.102661 0.173214 -0.102322 0.0651517 0.114995 0.16141 -0.017241 0.00681716 0.169563 0.243043 0.0408904 -0.143615 -0.0447921 0.198694 -0.0843901 0.0888731 0.102864 0.0430665 -0.258172 -0.0266383 0.0844977 -0.0903482 0.110757 -0.166603 -0.0162685 -0.139274 -0.140333 -0.158238 -0.0754844 -0.00913035 0.0457585 0.0216479 -0.0625057 0.0596723 -0.103335 -0.0454379 0.00377541 0.113679 0.0962496 -0.0019427 -0.0981657 -0.0219513 -0.217656 -0.0669982 0.176921 -0.201564 -0.0538196 -0.113321 0.0973801 0.0599374 0.288764 0.121912 -0.0176198 0.0825175 0.274327 0.146301 0.0671797 0.0326885 -0.0752933 0.144403 -0.151833 -0.0360159 0.0572884 0.0437561 -0.0525223 -0.137945 0.00846165 0.0153887 0.121462 -0.0888864 0.0458249 0.158344 -0.0418391 -0.0801916 -0.0115899 0.183612 -0.14894 -0.107928 0.0989711 0.0778869 -0.00976093 0.0161479 0.0575016 -0.231615 0.0577914 -0.0255987 0.0142415 0.137966 -0.0861475 -0.0464297 0.0328094 -0.0358786 -0.0327969 0.027475 0.0352773 -0.0326779 0.0237005 0.286433 0.0732664 -0.279001 -0.084351 -0.0404968 -0.128653 -0.0551929 0.182163 0.028366 -0.0233708 0.0347399 -0.0786615 0.0218236 0.0437443 -0.123672 0.0175931 0.0336877 -0.081756 0.196119 -0.0201 0.134381 0.0559324 0.0718866 -0.0777975 0.0856282 0.192516 -0.0227236 -0.021247 0.00192318 0.0387451 -0.0772404 -0.209567 0.178429 0.0734484 -0.0899301 0.119487 -0.0422207 0.0655335 0.00987146 0.0991372 0.0911707 0.0554799 0.110418 -0.00267424 0.0655948 -0.0514798 -0.133561 -0.174641 0.112654 -0.0857964 -0.207392 0.0732526 -0.0871077 -0.0310767 -0.153469 -0.15814 0.0243596 -0.111794 0.0988071 -0.124082 0.0916209 0.141149 0.0795609 -0.14687 -0.0160751 -0.226487 -0.0219805 -0.0327183 -0.0335618 0.0959101 -0.0849951 -0.0271127 -0.0452557 -0.164812 -0.16232 -0.0518414 0.0414849 -0.116114 0.266639 -0.273824 0.135372 0.0224516 0.0859045 -0.115164 0.0668126 -0.092717 0.186981 0.124321 -0.0134121 0.000697033 0.0772171 -0.166051 0.0905564 0.102478 0.199628 0.234654 -0.0303956 -0.152817 0.0391883 -0.136576 0.123743 -0.0989796 0.105287 -0.00429208 -0.098196 0.100982 0.132467 0.0842451 0.0225451 0.247043 -0.162898 -0.0584215 -0.013985 0.181441 0.14695 -0.0673559 -0.069578 -0.1091 0.118435 0.170901 0.0465318 -0.0600402 -0.0789071 -0.0537043 0.272579 -0.105715 0.137523 0.120401 -0.0299266 -0.0115 0.0470209 -0.062484 0.0576627 0.0342843 0.0452445 0.149375 -0.245212 0.264255 0.118321 0.281347 -0.0587616 -0.1191 -0.193693 -0.120994 -0.185974 -0.0783845
тихий -0.0446455 -0.00517734 0.0157262 0.0315649 0.100552 0.0497068 0.0766317 -0.0136493 0.15672 -0.0737418 -0.144713 -0.0269828 0.0564763 0.043448 -0.00603529 -0.0482652 0.052691 0.242486 0.116672 -0.0619955 -0.00375014 0.131353 0.174408 -0.0945222 -0.0016481 -0.0238006 -0.07389 0.0293092 -0.0104512 -0.0358828 0.0360362 0.0695214 0.0835671 -0.0948748 0.0334662 0.0423762 -0.0549248 -0.013474 0.0698961 -0.00774252 -0.0155346 -0.0196872 0.107871 0.195959 -0.0195608 0.107747 -0.0474969 -0.0278019 0.1414 0.0667218 0.10842 0.0476553 -0.0136291 -0.144749 0.00423106 -0.064125 -0.0445262 0.0226026 0.0497617 -0.0953162 0.0721711 0.207391 -0.0132685 0.0113302 0.223149 0.0297567 -0.0380387 -0.0631892 0.224488 -0.0271954 0.0231291 -0.0268246 -0.0924566 0.0128365 -0.121682 -0.153436 -0.158876 -0.058478 -0.152279 -0.0392956 -0.018486 0.289881 -0.106241 -0.0632043 -0.0408347 -0.181297 -0.129089 -0.101148 0.139896 0.105682 0.229746 0.0216341 -0.0576483 0.057739 0.00917843 -0.0390526 -0.0542771 -0.223107 -0.192589 -0.221088 0.159137 0.0811948 -0.166374 -0.206497 -0.115575 -0.107528 0.0561455 0.147694 -0.133869 -0.0112908 -0.0756239 0.0803446 -0.129569 -0.056053 0.0202799 0.0280312 0.196028 -0.0784136 0.000684873 0.0137536 -0.14605 -0.172695 -0.0792419 0.171217 -0.0780241 0.11252 -0.0855994 0.0286533 0.274234 -0.10113 0.0473669 -0.138164 -0.0250663 -0.174012 -0.0156177 0.0245596 -0.0525362 -0.0684009 -0.207052 -0.0654277 -0.048529 0.00904973 -0.00578723 0.0214412 -0.00662648 -0.207066 0.0991946 0.126947 -0.138591 -0.0826294 0.114943 -0.148892 0.0805126 0.0363087 0.0792174 -0.0275078 -0.0314241 -0.00845554 -0.0590284 -0.0119816 -0.122063 0.123157 -0.0030263 0.0217311 0.0276902 0.00302445 -0.120164 0.0820974 -0.130851 -0.0316177 -0.00105984 -0.0231246 0.0818277 -0.0941072 -0.0655099 -0.0246932 0.0535657 -0.0569567 0.0680148 0.0492879 0.0446856 -0.0567008 -0.0290622 -0.0522706 -0.158883 -0.0340525 0.0209238 0.120927 -0.0968426 -0.0446135 0.0670732 -0.0242563 0.0697178 0.0635685 -0.000816805 -0.0465673 0.055277 0.107734 0.105801 0.216142 0.0624206 -0.146796 0.102465 -0.0970711 0.0729559 0.0687386 -0.138566 -0.281761 -0.0660616 0.0701946 0.100485 -0.239015 -0.157277 -0.024042 0.0362299 0.0636246 -0.123002 0.0413862 0.0691674 -0.0865389 -0.00948875 -0.0236521 0.177828 0.0918812 -0.13575 0.127629 0.0932129 -0.0405757 -0.01882 -0.118295 -0.0145181 -0.041215 0.0661523 -0.0865729 -0.152904 0.139578 -0.0861107 0.0930874 -0.0665829 -0.0651237 0.00956625 0.0249971 0.122499 0.0649845 0.0686962 -0.0139421 0.078286 -0.105037 0.101723 0.0910972 -0.090036 -0.140043 -0.107942 0.0096284 -0.0554782 0.0680153 -0.0356311 0.134234 -0.0530675 -0.0456652 -0.0378439 0.0675794 -0.0333463 0.00624893 -0.00233065 0.0968691 -0.128364 0.110028 0.146434 -0.0192648 0.0422145 0.0903112 -0.116055 0.0762479 -0.069502 0.00698796 0.218366 -0.133551 0.103919 0.0171692 -0.0713023 0.093598 0.0636517 0.231372 -0.14213 0.0209986 0.00819746 -0.0154092 0.0344421 0.168094 0.130581 -0.00445014 0.0116183 0.0738341 0.0374707 -0.0876894 -0.147 -0.0768621 -0.0615756 0.0384734
слышать -0.0435281 -0.0431699 0.0955432 0.0504766 0.102064 0.0535412 0.0693299 -0.0159095 0.0156692 0.0275504 0.0427921 -0.0199608 -0.0660439 0.0570777 0.0357903 0.0297158 -0.0356658 -0.0291779 0.0626349 -0.0554367 0.00870291 0.0589293 -0.0958537 -0.00548413 0.00623734 0.0111384 0.123564 -0.0587996 0.00177819 0.0308368 -0.0389531 -0.0274398 -0.10235 -0.0263232 -0.0261073 -0.106363 -0.0198605 0.0194333 -0.0426041 -0.0195911 -0.0722706 -0.0207514 0.0525894 0.0888873 0.0081841 0.0641651 -0.0738693 -0.0220095 -0.0497229 0.0239729 -0.10039 0.146315 -0.0203893 0.0396826 0.0252492 0.00652594 0.0253804 0.0821858 0.0948582 0.0462886 0.0406783 0.0893272 0.0497092 0.00928054 0.0201691 0.127315 -0.0602814 -0.0151483 -0.0729172 0.0231227 0.0310851 0.0481448 -0.00213654 -0.0181693 0.0184452 -0.0507933 -0.110404 0.0592575 -0.0205568 -0.074714 0.0277387 0.0538477 -0.0312884 -0.0350063 -0.0140559 -0.0316742 0.0194702 -0.0097276 0.0085645 -0.0633894 0.0558173 -0.0416361 -0.0170879 0.023867 0.0938444 -0.024118 -0.0544529 -0.0362438 -0.0370485 -0.100487 0.0390717 -0.0390786 -0.0430658 -0.0118516 -0.0181367 -0.0235336 0.0390635 0.0305804 -0.0273634 0.0506518 -0.0102483 0.0379924 0.00148771 -0.0325887 -0.0222426 -0.0365564 -0.0839333 -0.0255019 -0.0114204 -0.017004 -0.019665 -0.10525 -0.00988054 -0.016599 0.0490906 0.0252243 -0.016751 -0.00617204 0.0259466 0.0202543 0.00303655 -0.0554593 0.0195203 -0.0460088 -0.102345 -0.0223463 -0.00459049 -0.0794581 0.060319 -0.0251686 -0.0440334 0.0349154 0.00749773 -0.0509714 -0.0220206 -0.113832 0.0852965 0.00820537 -0.0278003 -0.0877244 0.0501248 0.00475582 -0.0409982 0.0574303 0.0320592 0.0330189 -0.0552288 -0.0452876 -0.00841952 -0.0133884 -0.0645219 0.0709275 0.0246425 -0.0765056 0.0132118 -0.0322093 -0.0120517 0.0295414 -0.0270719 0.0684971 0.00407445 0.0107954 0.0312959 0.00563784 0.0218816 -0.00924386 0.0998024 -0.0819551 -0.0196768 0.0867206 0.0469619 0.0270814 0.0101655 0.00867119 0.00203999 -0.016217 -0.0299716 0.0495005 -0.0443133 0.0653902 0.0345209 0.00959572 -0.0254751 0.0146079 -0.00524204 0.00470156 0.0564469 -0.0174482 0.0485334 -0.0194559 -0.000445987 -0.0599706 0.111768 -0.0597652 -0.0521031 -0.00787548 -0.071894 -0.0952135 -0.0651645 -0.0506386 -0.0482897 -0.024462 0.0213347 0.0386554 0.0244019 0.0748416 -0.0210701 -0.0469922 -0.109711 -0.0941065 0.00468611 -0.0360189 0.0867967 0.048627 -0.0537681 0.00431543 0.0873828 -0.00104655 -0.116403 -0.0623189 -0.0160208 -0.0819562 0.102628 -0.0511572 0.00929025 -0.0500777 0.0207949 0.0236003 0.00971923 -0.0506489 -0.0316575 0.0528944 0.0451366 -0.035914 -0.0376735 -0.0196506 -0.0310356 -0.0131868 0.0871445 0.044758 0.00184947 -0.00441299 0.0164087 -0.0573492 0.0410194 -0.104423 -0.0379108 0.0780033 -0.0753623 -0.0597735 0.0361211 0.0589778 0.056072 0.00489734 -0.0785784 0.0574618 0.00679287 0.0351491 0.0370009 0.0225446 0.0356208 -0.0232051 0.0466432 0.0187936 -0.0202676 0.0444635 0.0179203 0.000344604 0.0457709 -0.080093 0.00437071 0.0552533 0.0461108 -0.0475148 0.0319802 0.0119355 0.029682 -0.0388861 0.0312679 0.0833029 -0.0200213 0.12929 0.00694778 0.108596 -0.0857403 -0.0701706 -0.0237257 0.00856907 -0.00692353 0.0126103
тишина -0.18781 -0.0535597 0.127318 -0.0349834 0.0218069 0.084945 0.0971559 -0.136943 0.0706348 0.0209168 -0.0120944 0.00361971 -0.0798274 0.096521 0.0430636 -0.00489248 -0.0029787 -0.129607 -0.0814279 -0.199738 0.135935 0.0547891 -0.198275 -0.0816006 0.0432366 -0.0569441 0.290703 0.0945255 0.0606226 -0.0744209 0.0698213 -0.0747347 -0.23095 0.0516205 -0.052153 -0.183002 -0.104735 -0.0369122 -0.196261 -0.0883326 -0.154677 -0.0543276 0.0509038 0.132548 -0.126776 -0.0198593 -0.0600584 0.0396974 -0.0993349 0.116022 0.0802016 0.028777 -0.0915842 0.121747 -0.0392823 0.112495 0.299265 0.19348 0.214208 -0.142523 0.0442589 0.059415 0.0764968 0.0211363 0.0477226 0.287766 -0.0853322 -0.107012 -0.0328301 0.131142 0.0961469 -0.0701196 -0.0245843 -0.0842454 0.0599514 -0.193489 -0.117438 0.0223583 0.0874005 -0.0842714 0.0211836 0.0154673 0.120185 0.0160394 -0.0114297 0.073826 0.136596 0.0580678 -0.0556014 -0.0366784 0.118773 -0.0103746 0.0341771 0.0194072 0.13358 0.012398 -0.0306688 -0.115044 -0.0282198 -0.110404 0.159261 -0.00205306 -0.177301 -0.0833818 -0.048135 -0.0110467 0.0805056 0.125242 0.0258666 0.138284 0.0103298 0.173991 -0.0871822 -0.0334133 0.108281 0.112802 0.0502381 -0.158346 0.0201594 -0.0563119 -0.0278206 -0.0800491 0.152375 0.00470656 0.0304162 -0.1389 -0.157107 0.139742 0.0258568 -0.0100354 0.059069 -0.120494 0.0733476 -0.206992 -0.173032 0.0475069 -0.276362 -0.183384 0.0278006 -0.320119 -0.093937 0.0841215 -0.0410832 0.0177577 -0.066468 -0.102368 0.109699 0.0410748 -0.0161692 -0.194542 -0.0487315 0.0531494 -0.042042 0.113198 0.130014 0.019889 -0.0874818 0.136655 0.0416056 0.0384868 -0.0561296 0.0461579 0.0644048 -0.0231679 -0.0283395 -0.0237971 -0.0577405 -0.0556899 0.140323 0.00276532 0.0110084 -0.0317224 0.10281 -0.115612 -0.0899122 0.123147 0.0909233 -0.215622 0.0353426 0.0100227 -0.0228932 0.0847402 0.107337 -0.00278299 0.109616 0.0554677 -0.00466918 0.0168039 -0.116041 -0.0672137 0.0198807 -0.0108181 -0.082218 0.145686 0.0861839 -0.0131584 0.0500601 0.0859056 0.0525519 0.201084 -0.0797377 -0.16199 0.198185 -0.074404 -0.0978117 0.008529 -0.0129498 -0.115632 -0.164047 -0.0077703 -0.050983 0.0381164 -0.0698557 0.182281 0.0952371 0.0449179 0.0490413 -0.0255228 -0.113812 -0.0798536 0.106567 -0.0690817 0.098 0.06855 -0.0623086 -0.0423301 0.0770153 -0.121849 -0.101303 -0.153148 -0.101529 -0.183375 0.234583 -0.0710681 0.121013 -0.181826 0.112598 -0.0511928 0.00334142 -0.0812748 0.0106074 -0.0521545 -0.0239726 -0.121659 -0.0731477 0.053585 -0.0701972 0.0786923 0.123523 0.155304 -0.0905139 0.0778793 -0.0530875 -0.0118022 0.0795112 -0.0949644 0.0196169 0.102756 -0.18328 -0.0255165 0.0870457 0.152682 0.133878 -0.13133 -0.197382 0.130778 0.13333 0.121644 0.11673 0.050577 0.0293558 0.00196364 0.0490511 -0.0429324 -0.0171818 0.113025 0.0230802 -0.039038 0.0759018 -0.0918131 -0.0343389 -0.153724 0.11454 -0.0740353 0.0876298 0.039852 -0.0899054 -0.132133 0.0358804 0.143458 0.17182 0.320678 -0.157278 0.147366 0.0107298 -0.139433 -0.150408 0.0279424 -0.215652 0.126166
спать -0.134917 -0.0650903 0.0716807 0.0095831 -0.0808177 -0.0252086 0.0745844 -0.235123 0.109221 -0.0815742 0.117174 0.0351237 -0.0790143 0.0983333 -0.0526752 -0.157229 -0.165438 -0.256282 -0.0123662 -0.1734 0.20791 0.0486026 -0.209943 0.0522453 -0.0111747 -0.145269 0.154207 0.178086 -0.114949 -0.10332 -0.167082 -0.130974 -0.17879 0.0269275 -0.132821 -0.204913 -0.165891 -0.193899 -0.0564052 -0.0743084 -0.0951373 -0.131214 -0.0237145 0.112783 -0.0770292 0.0669732 -0.0636343 0.0174781 -0.0334469 -0.039959 0.0888204 0.0494943 -0.111273 0.186775 -0.198172 0.202523 0.209598 0.271295 0.0828903 -0.128625 0.093905 0.0586637 0.0253115 0.0836089 -0.00382484 0.276 0.0326085 -0.221023 -0.089103 0.225698 0.16545 -0.0744458 0.116085 -0.00497742 -0.05473 -0.187596 -0.0909175 -0.174398 0.035588 -0.129033 0.00795285 -0.0569061 0.152614 -0.116063 -0.0938327 0.00842264 0.0630265 0.0693177 -0.0241371 -0.0980581 0.0543815 -0.00447709 0.0552763 -0.0362241 0.0820336 0.117451 -0.000908528 -0.172869 -0.0135579 0.0835612 0.19164 0.16843 -0.190824 0.166222 0.180285 0.139841 -0.045302 -0.111056 0.0832793 -0.0302802 -0.0398129 0.0987212 -0.114943 0.0837509 0.060483 0.14979 -0.0106913 -0.116271 0.102444 0.0559912 -0.0910063 0.0118812 0.00100345 -0.0193669 0.0707006 -0.15438 -0.0552642 0.0894968 -0.0583314 0.0440821 -0.0169147 -0.00777653 0.11248 -0.234241 -0.109972 0.0640619 -0.180611 -0.20369 -0.0469634 -0.209856 -0.194494 0.0857532 0.104116 0.0277249 -0.00292596 0.0401392 -0.11026 -0.0101661 0.0614646 -0.121792 -0.0237652 -0.114218 0.00867413 0.159148 0.193689 0.0741038 -0.0886934 0.2096 0.162187 0.0164455 -0.0460739 -0.00515139 -0.0452421 -0.102708 0.0889259 0.089601 0.110338 -0.080995 0.225283 -0.0564197 -0.0621773 -0.159667 0.00642502 -0.0579471 -0.139417 0.0817069 0.108095 -0.109782 -0.0140282 -0.0205718 -0.095007 -0.206633 0.0207815 -0.121033 0.185761 -0.0579074 -0.0166263 0.043805 -0.0784813 -0.0478078 -0.121153 0.0725242 -0.0791954 0.274323 0.0974043 -0.00303 0.0202204 0.109098 -0.0711076 -0.0170846 -0.040713 -0.165155 0.00608927 -0.073011 -0.0988189 -0.0269779 -0.0513018 -0.0594532 -0.218587 -0.135948 0.203906 0.254419 0.0612477 0.269464 -0.0257823 -0.0539128 0.0474535 0.0506751 -0.156947 -0.305851 0.220402 0.129536 0.100795 0.140164 -0.0867619 -0.0403748 0.115568 -0.0997665 -0.137829 -0.041196 -0.190546 -0.173957 0.150544 0.140248 0.0398645 -0.14791 0.0855817 -0.0585683 -0.0983312 -0.210297 0.0138109 0.0961387 0.00230364 0.0806634 -0.0190695 0.0779699 -0.133161 0.20987 0.121603 -0.0590995 0.0057657 0.179933 0.00441775 -0.0579521 0.17254 -0.0696336 -0.00577223 0.171796 -0.0779732 0.103435 -0.0718586 0.0590916 -0.000356136 -0.265572 -0.176567 0.154178 -0.0506336 0.0274679 0.00585871 0.0646544 -0.0743808 0.0231855 0.0631133 -0.12928 -0.129252 0.0534349 0.053881 0.173863 -0.0571845 -0.106597 -0.0912645 -0.180318 0.0104158 -0.0618835 0.0241901 0.0514484 -0.151371 -0.186261 0.0897214 0.13032 0.160229 0.130279 -0.0298996 0.0303941 0.0554114 -0.125361 0.0437558 -0.115899 -0.206501 0.193732
бояться -0.13914 -0.0150552 -0.0334585 -0.00759443 0.0462807 -0.0334734 0.132097 0.0983956 0.0608434 0.13887 -0.00906796 -0.0859345 0.101306 -0.0581614 -0.0686634 0.146561 -0.0611248 -0.112537 -0.095404 -0.0724558 0.0672717 -0.0451024 -0.146911 -0.0522069 -0.0542232 0.0591799 0.13155 -0.00876424 0.130031 0.00482785 0.162612 0.0322243 -0.263838 0.0751064 -0.0912891 -0.142183 -0.0133076 0.105581 -0.111551 0.0351302 -0.0381674 -0.0140531 0.121593 -0.0634064 -0.101656 -0.122894 -0.120915 0.0784623 -0.114415 0.0599295 -0.0357791 0.0370101 0.0648585 0.167386 -0.0267074 0.192304 0.136352 -0.101654 0.212231 -0.102035 -0.0659021 -0.00919007 0.113256 -0.0117347 -0.0582193 0.163607 0.00718801 0.146267 -0.103995 0.00442159 0.162438 -0.0408035 -0.0493415 -0.0376725 0.193847 -0.0396983 0.0111147 -0.0282327 0.110765 0.0827454 -0.00189329 -0.0349036 0.114043 -0.111166 -0.0122095 0.00313136 0.132441 0.196854 -0.0511795 0.00550675 -0.0153327 -0.0785263 -0.0962206 -0.018566 0.0523474 -0.0588381 -0.084897 0.0410463 -0.108179 -0.0118983 0.034722 0.0441306 -0.0456462 -0.118183 -0.0707325 -0.0144383 -0.0549073 0.0945522 0.143568 -0.0347976 -0.00445099 0.115532 -0.0091379 0.0455911 0.127621 -0.123985 0.0445866 -0.0516798 -0.0201883 -0.0967848 0.0628514 0.0557343 0.0370491 -0.0733995 0.0796677 0.00627076 -0.0724883 0.00214598 0.113734 0.00373527 -0.00900529 -0.116352 0.0570157 -0.0121332 -0.0483184 0.0803273 -0.13808 0.114421 0.0721294 -0.181437 -0.002907 -0.012637 0.0333827 0.0498247 0.0346407 0.0201319 0.0891271 -0.014395 -0.0453334 -0.0220526 -0.0510777 0.179624 0.00607882 0.00801844 0.0903838 0.0441379 -0.0659733 0.150395 0.00449634 0.0348918 -0.0609934 0.0313421 0.114541 -0.0574898 0.0171709 -0.141077 0.115047 -0.00909099 0.0221616 -0.115309 0.0836071 -0.0534819 0.168115 -0.0921979 0.141685 0.0610793 -0.0498259 -0.0020432 -0.0373454 0.0219229 -0.0530187 -0.0295978 0.0970543 0.0197182 0.131165 0.0429449 0.0776029 0.00694604 -0.0258921 0.0597306 0.0583873 0.0370918 -0.039455 0.0065136 0.127407 0.0586471 0.0907029 0.00420467 0.0725494 -0.0637027 -0.0204459 -0.0212781 0.0694103 0.0916103 -0.144348 0.0955538 0.0601932 0.0608527 0.0485895 0.00200141 0.0050323 -0.0207757 0.0537357 0.0329866 -0.0164692 0.0235477 0.1356 0.0365093 -0.00869363 -0.022294 0.0121326 -0.0550641 -0.0767923 0.0238544 -0.0159423 -0.101819 -0.0780161 -0.206364 0.119188 0.0211523 -0.019112 0.00354387 0.0606387 -0.0784105 0.169167 -0.0709056 0.0422832 0.0877679 0.152057 0.0219804 0.0151233 -0.130654 -0.0700734 -0.0856108 0.0304893 -0.0747603 -0.0461392 -0.0248763 0.144523 0.107691 -0.0366415 -0.065162 0.00908307 0.0530363 -0.0143534 0.0269659 0.119318 -0.0749306 -0.136922 -0.0815724 0.116988 0.136698 0.0572876 -0.011817 -0.0473487 0.0588548 0.204101 0.258402 0.030492 0.0191518 0.0802249 -0.100888 0.0733062 0.0839445 -0.0172703 -0.0685688 -0.0856156 -0.0473672 0.0940613 -0.0598263 0.0831761 -0.12988 -0.0513184 -0.0551501 -0.00647308 -0.0640727 0.0178485 -0.00375748 -0.117827 -0.0340636 -0.0429842 0.239207 -0.0206792 0.0378008 -0.00811268 -0.013656 -0.134956 -0.0652681 -0.0739141 0.0988303
голова 0.0205899 0.31963 0.0913687 0.0535495 -0.0171145 0.134627 0.135707 0.0464193 0.0942541 -0.00604538 -0.025908 0.0931747 0.110657 0.222822 -0.108732 0.14272 -0.0950058 -0.00644698 -0.0544517 0.12785 0.140858 0.0193105 -0.0770332 -0.0155815 0.0213195 0.0652279 0.291118 0.104072 0.110953 -0.120926 -0.036334 -0.106381 0.0719038 0.0366879 0.017582 0.0983632 0.00525826 -0.0503279 -0.0628241 0.043783 -0.210584 -0.0597242 0.184798 -0.0168427 -0.0665739 0.0724782 0.10182 -0.00639133 -0.114073 0.025348 0.172215 0.302441 0.0268453 -0.0861261 -0.117139 0.0398127 -0.0347659 0.251019 -0.00607741 0.0111693 -0.0169562 0.0197759 -0.0366665 -0.176791 0.138372 0.146369 0.0403358 0.123129 0.0381684 0.0373519 -0.0231331 -0.014383 -0.131429 -0.0989664 -0.0198433 -0.161823 0.0481157 -0.13785 0.0834044 0.0141117 0.118171 0.0316718 -0.0612315 0.0655143 -0.147719 -0.151644 -0.0126089 0.0998587 -0.00781495 0.156717 0.0599451 -0.0261625 -0.0184453 -0.028173 0.172184 -0.0105813 -0.0141828 0.0766955 -0.104225 -0.0352928 0.210401 -0.102922 0.0969169 0.173149 -0.140748 -0.0939754 -0.00186219 0.113058 0.0547895 0.0845818 -0.151057 -0.0181388 0.206425 -0.149561 -0.0723675 0.149663 -0.00818587 -0.00723846 -0.0258364 0.0391108 0.0299881 -0.0904929 0.00650648 0.0445997 -0.0610286 0.0495849 0.0130419 0.150186 0.0551424 -0.0123301 0.0791303 0.00306892 0.0888501 -0.193689 -0.102042 -0.0307814 -0.0786591 -0.142914 -0.0134702 -0.165429 -0.058483 0.24678 -0.00769505 0.0267021 0.0186601 0.0955543 -0.0152449 0.036066 -0.0753343 -0.101782 0.0504126 0.0481358 0.041496 0.172769 -0.0474848 -0.029715 0.136861 0.0382332 0.062835 -0.0538368 -0.0343012 -0.152654 0.0845834 -0.0418382 0.0682054 0.0720711 0.00648097 0.0377729 0.0103282 -0.0764271 0.117508 -0.0225183 -0.0404606 -0.192398 0.0341615 -0.0780593 -0.0865382 -0.0363482 0.136518 -0.123377 -0.0639146 0.0332882 -0.0546459 -0.0560285 -0.112969 0.0607718 -0.160334 0.045748 0.0605899 0.114506 0.0448974 -0.0942715 -0.00941416 0.13675 -0.0407162 -0.0503101 0.0481098 -0.00369723 -0.0583357 0.022127 -0.0599346 -0.0253416 0.169121 -0.0750637 -0.245131 0.0381403 0.0618953 0.0103861 -0.124832 0.0074452 0.0252844 -0.135767 -0.136266 -0.19898 0.130575 0.0823316 -0.0776377 -0.146099 -0.0628695 -0.030244 0.0877378 -0.0742982 0.0695798 0.0984477 -0.15973 -0.0150077 0.223971 -0.0419288 -0.09431 -0.0587394 -0.126722 0.11433 0.0886148 -0.00521391 0.136033 0.0566068 0.0835292 -0.0314577 -0.0210243 0.0540837 -0.198985 -0.0330814 -0.0889863 0.171136 -0.0845481 -0.0822628 0.120148 0.0990283 0.036595 -0.00534442 -0.055187 0.198023 -0.0547695 0.0062379 0.124118 -0.00118996 -0.140499 0.0133761 0.120901 -0.064442 0.0519019 0.188172 0.178974 0.0288817 -0.132725 -0.129953 0.00966584 -0.00626942 0.0321716 0.0396588 -0.0307287 -0.0269942 -0.0728312 -0.0463748 -0.012136 0.0363008 0.0951656 -0.136535 0.100746 -0.0315256 -0.0667532 0.226693 0.140619 -0.18622 0.124378 0.0221888 -0.104307 -0.0511976 0.0956317 -0.0559469 -0.0587205 0.219465 -0.0640473 0.222488 -0.0987185 -0.0603621 -0.0907259 -0.0528262 0.00324904 -0.10275
полна -0.028388 0.0917587 -0.0255245 0.0753589 -0.0554669 0.0517124 0.0956234 -0.0202621 0.121654 0.0175586 -0.140212 -0.063324 -0.0609235 0.0909515 -0.0886641 -0.0408402 -0.00109304 -0.166934 -0.0775599 -0.105291 0.170124 0.0489879 -0.0446032 -0.0166803 -0.034874 -0.0705205 0.0759782 0.0834108 -0.0408279 -0.0384202 -0.0571759 0.0591446 -0.101634 0.0753582 -0.125609 -0.0993954 -0.00621222 -0.0403598 -0.0930855 0.041167 -0.0442108 0.0966911 0.0419317 0.0687676 -0.00451432 -0.0983633 -0.0755687 -0.0509721 0.0372676 0.0286582 0.0960984 0.0506832 0.0715656 0.0299746 0.0498956 0.113137 0.201755 0.110741 0.0403164 -0.0136286 -0.00846257 0.101457 -0.0228141 -0.101454 -0.0240988 0.14473 -0.0528444 -0.162615 0.0629776 -0.0482839 -0.0411192 -0.00555781 -0.0501318 0.00920345 0.0842848 -0.112153 0.0383692 -0.0629237 -0.0634092 -0.010087 0.0889782 0.0103611 -0.0199167 -0.0149597 -0.0202283 -0.0363665 0.133701 0.00744164 0.00126776 -0.0566322 0.161178 0.0350336 0.0586315 -1.94158e-005 -0.0606785 0.0494619 0.0527246 -0.0566883 -0.128469 -0.0235463 0.0700819 0.0655987 -0.0542734 -0.127679 -0.0344568 0.0699918 -0.0484884 0.0881667 0.125944 0.113474 -0.0047057 0.026101 0.0235467 -0.0714872 0.104399 0.0746945 0.0745751 -0.0883536 -0.0387491 -0.0525661 0.0705183 0.118332 0.0119153 -0.0260611 -0.00929585 0.0713388 -0.0106066 0.0928081 -0.0605454 0.00326628 0.00572169 -0.129882 -0.0352121 -0.091487 -0.0635444 -0.00660205 0.0655208 -0.122024 -0.0389434 -0.0709322 0.00943479 0.117682 0.0671202 0.0779604 0.0168628 0.0870902 -0.0551718 0.0155091 0.10772 0.0606272 -0.0258694 0.020881 -0.129205 -0.021026 0.0364404 0.0741425 -0.04346 0.111251 0.056139 -0.00708172 0.0976683 -0.0168602 0.0900997 0.0746273 -0.103627 -0.0597841 0.077776 0.0928074 -0.0415258 -0.0392918 -0.018727 -0.0808619 0.146366 -0.145488 0.0189602 0.0644871 -0.0327001 -0.0648306 0.000338546 0.0974972 -0.0380466 0.0897725 0.0167601 0.0460279 0.13052 0.0234909 0.0576175 -0.0964893 -0.0230941 -0.15792 0.0632096 -0.0875025 -0.118431 0.102107 0.0133265 0.0768701 -0.107187 -0.012311 -0.0448177 -0.167575 -0.0439493 0.0318158 0.0998258 0.0411058 -0.0808328 0.0746283 0.0895364 -0.0126566 -0.0614529 0.122871 -0.0373305 -0.0848332 0.0671567 -0.0639635 0.0793035 -0.0531992 -0.0283239 -0.106064 0.0140773 -0.0163481 0.0208024 0.035044 0.00911118 -0.0727547 0.00528234 -0.0779075 -0.0358733 -0.124416 0.0160566 0.0423091 -0.0524464 -0.0236742 0.0566775 -0.0377758 0.135358 0.0202977 0.0769111 -0.04864 0.0344426 0.0636486 0.0261113 -0.00542909 -0.0615665 -0.0990067 -0.0262803 -0.0169822 0.119974 -0.0489871 -0.0686682 0.128478 0.00343422 0.0174489 -0.110387 -0.0498641 0.0139243 -0.0292495 0.145004 -0.0405443 -0.0728259 0.0377748 0.050545 -0.00108505 0.0332741 0.0425131 -0.0803248 -0.113343 0.0448572 0.026961 0.0301894 0.0343282 0.0561002 -0.108999 0.104738 0.148274 -0.0972513 -0.122163 0.00474101 -0.064068 0.154687 0.0691018 0.0545971 -0.015676 -0.140854 -0.120102 -0.0817917 -0.00400453 -0.0950091 -0.0443956 -0.0681458 0.0473837 0.0687133 0.105707 0.0269439 -0.0212569 0.0359796 -0.0152944 -0.0798159 -0.0675776 -0.0965093 0.0639777
слово -0.121708 0.0295505 0.0915479 -0.0705486 -0.241525 -0.00532948 0.149416 0.0569501 0.00214446 0.108926 0.0189881 0.123632 0.13854 0.187658 0.0148479 0.0249688 -0.175194 -0.222244 0.0738072 -0.120053 -0.114135 -0.0232279 -0.37692 -0.096239 0.0770916 0.277033 0.301189 0.0279752 0.0376284 -0.0610233 -0.0409717 0.0300888 -0.251816 0.0864057 0.0149738 -0.214622 0.278697 0.0441446 -0.118916 0.157299 -0.263346 0.0140377 0.110999 -0.0118906 0.00790838 0.123122 -0.166401 -0.116945 -0.0831256 0.0128647 -0.31546 0.420703 -0.0137509 0.090692 -0.142819 -0.0318609 0.0835601 0.0708764 0.257122 0.0246137 -0.070875 0.0928843 0.0364131 -0.0191122 0.0367128 0.235336 -0.073199 -0.110534 -0.113037 0.060133 -0.00356872 0.118195 -0.12598 -0.107986 -0.0526041 0.0195644 0.0234338 -0.304999 0.022763 0.32157 -0.0419363 0.103185 0.0998981 -0.100929 -0.218084 -0.143589 0.124918 0.172882 -0.0369292 -0.209784 0.141006 -0.199582 -0.110274 -0.0161628 0.345476 0.0341389 -0.161684 0.370346 -0.00383178 -0.0148088 0.278497 -0.179918 -0.230011 0.0712712 0.119766 0.081009 0.0659447 0.164784 0.106074 -0.19478 -0.127669 0.153047 0.249751 0.0880025 -0.0162047 0.0661662 -0.0881341 -0.0294872 -0.160079 0.0678964 -0.0343009 -0.133638 0.0117306 0.0910405 0.00712931 -0.0654303 -0.0881744 0.110893 0.0386966 0.3473 -0.105186 -0.173473 -0.101122 -0.167094 -0.0167764 -0.161466 0.173654 0.020714 -0.153633 -0.0516572 -0.293181 0.235778 0.133612 0.15455 -0.198358 -0.0395533 0.230161 -0.247771 -0.125102 -0.261223 0.0730565 0.0457497 0.179213 0.185671 -0.0371313 -0.0852796 -0.163002 0.127989 0.0193144 -0.0641307 -0.27705 -0.00670385 0.184635 -0.246903 0.0784167 0.112641 0.148456 -0.0936306 0.0138186 -0.149811 0.121024 -0.0417426 0.303357 -0.142853 0.106338 -0.0735515 0.00202741 -0.00343627 -0.0894884 0.130083 -0.0362076 0.0145791 0.0338294 -0.0304371 0.0952819 0.204805 0.106418 0.20964 -0.0545263 0.411947 0.110909 -0.150057 0.152116 0.118264 0.0732026 0.0152774 0.201843 -0.0599322 0.125612 -0.210825 0.238415 -0.280967 0.144429 0.109557 -0.133487 -0.0210281 -0.138175 -0.271224 -0.0373542 -0.217715 -0.0515552 0.108929 0.0690283 -0.0393201 0.113728 0.0975473 0.156895 -0.159667 -0.202938 -0.111062 0.0643414 0.0526011 0.19636 -0.0892319 -0.0992494 0.0795604 0.165103 -0.0346592 0.134098 0.0268616 -0.1782 0.107514 0.12591 0.0877651 0.0452826 -0.0861207 0.272644 0.113725 0.127997 -0.00633016 -0.0260549 -0.260242 -0.0981296 0.141324 0.0184334 -0.106977 -0.0827107 0.0167165 0.143261 -0.00236587 -0.181966 0.20807 -0.0877499 -0.169316 -0.0308821 -0.02951 -0.14926 0.133575 0.0699981 -0.0286802 0.00863682 0.199073 0.222003 -0.0306926 -0.127673 0.0300907 0.193371 0.0198145 0.145721 -0.0749251 -0.00929801 -0.0397507 0.0927607 -0.0901939 -0.0903859 -0.105489 0.0292723 -0.030663 0.0948655 -0.116498 0.00760149 0.0686991 -0.0653442 -0.309353 0.240465 -0.117156 -0.167455 0.112317 -0.00432575 -0.0572021 0.000305138 0.275061 0.0341972 0.105029 -0.183081 0.0180731 -0.0747447 -0.169755 0.0077243 -0.0412552
старый 0.00349033 0.00851526 -0.0175272 0.210951 0.0988742 0.076101 0.0732728 -0.1031 0.0493304 -0.21238 0.180999 -0.00304868 -0.121062 0.083066 -0.0122688 -0.180333 0.0339882 -0.129432 0.0635278 -0.0229579 0.013462 0.170478 -0.13541 0.135277 -0.111803 -0.0115223 0.0771146 -0.0339948 -0.0865301 -0.0252325 -0.279358 -0.0944358 -0.127608 0.00681226 -0.0377203 -0.0704669 -0.0234949 0.0489937 0.00295697 -0.0359381 -0.0211217 -0.0667909 -0.0240505 -0.0242216 -0.000186827 0.121337 -0.0658791 -0.0752396 -0.132681 0.000590433 -0.0588408 0.242081 -0.0890551 -0.082855 -0.132694 0.0904248 -0.0579254 0.36212 0.234194 0.143799 0.149333 0.273525 -0.084076 0.0187351 0.0121846 0.258901 0.0269599 -0.113285 -0.150433 0.0421789 0.105917 0.0837825 0.0811505 0.0170787 0.121351 -0.184405 -0.0651754 0.0158542 0.0363778 -0.293172 0.142141 -0.0624482 -0.0428615 -0.0746657 -0.14309 -0.123597 0.0780764 -0.0624431 -0.00275788 -0.116433 0.141226 -0.0107686 0.027485 -0.0437902 0.107035 0.0786056 0.0349625 0.00830456 0.131314 -0.0366397 0.151868 0.121878 -0.0588849 0.256104 0.257259 0.208749 0.0576143 0.0757068 -0.00420772 -0.00444287 -0.0442411 0.0640305 0.0663982 -0.0174351 -0.035875 0.0804758 0.0387987 0.0199797 -0.0143703 0.0968168 0.061675 0.109861 -0.196493 -0.116627 0.0246496 0.0120831 0.0125036 0.105624 -0.141224 -0.102275 0.092905 0.0577095 0.0551895 -0.241351 -0.0743082 -0.0223707 0.129132 -0.239996 0.0260276 0.0312442 -0.254338 0.0452817 0.0697131 -0.0475889 -0.0248334 0.0656074 -0.107619 -0.137782 0.162624 -0.0285519 -0.0292176 -0.201309 -0.0723572 0.096948 0.103041 0.175094 -0.0673892 0.0449845 0.0901506 0.0122206 -0.0648716 0.0836909 -0.208321 0.0317471 0.0589336 0.000539183 0.0745351 0.0605822 0.162991 0.0643822 -0.117299 -0.0247818 -0.0618008 0.204851 -0.0582973 -0.0805564 0.209846 -0.065996 0.111001 0.0576275 -0.065059 -0.00695118 -0.0534943 -0.0760388 -0.0774099 -0.145677 -0.0587715 -0.0188093 -0.0167221 0.036421 -0.0829794 0.0376859 -0.0256654 0.109723 -0.150488 0.101348 0.128223 -0.10121 0.0547672 -0.0497054 -0.0358329 -0.0997532 0.174346 -0.158719 -0.199698 -0.147741 -0.1692 -0.106688 -0.159281 -0.108407 0.0400666 -0.070602 0.0699733 -0.0233158 0.144802 0.0138914 0.0979668 -0.0446926 -0.204646 -0.224801 0.166444 0.0223321 0.0948359 0.0825649 -0.0655605 0.0202779 0.232149 -0.0426547 -0.228385 -0.133744 -0.026162 -0.183593 0.17658 0.061254 0.0981869 0.0312278 0.0172855 -0.139173 -0.0702937 -0.135318 0.0312101 0.218108 0.112319 0.0800938 -0.145608 -0.0474694 0.0376419 0.153359 0.104229 0.140129 0.048027 0.0241388 0.107253 -0.228943 0.104811 -0.217338 -0.0144558 0.193891 -0.0737223 0.115165 -0.00630756 0.013225 0.0564517 0.0091509 -0.131628 -0.0381118 -0.133935 -0.0228614 0.0698224 -0.0437746 -0.116648 -0.0924632 0.00855342 0.00766425 -0.0613209 -0.00151883 0.130675 0.0442867 0.0794604 -0.0932925 0.0718471 0.0972031 0.0588603 -0.124709 0.0687285 0.110273 -0.0278022 -0.119636 -0.0337435 0.121436 -0.0737366 0.181301 0.0806669 0.0729943 -0.106067 -0.19906 0.0390289 -0.00504395 -0.145879 -0.0412002
новый -0.0190831 0.00856635 -0.035099 0.360656 0.10618 -0.0900681 0.217959 -0.0368939 0.0132758 -0.0262705 -0.0207056 -0.197594 -0.00774129 0.0855833 0.0295874 -0.150528 0.001585 0.0558168 0.133315 -0.186473 -0.190603 0.00693704 0.028813 0.0674606 -0.0908477 0.042386 -0.0720484 -0.307047 -0.0240767 0.0492522 -0.0945746 0.0738063 -0.172542 -0.138025 -0.0947777 -0.156421 -0.0206867 0.0793705 -0.085038 0.124377 0.0362411 0.0775858 -0.0796319 0.180799 0.0608588 0.338901 -0.150732 -0.136571 0.210337 0.220403 -0.222699 0.287883 0.0552186 -0.0563128 -0.108377 -0.145465 -0.169151 -0.0919902 0.0756994 0.134726 0.0735964 0.358903 0.013549 0.0952599 0.0474588 0.0667538 0.132954 -0.0316075 0.0772936 -0.0105595 0.0298083 -0.103776 0.130107 0.109283 -0.0111253 -0.0365562 -0.159647 -0.0048131 -0.107452 0.0145991 -0.029755 0.109287 -0.169569 -0.115257 -0.210464 -0.260117 -0.235443 0.018667 0.0981091 -0.134455 0.0428748 -0.0076966 -0.151205 -0.0718082 0.124444 0.152342 -0.0199136 -0.232733 0.103342 -0.216299 -0.160209 -0.186985 -0.0324035 -0.172534 0.0481394 0.0352196 0.101231 0.138194 -0.113491 -0.0478749 -0.0464442 0.0562101 0.163712 0.00354804 -0.00628773 -0.126527 0.0660667 0.0286596 -0.074488 0.00462769 0.0418879 -0.0908067 -0.113626 -0.114712 -0.031848 0.246664 -0.138833 0.0122647 -0.00546036 0.0673685 -0.00371375 0.0227006 0.149764 -0.291234 -0.0396069 0.000792124 0.307264 -0.271513 -0.0987281 0.0764893 -0.149208 -0.119571 -0.0953298 -0.014449 0.0572492 -0.103107 -0.0886799 0.281356 -0.0463403 0.102052 0.0547666 -0.0697414 0.209346 0.0525166 0.139295 0.251246 -0.0959879 -0.307741 -0.0712368 -0.214192 -0.0428692 0.285514 -0.0314249 -0.0226239 0.0250817 0.032741 -0.0211828 0.0749012 -0.146075 0.241393 -0.192945 -0.0583371 -0.0748599 0.246514 -0.104645 -0.185573 0.0816228 0.129672 0.0694429 0.228638 -0.0107309 -0.00932535 -0.00462972 0.00249792 -0.219293 -0.191958 0.11288 0.292002 -0.1203 0.0575597 0.104778 0.206507 0.152491 0.0740988 0.112887 0.121406 -3.09546e-005 0.0239493 0.0807885 -0.125326 0.0719984 -0.0391089 0.134191 0.0765716 -0.102271 -0.11998 -0.330456 -0.169254 -0.0137351 -0.0353007 -0.0469792 -0.148162 0.169443 -0.0715014 0.209497 -0.0149939 0.0334775 -0.0105029 -0.207662 -0.203744 0.115703 -0.0807614 0.0784301 -0.0852606 0.0222743 0.167742 -0.041492 -0.0301613 -0.216625 -0.0144864 0.142156 -0.0609858 0.100834 -0.168003 -0.0684075 0.194059 -0.0970953 0.0285203 0.00043692 -0.344227 -0.0469841 0.084134 0.0403661 0.00499447 0.099276 -0.181212 0.10856 -0.0236307 -0.0379683 0.116712 0.0412404 -0.187048 0.0289426 -0.165424 0.233828 -0.129167 -0.030019 0.118297 0.0639117 -0.107875 0.176926 -0.0225313 0.103799 0.318214 -0.118848 -0.119302 -0.0815476 0.0815732 0.153748 0.0294268 -0.0280662 0.0459372 -0.0753856 -0.0588263 0.138999 0.108314 -0.11974 -0.0912701 0.207571 -0.0744398 0.114983 0.251188 0.0491449 -0.134557 -0.00164756 -0.123185 0.0581685 -0.0145209 0.247578 0.286977 -0.269315 -0.0294172 0.220901 0.1853 -0.0918097 -0.133532 -0.143772 -0.185189 -0.0647051 0.01193
хороший -0.041698 0.0968324 0.0177767 0.0611134 -0.105452 0.0577769 0.124829 -0.0446479 0.0573957 -0.11185 -0.0840837 -0.0912904 0.0128224 0.054015 -0.11916 -0.114519 -0.116284 -0.108255 0.0204754 -0.13365 0.160352 0.119016 -0.10523 0.0416999 0.0445897 0.0783965 0.147347 0.00531655 0.0104539 -0.14966 -0.0135067 -0.0101702 -0.048686 -0.0207817 -0.0876555 -0.0608902 -0.0244379 -0.00357943 -0.0601637 0.207258 -0.173748 -0.0459735 0.0936773 0.147054 -0.0670372 0.121038 -0.10182 0.0139339 -0.0469664 -0.0370295 0.00884649 0.170353 -0.0567416 -0.161869 -0.0476548 0.0980891 0.0656503 0.041195 0.216158 -0.00307452 -0.0131101 0.187478 -0.00510175 -0.0180641 0.0566553 0.292189 -0.0132548 -0.093066 0.0892599 0.0537488 0.00784061 -0.0908304 0.0422721 0.014804 -0.0253109 -0.13603 -0.0724132 -0.177251 -0.0187471 -0.0419295 0.0550314 0.0651228 0.024132 -0.154573 -0.134053 -0.184775 0.0208135 0.0360245 0.0700446 -0.100792 0.126284 0.0420656 -0.0350609 0.0364307 0.0403099 0.0640378 0.0782188 0.012372 0.0139922 -0.021477 0.208412 -0.0159964 -0.0819837 -0.0121726 -0.0586994 0.125452 0.0336203 0.0652386 0.0323264 0.0051726 -0.216634 -0.0153087 0.0956903 0.0239282 0.0557029 0.0785577 0.0520288 -0.0865567 -0.0137291 -0.041583 0.0292444 -0.0360027 -0.1143 -0.0816425 -0.0434889 0.0712911 -0.0601447 0.065632 0.0113127 -0.0260469 0.0785475 -0.0857026 0.0329669 -0.219568 -0.0586682 -0.0228897 0.0319875 -0.197152 -0.0791954 -0.180437 -0.250005 0.161373 0.0115827 0.0993889 0.0113352 0.0853908 -0.0230888 0.0675924 -0.0592058 -0.127001 0.0840137 -0.0145434 -0.0412845 0.162317 0.0467131 0.120369 -0.0985572 0.162415 -0.0826801 0.074974 0.0109498 0.0384395 -0.015409 0.0511075 0.0414957 -0.102979 0.0182092 -0.0352725 -0.0593565 -0.0698188 -0.0717592 -0.129294 0.0035219 -0.131839 -0.0259427 -0.0376634 0.00328669 -0.0919091 -0.00557479 0.0807412 -0.100492 -0.00199575 -0.0186123 -0.0869556 0.0568539 0.104188 0.0818094 0.127089 0.0581062 -0.0078403 0.00981309 -0.0056891 -0.0523987 0.208759 0.0188057 0.170246 0.0999611 -0.0222347 -0.0366267 -0.0339865 0.0421171 0.076051 0.148783 0.0719794 -0.170129 -0.048127 -0.114739 -0.0743398 -0.165753 0.110879 0.113361 -0.207403 0.0117869 -0.0902411 0.0791645 -0.0458958 0.0251272 -0.0476439 -0.198272 -0.0825269 0.149927 -0.0826507 0.12461 -0.0579916 -0.0756935 -0.0567834 0.133986 -0.113743 -0.0573207 -0.0994414 -0.119058 -0.038552 0.0345543 0.0878913 0.0783188 -0.0532148 0.160503 -0.0409536 -0.0159186 -0.067663 -0.0182681 0.0448987 -0.0286715 0.0384391 -0.0349289 -0.0422902 0.0720863 -0.0234111 0.0427292 0.175468 -0.102992 0.00652657 -0.163657 -0.160874 0.03841 -0.0180709 0.0442224 0.11703 -0.0343677 0.00719691 0.0262062 0.100814 0.186229 0.00579988 -0.121826 -0.0668921 0.0609614 0.0768078 0.119555 -0.00309377 0.109422 0.0497028 -0.0765463 -0.0256107 -0.095848 -0.0187999 0.106544 -0.047194 0.211919 0.0155228 -0.00606809 0.00674771 -0.0378929 -0.125398 -0.0554845 0.111379 -0.176584 -0.104512 0.0178923 0.0685235 0.0927357 0.0827581 -0.0773386 0.0235121 -0.0555071 -0.0901469 -0.0193465 -0.121415 -0.109646 -0.0272251
плохой 0.0593522 0.101848 0.0181216 0.131936 -0.0877129 0.000537917 -0.105412 -0.0971166 0.0330929 -0.0765695 -0.0748634 -0.0364246 -0.0770794 0.027224 -0.0216287 -0.0848321 0.0231738 -0.0944772 0.0385681 -0.0552357 -0.0548659 -0.0441826 -0.0193437 0.0157691 -0.0553388 0.0825885 0.0343988 0.0201626 -0.0372636 -0.144379 -0.115925 0.0812201 -0.0846901 0.0973848 -0.0194294 0.0162234 0.114821 -0.00362204 -0.0413116 0.128496 -0.0510771 -0.0184719 -0.0760392 0.0235662 0.0485733 0.129662 -0.0338295 0.00633601 0.140213 0.0669228 -0.0166308 0.00183906 -0.0575481 0.0151958 -0.0254411 0.066494 0.0717034 0.0809346 -0.0702735 0.193292 0.0420433 0.253731 -0.0791284 -0.0438648 0.0151574 0.0542878 -0.0722397 -0.102382 -0.000324118 -0.0224589 -0.113705 0.0286871 0.0787419 -0.0640404 -0.0585486 -0.0291167 0.00826989 0.0327669 -0.0300442 -0.082925 -0.00815782 -0.0102761 9.57917e-006 -0.0254456 -0.125514 -0.086069 0.0961332 -0.0540446 0.112532 0.0234763 0.234078 0.101614 -0.0952767 -0.00368948 0.0603632 0.0938995 0.145831 -0.0245155 -0.0116605 -0.0834731 -0.00874599 -0.0930617 0.0152318 0.00652521 0.0892505 0.100331 0.0582388 0.0260338 0.0626561 0.0539633 -0.173253 0.0829403 0.0473402 -0.0655795 0.0754249 -0.0520583 0.0173433 -0.0100711 -0.0650915 -0.0888783 0.0521904 -0.00964251 0.016398 0.0274493 -0.116991 0.0263414 0.0236686 0.144337 -0.137391 0.0836161 -0.0961117 -0.0394538 -0.0266321 -0.107069 0.0270367 -0.0666899 0.166846 -0.0918986 -0.047527 -0.0374633 -0.0225514 0.0660163 0.0563427 0.0787655 0.0619292 0.0344685 -0.044495 -0.0663254 0.118805 0.138359 -0.0648226 0.0688379 0.0173603 0.0273308 -0.0355172 -0.0180708 0.0579482 -0.0843012 0.00542152 -0.0849677 -0.00180113 0.0281062 0.047766 0.0382488 -0.0660722 0.0453268 0.0690641 0.0357061 0.0366196 0.00864253 -0.012406 -0.0675915 0.00324404 -0.0424812 -0.0713062 -0.0218217 0.0601218 -0.108099 -0.0538489 0.107919 -0.0292094 0.140183 -0.0545687 0.152073 -0.0550263 0.0678814 -0.0486377 -0.0657331 -0.0353821 -0.06123 0.2238 -0.0257955 -0.17218 0.0481678 -0.103214 0.0642413 0.0296593 -0.100106 -0.0400044 -0.14805 -0.10275 -0.00911046 -0.0235966 0.00613081 -0.0157565 0.0368778 -0.0926207 -0.0965717 -0.0827933 0.0772161 -0.129004 -0.226612 0.0141682 -0.0934201 0.0716102 -0.0269315 -0.00312592 0.00548142 -0.135131 0.0866537 0.0318867 0.0519983 0.080027 -0.0561014 -0.0725148 -0.0457386 0.0196826 -0.0366914 -0.0219786 0.0309299 -0.0630576 -0.0589402 0.113861 0.00350418 0.0116677 -0.0372533 0.0189967 -0.0787618 -0.0881003 -0.0607324 0.0329952 0.0212038 -0.0589201 -0.105343 0.0493446 -0.00373009 0.064916 -0.0132873 0.0184703 0.0686008 0.0173956 -0.00909439 -0.0684393 -0.0971531 0.0757102 -0.0961459 0.033701 0.161179 -0.0201077 0.0604728 0.0200137 -0.0654075 0.208065 0.0584663 -0.106796 -0.125182 0.0329316 -0.0845665 0.127997 -0.0195376 0.0166078 0.026572 0.00347364 0.088277 -0.0217751 0.00548795 0.0110733 -0.182271 0.127197 0.0653082 0.0648677 -0.0485717 -0.140256 -0.17066 0.0082645 -0.0316305 0.00723671 -0.0106354 0.0306265 0.152914 0.0942795 -0.119025 0.159843 -0.0886606 -0.0714094 0.0137473 -0.0678052 -0.0859435 -0.0675207 0.00881627
